{"learner":{"attributes":{"best_iteration":"33","best_score":"3.14344589432809"},"feature_names":["price","promo","year","quarter","month","day","dow","is_weekend","sales_lag_1","sales_lag_7","sales_lag_14","sales_lag_28","sales_roll_mean_7","sales_roll_mean_28","price_roll_7","price_roll_28","is_hol","price_h5","promo_h5","price_ratio_h5"],"feature_types":["float","float","float","float","float","float","float","float","float","float","float","float","float","float","float","float","float","float","float","float"],"gradient_booster":{"model":{"gbtree_model_param":{"num_parallel_tree":"1","num_trees":"84"},"iteration_indptr":[0,1,2,3,4,5,6,7,8,9,10,11,12,13,14,15,16,17,18,19,20,21,22,23,24,25,26,27,28,29,30,31,32,33,34,35,36,37,38,39,40,41,42,43,44,45,46,47,48,49,50,51,52,53,54,55,56,57,58,59,60,61,62,63,64,65,66,67,68,69,70,71,72,73,74,75,76,77,78,79,80,81,82,83,84],"tree_info":[0,0,0,0,0,0,0,0,0,0,0,0,0,0,0,0,0,0,0,0,0,0,0,0,0,0,0,0,0,0,0,0,0,0,0,0,0,0,0,0,0,0,0,0,0,0,0,0,0,0,0,0,0,0,0,0,0,0,0,0,0,0,0,0,0,0,0,0,0,0,0,0,0,0,0,0,0,0,0,0,0,0,0,0],"trees":[{"base_weights":[-1.4126222E-1,-6.2190574E-1,6.485244E0,-1.4589033E0,1.0023766E0,1.5601858E0,7.866899E0,2.1102438E0,-1.8694226E0,-3.4664345E0,1.7845126E0,9.600697E-2,2.1006966E-2,4.5651045E-1,1.7800929E-1,2.5361115E-1,-1.0598955E-1,1.863096E0,-2.273726E0,-2.8993035E-2,-1.9638886E-1,2.7566297E0,-1.4641126E-1,-5.3993035E-2,2.5335655E0,-2.621155E0,2.072223E0,3.6509268E0,7.352438E-1,9.401045E-2,-1.0308634E0,1.6361116E-1,-2.8993035E-2,9.401045E-2,-1.4557123E-1,1.1342621E-2,1.6134262E-1,1.961558E-1,-3.9930344E-3,-5.5324048E-2,7.6678276E-2,3.6111453E-3,-9.6388854E-2],"categories":[],"categories_nodes":[],"categories_segments":[],"categories_sizes":[],"default_left":[0,0,0,0,0,0,0,0,0,0,0,0,0,0,0,0,0,0,0,0,0,0,0,0,0,0,0,0,0,0,0,0,0,0,0,0,0,0,0,0,0,0,0],"id":0,"left_children":[1,3,5,7,9,11,13,15,17,19,21,-1,-1,-1,-1,-1,-1,23,25,-1,-1,27,29,-1,31,33,35,37,39,-1,41,-1,-1,-1,-1,-1,-1,-1,-1,-1,-1,-1,-1],"loss_changes":[3.766767E2,1.510096E2,4.2164032E1,1.10904816E2,1.390042E2,4.2436552E-1,1.390686E-1,1.1098627E2,1.0383481E2,5.712631E0,6.2347366E1,0E0,0E0,0E0,0E0,0E0,0E0,1.6548038E1,9.602609E1,0E0,0E0,3.7085495E1,2.3447622E1,0E0,1.5695965E1,7.864429E1,9.921577E0,1.5545502E1,1.3459173E1,0E0,9.04359E0,0E0,0E0,0E0,0E0,0E0,0E0,0E0,0E0,0E0,0E0,0E0,0E0],"parents":[2147483647,0,0,1,1,2,2,3,3,4,4,5,5,6,6,7,7,8,8,9,9,10,10,17,17,18,18,21,21,22,22,24,24,25,25,26,26,27,27,28,28,30,30],"right_children":[2,4,6,8,10,12,14,16,18,20,22,-1,-1,-1,-1,-1,-1,24,26,-1,-1,28,30,-1,32,34,36,38,40,-1,42,-1,-1,-1,-1,-1,-1,-1,-1,-1,-1,-1,-1],"split_conditions":[1E0,3.6E1,9E0,9.85831E-1,3.5505E2,3.5916E2,9.9767345E-1,1E0,2.8E1,2E0,1E0,9.600697E-2,2.1006966E-2,4.5651045E-1,1.7800929E-1,2.5361115E-1,-1.0598955E-1,3.5184E2,3.593275E2,-2.8993035E-2,-1.9638886E-1,5E0,3.3285713E1,-5.3993035E-2,6E0,2.7E1,3.3E1,4E1,1.1E1,9.401045E-2,3.5781E2,1.6361116E-1,-2.8993035E-2,9.401045E-2,-1.4557123E-1,1.1342621E-2,1.6134262E-1,1.961558E-1,-3.9930344E-3,-5.5324048E-2,7.6678276E-2,3.6111453E-3,-9.6388854E-2],"split_indices":[18,8,5,19,17,0,19,7,10,4,7,0,0,0,0,0,0,0,15,0,0,4,13,0,4,11,11,11,5,0,0,0,0,0,0,0,0,0,0,0,0,0,0],"split_type":[0,0,0,0,0,0,0,0,0,0,0,0,0,0,0,0,0,0,0,0,0,0,0,0,0,0,0,0,0,0,0,0,0,0,0,0,0,0,0,0,0,0,0],"sum_hessian":[1.16E2,1.09E2,7E0,7.2E1,3.7E1,2E0,5E0,7E0,6.5E1,5E0,3.2E1,1E0,1E0,3E0,2E0,4E0,3E0,6E0,5.9E1,1E0,4E0,2.1E1,1.1E1,1E0,5E0,5.5E1,4E0,1.4E1,7E0,3E0,8E0,4E0,1E0,3E0,5.2E1,2E0,2E0,1.3E1,1E0,2E0,5E0,4E0,4E0],"tree_param":{"num_deleted":"0","num_feature":"20","num_nodes":"43","size_leaf_vector":"1"}},{"base_weights":[7.5831753E-3,4.455387E0,-1.9067576E0,5.4757066E0,4.5488596E-1,1.5691799E0,-2.3760808E0,5.6923E0,-3.8931847E-3,1.272419E0,-6.807518E-1,1.5210912E-1,8.014806E-2,-2.6040218E0,2.0359526E0,1.6103078E-2,5.894227E0,1.865673E-2,7.019782E-2,-5.6118842E-2,1.6103078E-2,-6.364536E-2,9.2875294E-2,-3.2630706E0,-1.2013601E0,1.22075655E-1,2.0481778E-2,6.1129813E0,1.6103078E-2,5.109787E-1,-3.450491E0,-2.9437335E0,3.653682E-1,3.1860083E-1,1.0878664E-1,1.14666656E-1,-7.634325E-2,-1.6953422E-2,-1.8376856E-1,2.4646282E-2,-1.6683461E-1,8.5232005E-2,-3.423784E-2],"categories":[],"categories_nodes":[],"categories_segments":[],"categories_sizes":[],"default_left":[0,0,0,0,0,0,0,0,0,0,0,0,0,0,0,0,0,0,0,0,0,0,0,0,0,0,0,0,0,0,0,0,0,0,0,0,0,0,0,0,0,0,0],"id":1,"left_children":[1,3,5,7,9,11,13,15,-1,17,19,-1,21,23,25,-1,27,-1,-1,-1,-1,-1,-1,29,31,-1,-1,33,-1,35,37,39,41,-1,-1,-1,-1,-1,-1,-1,-1,-1,-1],"loss_changes":[9.6213184E2,1.3629004E2,1.3260422E2,3.2920654E1,8.293572E0,2.1689648E1,7.5699524E1,2.629596E1,0E0,6.7583084E-2,2.132944E0,0E0,1.6793613E1,5.8016174E1,1.6381474E0,0E0,2.85047E1,0E0,0E0,0E0,0E0,0E0,0E0,3.359314E1,6.386154E1,0E0,0E0,1.0613403E1,0E0,1.4398089E1,2.884079E1,1.6499855E1,1.94505E1,0E0,0E0,0E0,0E0,0E0,0E0,0E0,0E0,0E0,0E0],"parents":[2147483647,0,0,1,1,2,2,3,3,4,4,5,5,6,6,7,7,9,9,10,10,12,12,13,13,14,14,16,16,23,23,24,24,27,27,29,29,30,30,31,31,32,32],"right_children":[2,4,6,8,10,12,14,16,-1,18,20,-1,22,24,26,-1,28,-1,-1,-1,-1,-1,-1,30,32,-1,-1,34,-1,36,38,40,42,-1,-1,-1,-1,-1,-1,-1,-1,-1,-1],"split_conditions":[2E0,2.7E1,3.5683142E2,4E1,3.2E1,8E0,1E0,2E0,-3.8931847E-3,3.5365E2,3.5915E2,1.5210912E-1,3.6064E2,3.5932E2,3.5853E2,1.6103078E-2,3.642857E1,1.865673E-2,7.019782E-2,-5.6118842E-2,1.6103078E-2,-6.364536E-2,9.2875294E-2,3.5054E2,3.2E1,1.22075655E-1,2.0481778E-2,3.5935464E2,1.6103078E-2,3.568E2,3.3035713E1,3.4983E2,3.357143E1,3.1860083E-1,1.0878664E-1,1.14666656E-1,-7.634325E-2,-1.6953422E-2,-1.8376856E-1,2.4646282E-2,-1.6683461E-1,8.5232005E-2,-3.423784E-2],"split_indices":[6,5,14,11,11,5,18,5,0,0,0,0,0,17,0,0,12,0,0,0,0,0,0,17,8,0,0,15,0,0,13,0,12,0,0,0,0,0,0,0,0,0,0],"split_type":[0,0,0,0,0,0,0,0,0,0,0,0,0,0,0,0,0,0,0,0,0,0,0,0,0,0,0,0,0,0,0,0,0,0,0,0,0,0,0,0,0,0,0],"sum_hessian":[1.11E2,3.3E1,7.8E1,2.6E1,7E0,9E0,6.9E1,2.5E1,1E0,4E0,3E0,4E0,5E0,6.6E1,3E0,1E0,2.4E1,1E0,3E0,2E0,1E0,3E0,2E0,4.4E1,2.2E1,2E0,1E0,2.3E1,1E0,2E0,4.2E1,1E1,1.2E1,2.1E1,2E0,1E0,1E0,3E0,3.9E1,1E0,9E0,5E0,7E0],"tree_param":{"num_deleted":"0","num_feature":"20","num_nodes":"43","size_leaf_vector":"1"}},{"base_weights":[-4.2116424E-1,3.6492503E0,-2.0544329E0,4.409952E0,4.1113552E-1,-2.3241463E0,2.2942688E0,4.8714685E0,-5.983251E-1,1.2265686E0,-5.424824E-2,1.3276316E-1,-2.5018094E0,1.3340692E-1,1.996975E-2,3.8254548E-2,5.2261195E0,1.5700532E-2,-6.0574915E-2,1.8190289E-2,6.75654E-2,-3.550583E0,-1.383541E0,2.226794E-1,4.1883904E-1,-2.9557905E0,-6.0319133E0,-2.310951E0,-3.277448E-1,-8.8613555E-2,-1.8560477E-1,-3.432152E-1,-4.674902E-2,-1.3539393E-1,1.20843604E-1,-6.1725546E-2,8.457696E-2],"categories":[],"categories_nodes":[],"categories_segments":[],"categories_sizes":[],"default_left":[0,0,0,0,0,0,0,0,0,0,0,0,0,0,0,0,0,0,0,0,0,0,0,0,0,0,0,0,0,0,0,0,0,0,0,0,0],"id":2,"left_children":[1,3,5,7,9,11,13,15,17,19,-1,-1,21,-1,-1,-1,23,-1,-1,-1,-1,25,27,-1,-1,29,31,33,35,-1,-1,-1,-1,-1,-1,-1,-1],"loss_changes":[7.188417E2,7.454733E1,9.564575E1,6.0699768E1,9.870572E0,7.122296E1,2.4765377E0,2.9497192E1,2.0586824E0,4.6488762E-2,0E0,0E0,7.835715E1,0E0,0E0,0E0,1.3806946E1,0E0,0E0,0E0,0E0,3.530246E1,3.4492218E1,0E0,0E0,2.1169312E1,1.9037842E1,4.220005E1,3.504655E1,0E0,0E0,0E0,0E0,0E0,0E0,0E0,0E0],"parents":[2147483647,0,0,1,1,2,2,3,3,4,4,5,5,6,6,7,7,8,8,9,9,12,12,16,16,21,21,22,22,25,25,26,26,27,27,28,28],"right_children":[2,4,6,8,10,12,14,16,18,20,-1,-1,22,-1,-1,-1,24,-1,-1,-1,-1,26,28,-1,-1,30,32,34,36,-1,-1,-1,-1,-1,-1,-1,-1],"split_conditions":[2E0,2.7E1,1E0,3.631E2,3.2E1,3.5139E2,3.5916E2,3.5316E2,3.6558E2,3.5365E2,-5.424824E-2,1.3276316E-1,3.5828E2,1.3340692E-1,1.996975E-2,3.8254548E-2,1E0,1.5700532E-2,-6.0574915E-2,1.8190289E-2,6.75654E-2,3.492857E1,3.5E1,2.226794E-1,4.1883904E-1,3.585943E2,5E0,3.557143E1,1.1E1,-8.8613555E-2,-1.8560477E-1,-3.432152E-1,-4.674902E-2,-1.3539393E-1,1.20843604E-1,-6.1725546E-2,8.457696E-2],"split_indices":[6,5,18,0,11,17,0,0,0,0,0,0,17,0,0,0,18,0,0,0,0,13,9,0,0,15,6,12,5,0,0,0,0,0,0,0,0],"split_type":[0,0,0,0,0,0,0,0,0,0,0,0,0,0,0,0,0,0,0,0,0,0,0,0,0,0,0,0,0,0,0,0,0,0,0,0,0],"sum_hessian":[1.06E2,3E1,7.6E1,2.4E1,6E0,7.2E1,4E0,2.2E1,2E0,4E0,2E0,2E0,7E1,3E0,1E0,2E0,2E1,1E0,1E0,1E0,3E0,3.5E1,3.5E1,1.8E1,2E0,3E1,5E0,1.8E1,1.7E1,1.3E1,1.7E1,4E0,1E0,1.7E1,1E0,1.2E1,5E0],"tree_param":{"num_deleted":"0","num_feature":"20","num_nodes":"37","size_leaf_vector":"1"}},{"base_weights":[-9.608737E-3,3.8421116E0,-1.6143777E0,2.3333323E0,5.6982617E0,1.8934822E0,-2.0085404E0,3.173431E0,5.7149315E-1,6.3781857E0,4.2625174E-2,1.4172278E-1,-4.6664175E-2,-2.3006701E0,2.5998368E0,-2.5509072E-2,3.4960303E0,9.90624E-1,-5.9060574E-2,3.4704554E-1,-9.3627935E-3,-3.742083E0,-1.4543425E0,1.5275455E-1,1.9470502E-2,3.8522568E0,5.122617E-2,1.510067E0,-5.3150844E-2,-4.915239E0,-2.1908324E0,-3.4302976E0,-7.5529236E-1,1.0424147E-1,2.4888209E-1,2.8210197E-2,9.209738E-2,-9.5915414E-2,-2.627434E-1,-3.2946207E-2,-1.9341189E-1,-2.0590623E-1,2.945582E-4,2.7929274E-2,-9.171619E-2],"categories":[],"categories_nodes":[],"categories_segments":[],"categories_sizes":[],"default_left":[0,0,0,0,0,0,0,0,0,0,0,0,0,0,0,0,0,0,0,0,0,0,0,0,0,0,0,0,0,0,0,0,0,0,0,0,0,0,0,0,0,0,0,0,0],"id":3,"left_children":[1,3,5,7,9,11,13,15,17,19,-1,-1,-1,21,23,-1,25,27,-1,-1,-1,29,31,-1,-1,33,-1,35,-1,37,39,41,43,-1,-1,-1,-1,-1,-1,-1,-1,-1,-1,-1,-1],"loss_changes":[7.35575E2,8.472229E1,1.1994722E2,2.9268898E1,4.3983826E1,2.6584557E1,1.0829593E2,1.8420258E1,7.0470366E0,4.9328735E1,0E0,0E0,0E0,8.239108E1,3.8418465E0,0E0,7.4986725E0,9.072472E0,0E0,0E0,0E0,3.6547882E1,6.232982E1,0E0,0E0,1.1501862E1,0E0,8.442478E-1,0E0,4.1693726E0,3.0856327E1,2.8386307E1,5.2062378E1,0E0,0E0,0E0,0E0,0E0,0E0,0E0,0E0,0E0,0E0,0E0,0E0],"parents":[2147483647,0,0,1,1,2,2,3,3,4,4,5,5,6,6,7,7,8,8,9,9,13,13,14,14,16,16,17,17,21,21,22,22,25,25,27,27,29,29,30,30,31,31,32,32],"right_children":[2,4,6,8,10,12,14,16,18,20,-1,-1,-1,22,24,-1,26,28,-1,-1,-1,30,32,-1,-1,34,-1,36,-1,38,40,42,44,-1,-1,-1,-1,-1,-1,-1,-1,-1,-1,-1,-1],"split_conditions":[2E0,3.4E1,3.5683142E2,3.9E1,2.7E1,3.7E1,1E0,2E0,3.6462E2,3.9E1,4.2625174E-2,1.4172278E-1,-4.6664175E-2,9.971888E-1,3.5853E2,-2.5509072E-2,3.3E1,3.2E1,-5.9060574E-2,3.4704554E-1,-9.3627935E-3,1.9E1,3.5810037E2,1.5275455E-1,1.9470502E-2,3.2E1,5.122617E-2,3.58375E2,-5.3150844E-2,3.1E1,2.6E1,3.5E1,3.5781E2,1.0424147E-1,2.4888209E-1,2.8210197E-2,9.209738E-2,-9.5915414E-2,-2.627434E-1,-3.2946207E-2,-1.9341189E-1,-2.0590623E-1,2.945582E-4,2.7929274E-2,-9.171619E-2],"split_indices":[6,10,14,8,5,10,18,4,0,11,0,0,0,19,0,0,10,10,0,0,0,5,15,0,0,11,0,15,0,8,5,12,0,0,0,0,0,0,0,0,0,0,0,0,0],"split_type":[0,0,0,0,0,0,0,0,0,0,0,0,0,0,0,0,0,0,0,0,0,0,0,0,0,0,0,0,0,0,0,0,0,0,0,0,0,0,0,0,0,0,0,0,0],"sum_hessian":[1.17E2,3.4E1,8.3E1,2E1,1.4E1,8E0,7.5E1,1.3E1,7E0,1.2E1,2E0,6E0,2E0,7.1E1,4E0,1E0,1.2E1,6E0,1E0,1.1E1,1E0,2.5E1,4.6E1,3E0,1E0,1E1,2E0,5E0,1E0,1.3E1,1.2E1,1.1E1,3.5E1,5E0,5E0,2E0,3E0,2E0,1.1E1,7E0,5E0,9E0,2E0,1.6E1,1.9E1],"tree_param":{"num_deleted":"0","num_feature":"20","num_nodes":"45","size_leaf_vector":"1"}},{"base_weights":[1.5223874E-1,3.7793725E0,-1.3678665E0,3.3004715E0,3.973563E-1,-1.6478395E0,2.6397464E0,3.7713983E0,9.452678E-1,1.2443169E0,-1.9818336E0,1.5079129E-1,1.8983746E-2,1.3980229E-1,4.045375E0,-1.1853495E0,2.8395681E0,1.3061514E-1,-5.593705E-2,-4.7147328E-1,-2.4319167E0,3.535652E-2,-2.487135E-2,6.267999E-2,4.2257895E0,-9.1287615E-3,-7.293746E-2,1.8488331E-1,6.631851E-3,-1.3133873E0,1.0391611E0,-2.7321644E0,-5.603824E-1,4.3596175E-2,2.1668501E-1,6.0068466E-2,-1.1425624E-1,-6.9914535E-2,8.392258E-2,-1.448987E-1,-9.188414E-3,-4.8197627E-2,6.670447E-2],"categories":[],"categories_nodes":[],"categories_segments":[],"categories_sizes":[],"default_left":[0,0,0,0,0,0,0,0,0,0,0,0,0,0,0,0,0,0,0,0,0,0,0,0,0,0,0,0,0,0,0,0,0,0,0,0,0,0,0,0,0,0,0],"id":4,"left_children":[1,3,5,7,-1,9,11,13,15,17,19,-1,-1,21,23,25,27,-1,-1,29,31,-1,-1,-1,33,-1,-1,-1,-1,35,37,39,41,-1,-1,-1,-1,-1,-1,-1,-1,-1,-1],"loss_changes":[6.723183E2,4.5624634E1,1.0084389E2,3.4145416E1,0E0,8.070906E1,3.9547615E0,2.729364E1,3.1618084E1,3.201616E1,4.8477905E1,0E0,0E0,1.4363E0,7.7981873E0,8.303008E-1,8.800804E0,0E0,0E0,2.4257656E1,2.9936676E1,0E0,0E0,0E0,4.9073486E0,0E0,0E0,0E0,0E0,3.206948E1,1.3254639E1,1.9749725E1,8.166969E0,0E0,0E0,0E0,0E0,0E0,0E0,0E0,0E0,0E0,0E0],"parents":[2147483647,0,0,1,1,2,2,3,3,5,5,6,6,7,7,8,8,9,9,10,10,13,13,14,14,15,15,16,16,19,19,20,20,24,24,29,29,30,30,31,31,32,32],"right_children":[2,4,6,8,-1,10,12,14,16,18,20,-1,-1,22,24,26,28,-1,-1,30,32,-1,-1,-1,34,-1,-1,-1,-1,36,38,40,42,-1,-1,-1,-1,-1,-1,-1,-1,-1,-1],"split_conditions":[2E0,1E0,1E0,4E1,3.973563E-1,3.5683142E2,3.5916E2,2E0,3.3964287E1,3.7E1,3.5599E2,1.5079129E-1,1.8983746E-2,3.572E2,3.5139E2,5E0,3.6462E2,1.3061514E-1,-5.593705E-2,3.7E1,1.0091593E0,3.535652E-2,-2.487135E-2,6.267999E-2,3.282143E1,-9.1287615E-3,-7.293746E-2,1.8488331E-1,6.631851E-3,2.9E1,3.571057E2,3.6087143E2,3.6035E2,4.3596175E-2,2.1668501E-1,6.0068466E-2,-1.1425624E-1,-6.9914535E-2,8.392258E-2,-1.448987E-1,-9.188414E-3,-4.8197627E-2,6.670447E-2],"split_indices":[6,18,18,8,0,14,0,4,13,10,0,0,0,0,0,4,0,0,0,9,19,0,0,0,13,0,0,0,0,9,14,14,0,0,0,0,0,0,0,0,0,0,0],"split_type":[0,0,0,0,0,0,0,0,0,0,0,0,0,0,0,0,0,0,0,0,0,0,0,0,0,0,0,0,0,0,0,0,0,0,0,0,0,0,0,0,0,0,0],"sum_hessian":[1.2E2,3.5E1,8.5E1,3.3E1,2E0,8E1,5E0,2.7E1,6E0,8E0,7.2E1,4E0,1E0,2E0,2.5E1,3E0,3E0,5E0,3E0,1.7E1,5.5E1,1E0,1E0,2E0,2.3E1,1E0,2E0,2E0,1E0,1.1E1,6E0,4.7E1,8E0,1E0,2.2E1,3E0,8E0,1E0,5E0,4.4E1,3E0,7E0,1E0],"tree_param":{"num_deleted":"0","num_feature":"20","num_nodes":"43","size_leaf_vector":"1"}},{"base_weights":[1.8366864E-1,3.839481E0,-1.3382273E0,4.646465E0,3.3335638E-1,-1.5990304E0,2.5360553E0,3.850305E0,3.9286017E-1,1.0236092E0,-6.127987E-1,1.1903992E0,-1.9083177E0,1.4475964E-1,1.8509198E-2,4.018558E0,-8.900547E-3,1.1252785E-2,5.834918E-2,-4.949881E-2,1.2968349E-2,1.2517284E-1,-5.3839352E-2,-1.0927622E0,-2.6540303E0,6.466103E-3,4.1752214E0,1.1450129E-1,-1.2460815E0,-1.0862772E0,-3.9460912E0,2.1701877E-1,9.416866E-3,-1.3159925E-1,-3.1765148E-2,-6.982292E-2,5.1675417E-2,-2.1010962E-1,2.9398251E-2],"categories":[],"categories_nodes":[],"categories_segments":[],"categories_sizes":[],"default_left":[0,0,0,0,0,0,0,0,0,0,0,0,0,0,0,0,0,0,0,0,0,0,0,0,0,0,0,0,0,0,0,0,0,0,0,0,0,0,0],"id":5,"left_children":[1,3,5,7,9,11,13,15,-1,17,19,21,23,-1,-1,25,-1,-1,-1,-1,-1,-1,-1,27,29,-1,31,-1,33,35,37,-1,-1,-1,-1,-1,-1,-1,-1],"loss_changes":[7.0060876E2,1.0313843E2,9.398309E1,4.643524E1,5.851956E0,7.474141E1,3.5953178E0,1.8337524E1,0E0,3.0982447E-1,1.5726124E0,2.9488205E1,4.332071E1,0E0,0E0,1.4692566E1,0E0,0E0,0E0,0E0,0E0,0E0,0E0,2.256213E1,7.471307E1,0E0,1.4985352E1,0E0,2.9647663E1,1.3936083E1,2.6855469E1,0E0,0E0,0E0,0E0,0E0,0E0,0E0,0E0],"parents":[2147483647,0,0,1,1,2,2,3,3,4,4,5,5,6,6,7,7,9,9,10,10,11,11,12,12,15,15,23,23,24,24,26,26,28,28,29,29,30,30],"right_children":[2,4,6,8,10,12,14,16,-1,18,20,22,24,-1,-1,26,-1,-1,-1,-1,-1,-1,-1,28,30,-1,32,-1,34,36,38,-1,-1,-1,-1,-1,-1,-1,-1],"split_conditions":[2E0,2.7E1,1E0,1E0,3.2E1,3.5683142E2,3.5916E2,4E1,3.9286017E-1,3.5365E2,3.5915E2,3.7E1,3.5781E2,1.4475964E-1,1.8509198E-2,2E0,-8.900547E-3,1.1252785E-2,5.834918E-2,-4.949881E-2,1.2968349E-2,1.2517284E-1,-5.3839352E-2,3.5054E2,1.4E1,6.466103E-3,3.55E1,1.1450129E-1,3.5821964E2,3.6438E2,3.614E2,2.1701877E-1,9.416866E-3,-1.3159925E-1,-3.1765148E-2,-6.982292E-2,5.1675417E-2,-2.1010962E-1,2.9398251E-2],"split_indices":[6,5,18,18,11,14,0,11,0,0,0,10,0,0,0,5,0,0,0,0,0,0,0,17,5,0,13,0,15,0,17,0,0,0,0,0,0,0,0],"split_type":[0,0,0,0,0,0,0,0,0,0,0,0,0,0,0,0,0,0,0,0,0,0,0,0,0,0,0,0,0,0,0,0,0,0,0,0,0,0,0],"sum_hessian":[1.24E2,3.6E1,8.8E1,2.9E1,7E0,8.3E1,5E0,2.5E1,4E0,4E0,3E0,8E0,7.5E1,4E0,1E0,2.4E1,1E0,1E0,3E0,2E0,1E0,5E0,3E0,3.7E1,3.8E1,1E0,2.3E1,1E0,3.6E1,1.8E1,2E1,2.2E1,1E0,1E1,2.6E1,1.6E1,2E0,1.9E1,1E0],"tree_param":{"num_deleted":"0","num_feature":"20","num_nodes":"39","size_leaf_vector":"1"}},{"base_weights":[-2.3105916E-2,3.161131E0,-1.2590672E0,3.8293571E0,1.3209642E-1,-2.3715916E0,-6.091158E-1,3.989991E0,-8.678055E-3,8.224602E-1,-5.912914E-1,7.946186E-1,-3.3281786E0,-3.653309E-1,-2.356472E-1,2.4024754E0,4.6891184E0,1.0971451E-2,4.751638E-2,-4.784883E-2,1.26441E-2,1.2326862E0,-5.679636E-2,-4.57299E0,-1.9231086E0,-8.666838E-1,1.627715E0,1.5535927E-2,2.8865747E0,1.18436396E-1,5.220875E0,1.0082716E-1,2.579174E-2,-5.0293865E0,1.11844065E-2,-8.3607626E-1,-1.5259835E-1,1.4058136E0,-1.1358069E0,2.154981E0,-2.4832726E-2,4.3169785E-2,1.9639015E-1,2.7174994E-1,6.628456E-2,-8.110485E-2,-2.8031644E-1,-8.6862564E-2,2.6039507E-3,9.249234E-2,-9.257984E-3,-2.0246489E-2,-9.419196E-2,1.4453559E-1,2.5632E-2],"categories":[],"categories_nodes":[],"categories_segments":[],"categories_sizes":[],"default_left":[0,0,0,0,0,0,0,0,0,0,0,0,0,0,0,0,0,0,0,0,0,0,0,0,0,0,0,0,0,0,0,0,0,0,0,0,0,0,0,0,0,0,0,0,0,0,0,0,0,0,0,0,0,0,0],"id":6,"left_children":[1,3,5,7,9,11,13,15,-1,17,19,21,23,25,-1,27,29,-1,-1,-1,-1,31,-1,33,35,37,39,-1,41,-1,43,-1,-1,45,-1,47,-1,49,51,53,-1,-1,-1,-1,-1,-1,-1,-1,-1,-1,-1,-1,-1,-1,-1],"loss_changes":[4.644445E2,6.628882E1,6.0017807E1,1.8053589E1,3.9821188E0,9.653607E1,5.330304E1,1.7591278E1,0E0,9.990287E-2,1.4768089E0,8.165918E0,3.318277E1,5.4369335E1,0E0,9.229263E0,8.609161E0,0E0,0E0,0E0,0E0,2.8931599E0,0E0,2.7395279E1,1.3400692E1,2.7894749E1,1.3391466E1,0E0,1.3461487E1,0E0,3.6375732E0,0E0,0E0,1.2529877E1,0E0,6.4935417E0,0E0,3.8747425E0,2.055925E1,9.392994E0,0E0,0E0,0E0,0E0,0E0,0E0,0E0,0E0,0E0,0E0,0E0,0E0,0E0,0E0,0E0],"parents":[2147483647,0,0,1,1,2,2,3,3,4,4,5,5,6,6,7,7,9,9,10,10,11,11,12,12,13,13,15,15,16,16,21,21,23,23,24,24,25,25,26,26,28,28,30,30,33,33,35,35,37,37,38,38,39,39],"right_children":[2,4,6,8,10,12,14,16,-1,18,20,22,24,26,-1,28,30,-1,-1,-1,-1,32,-1,34,36,38,40,-1,42,-1,44,-1,-1,46,-1,48,-1,50,52,54,-1,-1,-1,-1,-1,-1,-1,-1,-1,-1,-1,-1,-1,-1,-1],"split_conditions":[2E0,2.7E1,9.971888E-1,3.9E1,3.1E1,3.2E1,3.557143E1,3.5828607E2,-8.678055E-3,3.5365E2,3.5915E2,2.2E1,3.6E1,3.4607143E1,-2.356472E-1,3.5742E2,2.7E1,1.0971451E-2,4.751638E-2,-4.784883E-2,1.26441E-2,1E1,-5.679636E-2,3.622E2,3.457143E1,3.5792E2,3.5916E2,1.5535927E-2,7E0,1.18436396E-1,3.5935464E2,1.0082716E-1,2.579174E-2,3.257143E1,1.11844065E-2,9.9048287E-1,-1.5259835E-1,3.8E1,3.5804E2,3.492857E1,-2.4832726E-2,4.3169785E-2,1.9639015E-1,2.7174994E-1,6.628456E-2,-8.110485E-2,-2.8031644E-1,-8.6862564E-2,2.6039507E-3,9.249234E-2,-9.257984E-3,-2.0246489E-2,-9.419196E-2,1.4453559E-1,2.5632E-2],"split_indices":[6,5,19,11,9,10,13,15,0,0,0,5,11,13,0,17,10,0,0,0,0,5,0,0,12,17,0,0,5,0,15,0,0,12,0,19,0,11,0,13,0,0,0,0,0,0,0,0,0,0,0,0,0,0,0],"split_type":[0,0,0,0,0,0,0,0,0,0,0,0,0,0,0,0,0,0,0,0,0,0,0,0,0,0,0,0,0,0,0,0,0,0,0,0,0,0,0,0,0,0,0,0,0,0,0,0,0,0,0,0,0,0,0],"sum_hessian":[1.16E2,3.2E1,8.4E1,2.6E1,6E0,3E1,5.4E1,2.5E1,1E0,3E0,3E0,7E0,2.3E1,5.2E1,2E0,9E0,1.6E1,1E0,2E0,2E0,1E0,6E0,1E0,1.1E1,1.2E1,4.2E1,1E1,2E0,7E0,4E0,1.2E1,2E0,4E0,1E1,1E0,7E0,5E0,4E0,3.8E1,8E0,2E0,3E0,4E0,1.1E1,1E0,2E0,8E0,3E0,4E0,3E0,1E0,2E1,1.8E1,5E0,3E0],"tree_param":{"num_deleted":"0","num_feature":"20","num_nodes":"55","size_leaf_vector":"1"}},{"base_weights":[8.3518915E-2,3.615718E0,-1.3565562E0,2.833748E0,3.714E-1,-1.6349318E0,2.3956273E0,3.3802223E0,6.333684E-1,-2.0534582E0,2.0397288E-1,1.365451E-1,1.798134E-2,5.2251816E-3,3.5243685E0,-2.1815872E-2,8.843689E-1,-1.677223E0,-4.383394E0,6.750065E-1,-6.150786E-1,3.6660354E0,1.3734055E-2,9.756653E-1,1.0697174E-2,-1.854227E0,1.0431347E0,1.9146252E-2,-5.119E0,8.8247806E-2,1.8189955E-1,-8.80477E-2,-3.3712767E-2,9.9140495E-2,2.1035694E-1,5.4815102E-2,1.2327957E-2,-9.805022E-2,8.9785576E-2,8.022976E-3,6.419366E-2,-2.8844425E-1,-3.049221E-2,-2.8623868E-2,3.745106E-2,2.350502E-2,-1.3859558E-2],"categories":[],"categories_nodes":[],"categories_segments":[],"categories_sizes":[],"default_left":[0,0,0,0,0,0,0,0,0,0,0,0,0,0,0,0,0,0,0,0,0,0,0,0,0,0,0,0,0,0,0,0,0,0,0,0,0,0,0,0,0,0,0,0,0,0,0],"id":7,"left_children":[1,3,5,7,-1,9,11,13,15,17,19,-1,-1,-1,21,-1,23,25,27,29,31,33,-1,35,-1,37,39,-1,41,-1,43,-1,45,-1,-1,-1,-1,-1,-1,-1,-1,-1,-1,-1,-1,-1,-1],"loss_changes":[5.7969434E2,7.7326904E1,8.852251E1,3.273015E1,0E0,5.891075E1,3.1136131E0,1.0491882E1,2.265308E0,4.699756E1,6.202194E0,0E0,0E0,0E0,9.121246E0,0E0,1.5850735E-1,2.841748E1,3.0009247E1,5.053572E0,3.93767E0,1.078479E1,0E0,1.6948175E-1,0E0,2.378743E1,6.439662E-1,0E0,1.6994919E1,0E0,3.851385E0,0E0,7.436457E-1,0E0,0E0,0E0,0E0,0E0,0E0,0E0,0E0,0E0,0E0,0E0,0E0,0E0,0E0],"parents":[2147483647,0,0,1,1,2,2,3,3,5,5,6,6,7,7,8,8,9,9,10,10,14,14,16,16,17,17,18,18,19,19,20,20,21,21,23,23,25,25,26,26,28,28,30,30,32,32],"right_children":[2,4,6,8,-1,10,12,14,16,18,20,-1,-1,-1,22,-1,24,26,28,30,32,34,-1,36,-1,38,40,-1,42,-1,44,-1,46,-1,-1,-1,-1,-1,-1,-1,-1,-1,-1,-1,-1,-1,-1],"split_conditions":[2E0,1E0,1E0,2.7E1,3.714E-1,3.7E1,1E0,2E0,3E1,3.492857E1,3.4714287E1,1.365451E-1,1.798134E-2,5.2251816E-3,3.9E1,-2.1815872E-2,3E1,3.593275E2,3.2E1,3.5798892E2,3.8E1,2.9E1,1.3734055E-2,3.2E1,1.0697174E-2,4.8E1,1.6E1,1.9146252E-2,5E0,8.8247806E-2,2E1,-8.80477E-2,3.7E1,9.9140495E-2,2.1035694E-1,5.4815102E-2,1.2327957E-2,-9.805022E-2,8.9785576E-2,8.022976E-3,6.419366E-2,-2.8844425E-1,-3.049221E-2,-2.8623868E-2,3.745106E-2,2.350502E-2,-1.3859558E-2],"split_indices":[6,18,18,5,0,8,1,5,10,13,13,0,0,0,9,0,5,15,10,15,8,10,0,11,0,11,5,0,6,0,5,0,10,0,0,0,0,0,0,0,0,0,0,0,0,0,0],"split_type":[0,0,0,0,0,0,0,0,0,0,0,0,0,0,0,0,0,0,0,0,0,0,0,0,0,0,0,0,0,0,0,0,0,0,0,0,0,0,0,0,0,0,0,0,0,0,0],"sum_hessian":[1.12E2,3.2E1,8E1,2.8E1,4E0,7.5E1,5E0,2.2E1,6E0,6.1E1,1.4E1,4E0,1E0,1E0,2.1E1,1E0,5E0,5.4E1,7E0,9E0,5E0,2E1,1E0,4E0,1E0,5.1E1,3E0,1E0,6E0,2E0,7E0,1E0,4E0,6E0,1.4E1,3E0,1E0,5E1,1E0,1E0,2E0,5E0,1E0,3E0,4E0,1E0,3E0],"tree_param":{"num_deleted":"0","num_feature":"20","num_nodes":"47","size_leaf_vector":"1"}},{"base_weights":[9.3597636E-2,3.3201566E0,-1.3634301E0,2.6421633E0,3.5654405E-1,-1.6313101E0,2.3016014E0,3.195055E0,1.3212912E-1,-2.176955E0,-5.9868336E-1,1.3108337E-1,1.7531777E-2,3.4263391E0,-7.045841E-2,-4.6095785E-2,7.381302E-1,-4.4374293E-1,-2.5991642E0,-1.4654855E-1,3.5769254E-2,3.5853448E0,-1.3720036E-2,4.654452E-2,1.4966329E-2,1.7898941E0,-1.5050936E0,-2.0714028E0,-4.7912683E0,1.2964244E0,-7.2300845E-1,8.254134E-2,1.9932166E-1,2.1672249E-2,1.04878105E-1,-1.1467403E-1,-7.166815E-3,-3.0462584E-2,-1.3721016E-1,-2.7642575E-1,-9.194756E-3,-4.2492677E-2,8.354705E-2,-5.714596E-2,3.5873797E-2],"categories":[],"categories_nodes":[],"categories_segments":[],"categories_sizes":[],"default_left":[0,0,0,0,0,0,0,0,0,0,0,0,0,0,0,0,0,0,0,0,0,0,0,0,0,0,0,0,0,0,0,0,0,0,0,0,0,0,0,0,0,0,0,0,0],"id":8,"left_children":[1,3,5,7,-1,9,11,13,15,17,19,-1,-1,21,-1,-1,23,25,27,-1,29,31,-1,-1,-1,33,35,37,39,41,43,-1,-1,-1,-1,-1,-1,-1,-1,-1,-1,-1,-1,-1,-1],"loss_changes":[5.592667E2,7.675391E1,8.426129E1,4.537448E1,0E0,4.2082138E1,2.8273754E0,3.358014E1,5.1517596E0,3.5435562E1,4.153717E1,0E0,0E0,1.6283234E1,0E0,0E0,1.4427948E-1,2.877135E1,3.6351685E1,0E0,2.2938137E1,1.2816895E1,0E0,0E0,0E0,7.601671E-1,8.259996E0,3.17751E1,2.2760727E1,8.654404E0,9.89314E0,0E0,0E0,0E0,0E0,0E0,0E0,0E0,0E0,0E0,0E0,0E0,0E0,0E0,0E0],"parents":[2147483647,0,0,1,1,2,2,3,3,5,5,6,6,7,7,8,8,9,9,10,10,13,13,16,16,17,17,18,18,20,20,21,21,25,25,26,26,27,27,28,28,29,29,30,30],"right_children":[2,4,6,8,-1,10,12,14,16,18,20,-1,-1,22,-1,-1,24,26,28,-1,30,32,-1,-1,-1,34,36,38,40,42,44,-1,-1,-1,-1,-1,-1,-1,-1,-1,-1,-1,-1,-1,-1],"split_conditions":[2E0,1E0,1E0,2.7E1,3.5654405E-1,3.5932E2,3.5916E2,3.6663E2,3.5597E2,3.2E1,3E0,1.3108337E-1,1.7531777E-2,4E1,-7.045841E-2,-4.6095785E-2,3.2E1,1.4E1,3.4857143E1,-1.4654855E-1,3.5599E2,2.9E1,-1.3720036E-2,4.654452E-2,1.4966329E-2,3.562E2,3.2E1,3.5851392E2,3.6302E2,3.5184E2,3.598443E2,8.254134E-2,1.9932166E-1,2.1672249E-2,1.04878105E-1,-1.1467403E-1,-7.166815E-3,-3.0462584E-2,-1.3721016E-1,-2.7642575E-1,-9.194756E-3,-4.2492677E-2,8.354705E-2,-5.714596E-2,3.5873797E-2],"split_indices":[6,18,18,5,0,17,0,0,17,10,4,0,0,11,0,0,10,5,13,0,0,10,0,0,0,0,9,15,0,0,14,0,0,0,0,0,0,0,0,0,0,0,0,0,0],"split_type":[0,0,0,0,0,0,0,0,0,0,0,0,0,0,0,0,0,0,0,0,0,0,0,0,0,0,0,0,0,0,0,0,0,0,0,0,0,0,0,0,0,0,0,0,0],"sum_hessian":[1.17E2,3.6E1,8.1E1,3.2E1,4E0,7.6E1,5E0,2.6E1,6E0,4.9E1,2.7E1,4E0,1E0,2.5E1,1E0,2E0,4E0,1E1,3.9E1,5E0,2.2E1,2.4E1,1E0,2E0,2E0,3E0,7E0,3.3E1,6E0,8E0,1.4E1,5E0,1.9E1,1E0,2E0,4E0,3E0,1.1E1,2.2E1,5E0,1E0,1E0,7E0,1.1E1,3E0],"tree_param":{"num_deleted":"0","num_feature":"20","num_nodes":"45","size_leaf_vector":"1"}},{"base_weights":[2.4505274E-1,-1.393722E-1,5.0872073E0,-7.141003E-1,9.417273E-1,5.637641E0,1.7093468E-2,4.9870896E-1,-1.5799139E0,9.4906144E-2,2.3467686E0,6.523295E-2,6.0702586E0,1.6824504E0,-1.6143976E0,1.3958016E-1,-1.746498E0,6.057907E-1,-1.4332032E-1,2.961234E0,-8.3319664E-2,3.2411206E-1,8.995905E-2,2.296856E0,-7.430183E-1,-2.571211E-1,-3.4631608E0,-1.211769E0,-3.0269005E0,1.1556134E0,-1.1446425E0,5.1968894E-3,3.5519218E0,-2.0234998E-2,2.2020532E-2,1.475466E-1,6.84433E-3,-2.3403168E-3,-5.957788E-2,6.0041E-2,-6.860249E-2,-1.998324E-1,-3.3230305E-2,-8.260653E-2,2.984848E-2,-4.6923034E-2,-2.192289E-1,2.6507154E-2,1.0313803E-1,-1.383124E-1,1.7886115E-2,-2.890234E-2,2.9292107E-2,1.9742027E-1,-4.1074754E-4],"categories":[],"categories_nodes":[],"categories_segments":[],"categories_sizes":[],"default_left":[0,0,0,0,0,0,0,0,0,0,0,0,0,0,0,0,0,0,0,0,0,0,0,0,0,0,0,0,0,0,0,0,0,0,0,0,0,0,0,0,0,0,0,0,0,0,0,0,0,0,0,0,0,0,0],"id":9,"left_children":[1,3,5,7,9,11,-1,13,15,17,19,-1,21,23,25,-1,27,29,-1,31,33,-1,-1,35,37,39,41,43,45,47,49,51,53,-1,-1,-1,-1,-1,-1,-1,-1,-1,-1,-1,-1,-1,-1,-1,-1,-1,-1,-1,-1,-1,-1],"loss_changes":[2.278053E2,7.150504E1,2.1580612E1,7.954292E1,4.7370026E1,7.076584E0,0E0,8.276005E1,3.691745E1,4.107155E1,2.2644814E1,0E0,6.54541E-1,3.300126E1,2.9220945E1,0E0,2.5772827E1,2.3458603E1,0E0,2.0934677E1,8.515005E-1,0E0,0E0,2.3613396E1,1.50562E0,1.46515875E1,4.8087616E0,2.6474236E1,2.991037E1,9.119526E0,1.5607008E1,1.3546171E0,1.4147797E1,0E0,0E0,0E0,0E0,0E0,0E0,0E0,0E0,0E0,0E0,0E0,0E0,0E0,0E0,0E0,0E0,0E0,0E0,0E0,0E0,0E0,0E0],"parents":[2147483647,0,0,1,1,2,2,3,3,4,4,5,5,7,7,8,8,9,9,10,10,12,12,13,13,14,14,16,16,17,17,19,19,20,20,23,23,24,24,25,25,26,26,27,27,28,28,29,29,30,30,31,31,32,32],"right_children":[2,4,6,8,10,12,-1,14,16,18,20,-1,22,24,26,-1,28,30,-1,32,34,-1,-1,36,38,40,42,44,46,48,50,52,54,-1,-1,-1,-1,-1,-1,-1,-1,-1,-1,-1,-1,-1,-1,-1,-1,-1,-1,-1,-1,-1,-1],"split_conditions":[1E0,3.6022E2,1E0,3.3714287E1,3.4357143E1,3.5573572E2,1.7093468E-2,3.5781E2,2.6E1,1.0212038E0,4.2E1,6.523295E-2,1E0,1E0,1.7E1,1.3958016E-1,2.2E1,3.6E1,-1.4332032E-1,1.0068846E0,1E1,3.2411206E-1,8.995905E-2,2.2E1,3E0,3.2E1,2.4E1,1.8E1,3.5498E2,3.6E1,3.3714287E1,1E0,3.55E1,-2.0234998E-2,2.2020532E-2,1.475466E-1,6.84433E-3,-2.3403168E-3,-5.957788E-2,6.0041E-2,-6.860249E-2,-1.998324E-1,-3.3230305E-2,-8.260653E-2,2.984848E-2,-4.6923034E-2,-2.192289E-1,2.6507154E-2,1.0313803E-1,-1.383124E-1,1.7886115E-2,-2.890234E-2,2.9292107E-2,1.9742027E-1,-4.1074754E-4],"split_indices":[18,17,1,13,13,14,0,17,9,19,9,0,7,7,5,0,5,9,0,19,5,0,0,5,4,10,5,5,17,8,12,1,13,0,0,0,0,0,0,0,0,0,0,0,0,0,0,0,0,0,0,0,0,0,0],"split_type":[0,0,0,0,0,0,0,0,0,0,0,0,0,0,0,0,0,0,0,0,0,0,0,0,0,0,0,0,0,0,0,0,0,0,0,0,0,0,0,0,0,0,0,0,0,0,0,0,0,0,0,0,0,0,0],"sum_hessian":[1.21E2,1.13E2,8E0,7.4E1,3.9E1,7E0,1E0,3.1E1,4.3E1,2.5E1,1.4E1,1E0,6E0,2E1,1.1E1,1E0,4.2E1,2.2E1,3E0,1.1E1,3E0,5E0,1E0,1.6E1,4E0,7E0,4E0,3.1E1,1.1E1,1.7E1,5E0,2E0,9E0,2E0,1E0,1.2E1,4E0,2E0,2E0,3E0,4E0,3E0,1E0,2.5E1,6E0,5E0,6E0,1.1E1,6E0,2E0,3E0,1E0,1E0,8E0,1E0],"tree_param":{"num_deleted":"0","num_feature":"20","num_nodes":"55","size_leaf_vector":"1"}},{"base_weights":[-1.830976E-1,2.4691744E0,-1.1901239E0,3.0815527E0,-4.205611E-1,1.3306019E0,-1.479487E0,3.5681658E0,6.215089E-1,-8.4910965E-1,5.3768255E-2,2.3544939E0,-3.9692976E-2,-1.6827179E0,2.0274596E0,3.7889273E0,7.598584E-1,-1.8944932E-2,8.9737016E-1,-1.3842773E-1,-7.5682454E-2,3.322201E-2,1.2627147E-1,-1.177134E0,-2.4275856E0,1.1838317E-1,1.6666127E-2,3.832951E-2,2.0264159E-1,6.292534E-3,5.069685E-2,9.392929E-3,5.138917E-2,-2.4795532E-4,-1.3824177E-2,1.11012556E-1,-1.2941681E0,-2.9218712E0,1.1891619E-1,-2.195263E-3,2.1766664E-3,-9.464708E-2,-1.8061904E-2,-1.5924801E-1,7.839902E-3,-3.1710576E-2,5.4172393E-2],"categories":[],"categories_nodes":[],"categories_segments":[],"categories_sizes":[],"default_left":[0,0,0,0,0,0,0,0,0,0,0,0,0,0,0,0,0,0,0,0,0,0,0,0,0,0,0,0,0,0,0,0,0,0,0,0,0,0,0,0,0,0,0,0,0,0,0],"id":10,"left_children":[1,3,5,7,9,11,13,15,17,19,-1,21,-1,23,25,27,29,-1,31,33,-1,-1,-1,35,37,-1,-1,-1,-1,-1,-1,-1,-1,39,-1,-1,41,43,45,-1,-1,-1,-1,-1,-1,-1,-1],"loss_changes":[3.39473E2,6.3232376E1,6.907387E1,3.2497955E1,5.400642E0,2.3621326E1,6.2567413E1,1.2000122E1,1.9958546E0,2.624125E0,0E0,3.4423447E-1,0E0,2.6893265E1,2.0925617E0,1.4440491E1,3.5565865E-1,0E0,2.6957035E-1,7.6237515E-2,0E0,0E0,0E0,2.235627E1,3.9367126E1,0E0,0E0,0E0,0E0,0E0,0E0,0E0,0E0,7.64546E-3,0E0,0E0,2.6129662E1,2.1558456E1,5.0456276E0,0E0,0E0,0E0,0E0,0E0,0E0,0E0,0E0],"parents":[2147483647,0,0,1,1,2,2,3,3,4,4,5,5,6,6,7,7,8,8,9,9,11,11,13,13,14,14,15,15,16,16,18,18,19,19,23,23,24,24,33,33,36,36,37,37,38,38],"right_children":[2,4,6,8,10,12,14,16,18,20,-1,22,-1,24,26,28,30,-1,32,34,-1,-1,-1,36,38,-1,-1,-1,-1,-1,-1,-1,-1,40,-1,-1,42,44,46,-1,-1,-1,-1,-1,-1,-1,-1],"split_conditions":[2E0,4E1,3.5683142E2,2.7E1,4.3E1,3.7E1,1E0,3.5910284E2,3E1,5E0,5.3768255E-2,3E1,-3.9692976E-2,3.5973E2,3.5853E2,3.5139E2,3.5776E2,-1.8944932E-2,3.5365E2,3.5981857E2,-7.5682454E-2,3.322201E-2,1.2627147E-1,3.5054E2,3.6431E2,1.1838317E-1,1.6666127E-2,3.832951E-2,2.0264159E-1,6.292534E-3,5.069685E-2,9.392929E-3,5.138917E-2,3.5316E2,-1.3824177E-2,1.11012556E-1,3.5932E2,6E0,3.5811572E2,-2.195263E-3,2.1766664E-3,-9.464708E-2,-1.8061904E-2,-1.5924801E-1,7.839902E-3,-3.1710576E-2,5.4172393E-2],"split_indices":[6,8,14,5,8,10,18,15,10,4,0,10,0,0,0,0,0,0,0,14,0,0,0,17,0,0,0,0,0,0,0,0,0,0,0,0,17,4,14,0,0,0,0,0,0,0,0],"split_type":[0,0,0,0,0,0,0,0,0,0,0,0,0,0,0,0,0,0,0,0,0,0,0,0,0,0,0,0,0,0,0,0,0,0,0,0,0,0,0,0,0,0,0,0,0,0,0],"sum_hessian":[1.25E2,3.4E1,9.1E1,2.8E1,6E0,9E0,8.2E1,2.3E1,5E0,5E0,1E0,6E0,3E0,7.8E1,4E0,2.1E1,2E0,1E0,4E0,3E0,2E0,1E0,5E0,4.8E1,3E1,3E0,1E0,2E0,1.9E1,1E0,1E0,1E0,3E0,2E0,1E0,1E0,4.7E1,2.5E1,5E0,1E0,1E0,2.8E1,1.9E1,2.3E1,2E0,3E0,2E0],"tree_param":{"num_deleted":"0","num_feature":"20","num_nodes":"47","size_leaf_vector":"1"}},{"base_weights":[2.305879E-1,2.911387E0,-1.1128457E0,3.501192E0,2.619686E-1,-1.9541136E0,-5.813954E-1,3.7042181E0,-6.4739704E-2,8.6465913E-1,-5.568867E-1,1.3066111E0,-2.3806052E0,-3.1396835E0,-2.7746728E-1,3.8505409E0,-1.3478565E-2,9.158134E-3,4.946213E-2,-4.2314086E-2,7.7824593E-3,1.2614536E-1,-5.855694E-2,-7.287881E-1,-2.8397112E0,1.4292526E-2,-2.0337649E-1,-5.171188E-1,1.6952385E0,2.7389212E0,4.845925E0,-1.0358477E-1,3.981581E-2,-3.9269557E0,-1.0745282E0,-1.8100132E0,-2.5820287E-2,1.3708477E-1,8.370209E-2,2.0298572E-1,7.70237E-2,2.533299E-1,4.9429417E-2,-8.4908105E-2,-2.240601E-1,-9.588951E-2,-8.1802363E-4,1.6691685E-2,-1.3278425E-1,4.6719443E-2,-5.2416105E-2,2.192154E-2,-1.5643883E-2],"categories":[],"categories_nodes":[],"categories_segments":[],"categories_sizes":[],"default_left":[0,0,0,0,0,0,0,0,0,0,0,0,0,0,0,0,0,0,0,0,0,0,0,0,0,0,0,0,0,0,0,0,0,0,0,0,0,0,0,0,0,0,0,0,0,0,0,0,0,0,0,0,0],"id":11,"left_children":[1,3,5,7,9,11,13,15,-1,17,19,21,23,25,27,29,-1,-1,-1,-1,-1,-1,-1,31,33,-1,-1,35,37,39,41,-1,-1,43,45,47,49,-1,51,-1,-1,-1,-1,-1,-1,-1,-1,-1,-1,-1,-1,-1,-1],"loss_changes":[4.1020667E2,5.8463104E1,3.2842888E1,3.4981262E1,4.429648E0,4.3440033E1,3.6450554E1,1.8481628E1,0E0,2.4332356E-1,9.565402E-1,1.5009384E1,1.7647781E1,1.705455E1,2.1678167E1,1.8815521E1,0E0,0E0,0E0,0E0,0E0,0E0,0E0,1.598624E1,3.4164078E1,0E0,0E0,2.5361149E1,8.202533E0,1.907254E1,6.9081726E0,0E0,0E0,7.213806E0,7.9994383E0,2.0829453E1,3.0434006E1,0E0,5.592098E-1,0E0,0E0,0E0,0E0,0E0,0E0,0E0,0E0,0E0,0E0,0E0,0E0,0E0,0E0],"parents":[2147483647,0,0,1,1,2,2,3,3,4,4,5,5,6,6,7,7,9,9,10,10,11,11,12,12,13,13,14,14,15,15,23,23,24,24,27,27,28,28,29,29,30,30,33,33,34,34,35,35,36,36,38,38],"right_children":[2,4,6,8,10,12,14,16,-1,18,20,22,24,26,28,30,-1,-1,-1,-1,-1,-1,-1,32,34,-1,-1,36,38,40,42,-1,-1,44,46,48,50,-1,52,-1,-1,-1,-1,-1,-1,-1,-1,-1,-1,-1,-1,-1,-1],"split_conditions":[2E0,2.7E1,9.973098E-1,3.6663E2,3.2E1,3.5139E2,3E1,4E1,-6.4739704E-2,3.5365E2,3.5915E2,4E0,1.4E1,3.5201E2,3.6285713E1,3.4E1,-1.3478565E-2,9.158134E-3,4.946213E-2,-4.2314086E-2,7.7824593E-3,1.2614536E-1,-5.855694E-2,3.1714285E1,3.6E1,1.4292526E-2,-2.0337649E-1,3.5818106E2,3E0,9.9771005E-1,3.5910284E2,-1.0358477E-1,3.981581E-2,3.2714287E1,2E1,3.5877E2,3.5853E2,1.3708477E-1,3.5743E2,2.0298572E-1,7.70237E-2,2.533299E-1,4.9429417E-2,-8.4908105E-2,-2.240601E-1,-9.588951E-2,-8.1802363E-4,1.6691685E-2,-1.3278425E-1,4.6719443E-2,-5.2416105E-2,2.192154E-2,-1.5643883E-2],"split_indices":[6,5,19,0,11,17,10,11,0,0,0,6,5,0,12,10,0,0,0,0,0,0,0,12,11,0,0,15,6,19,15,0,0,12,5,17,0,0,0,0,0,0,0,0,0,0,0,0,0,0,0,0,0],"split_type":[0,0,0,0,0,0,0,0,0,0,0,0,0,0,0,0,0,0,0,0,0,0,0,0,0,0,0,0,0,0,0,0,0,0,0,0,0,0,0,0,0,0,0,0,0,0,0,0,0,0,0,0,0],"sum_hessian":[1.12E2,3.7E1,7.5E1,3E1,7E0,2.8E1,4.7E1,2.9E1,1E0,4E0,3E0,3E0,2.5E1,4E0,4.3E1,2.8E1,1E0,1E0,3E0,2E0,1E0,2E0,1E0,6E0,1.9E1,1E0,3E0,3.9E1,4E0,1.5E1,1.3E1,3E0,3E0,1.1E1,8E0,1E1,2.9E1,2E0,2E0,6E0,9E0,1.2E1,1E0,3E0,8E0,4E0,4E0,3E0,7E0,1.5E1,1.4E1,1E0,1E0],"tree_param":{"num_deleted":"0","num_feature":"20","num_nodes":"53","size_leaf_vector":"1"}},{"base_weights":[1.4660855E-1,2.7234104E0,-9.1615224E-1,2.063247E0,3.1358704E-1,1.2462753E0,-1.1886276E0,2.6831996E0,-4.4561931E-1,2.212981E0,-3.785143E-2,-1.3115782E0,1.3523769E0,3.180539E0,5.7820195E-1,-1.2020483E0,4.222145E-1,3.1396102E-2,1.186252E-1,-1.1798136E0,-1.996406E-1,7.998905E-2,1.5254117E-2,1.4914787E0,3.5095866E0,-1.7413521E-2,8.331505E-1,-1.3141632E-2,-7.137547E-2,-5.5180234E-3,5.0498486E-2,-7.0698845E-1,-1.6735649E0,8.9831546E-2,6.7717554E-3,1.8075214E-1,4.8193645E-2,8.929158E-3,4.760733E-2,1.0508366E-1,-4.198501E-2,-9.793802E-2,1.8616028E-2],"categories":[],"categories_nodes":[],"categories_segments":[],"categories_sizes":[],"default_left":[0,0,0,0,0,0,0,0,0,0,0,0,0,0,0,0,0,0,0,0,0,0,0,0,0,0,0,0,0,0,0,0,0,0,0,0,0,0,0,0,0,0,0],"id":12,"left_children":[1,3,5,7,-1,9,11,13,15,17,-1,19,21,23,25,27,29,-1,-1,31,-1,-1,-1,33,35,-1,37,-1,-1,-1,-1,39,41,-1,-1,-1,-1,-1,-1,-1,-1,-1,-1],"loss_changes":[3.283794E2,6.904657E1,5.156404E1,4.94124E1,0E0,2.1041346E1,2.551751E1,2.4333466E1,5.1027045E0,2.8022003E-1,0E0,2.107949E1,5.483556E-1,5.8811493E0,1.7073781E0,4.7183037E-1,1.3635557E0,0E0,0E0,1.5392326E1,0E0,0E0,0E0,1.8256702E0,8.109436E-1,0E0,2.1941733E-1,0E0,0E0,0E0,0E0,1.5928986E1,2.056752E1,0E0,0E0,0E0,0E0,0E0,0E0,0E0,0E0,0E0,0E0],"parents":[2147483647,0,0,1,1,2,2,3,3,5,5,6,6,7,7,8,8,9,9,11,11,12,12,13,13,14,14,15,15,16,16,19,19,23,23,24,24,26,26,31,31,32,32],"right_children":[2,4,6,8,-1,10,12,14,16,18,-1,20,22,24,26,28,30,-1,-1,32,-1,-1,-1,34,36,-1,38,-1,-1,-1,-1,40,42,-1,-1,-1,-1,-1,-1,-1,-1,-1,-1],"split_conditions":[2E0,1E0,3.5683142E2,4E1,3.1358704E-1,3.7E1,1E0,2.7E1,3.3964287E1,3E1,-3.785143E-2,3.5535713E1,3.5853E2,2.9E1,3E1,5E0,5E0,3.1396102E-2,1.186252E-1,3.5804E2,-1.996406E-1,7.998905E-2,1.5254117E-2,3.5911E2,3.5935464E2,-1.7413521E-2,3.5365E2,-1.3141632E-2,-7.137547E-2,-5.5180234E-3,5.0498486E-2,9.791714E-1,3.6438E2,8.9831546E-2,6.7717554E-3,1.8075214E-1,4.8193645E-2,8.929158E-3,4.760733E-2,1.0508366E-1,-4.198501E-2,-9.793802E-2,1.8616028E-2],"split_indices":[6,18,14,8,0,10,18,5,13,10,0,13,0,10,10,4,4,0,0,0,0,0,0,0,15,0,0,0,0,0,0,19,0,0,0,0,0,0,0,0,0,0,0],"split_type":[0,0,0,0,0,0,0,0,0,0,0,0,0,0,0,0,0,0,0,0,0,0,0,0,0,0,0,0,0,0,0,0,0,0,0,0,0,0,0,0,0,0,0],"sum_hessian":[1.18E2,3.4E1,8.4E1,3E1,4E0,9E0,7.5E1,2.4E1,6E0,6E0,3E0,7.2E1,3E0,1.9E1,5E0,3E0,3E0,1E0,5E0,7E1,2E0,2E0,1E0,4E0,1.5E1,1E0,4E0,1E0,2E0,2E0,1E0,3.7E1,3.3E1,3E0,1E0,1.4E1,1E0,1E0,3E0,1E0,3.6E1,2.9E1,4E0],"tree_param":{"num_deleted":"0","num_feature":"20","num_nodes":"43","size_leaf_vector":"1"}},{"base_weights":[1.16480805E-1,2.4159153E0,-8.545636E-1,2.9518769E0,2.3806E-1,1.2761517E0,-1.0676051E0,3.4975252E0,8.152858E-1,8.028E-1,-5.2738E-1,2.0919182E0,-3.903828E-2,-1.8248136E0,-2.2014731E-1,2.9974684E-2,3.7573535E0,-5.8807373E-1,1.007412E-1,8.705902E-3,4.582205E-2,-3.9423816E-2,6.397724E-3,3.061123E-2,1.132706E-1,-9.1706777E-1,-2.7798448E0,-5.268296E-1,1.847985E0,2.19012E-1,1.974816E0,3.372574E-2,-6.1336804E-2,-1.6583075E-1,-2.2110038E0,-3.2944846E0,-2.6324272E-2,1.1484331E-1,-7.8309596E-1,1.2114944E-1,3.284931E-2,-3.0918123E-4,1.15300655E-1,6.602478E-3,-4.0730475E-3,-7.2016306E-2,4.2193454E-2,-6.5530874E-2,-1.6373877E-1,-3.135853E-2,-1.9308874E-1,2.5616074E-2,-1.8832333E-2,-7.8093365E-2,1.3705839E-2],"categories":[],"categories_nodes":[],"categories_segments":[],"categories_sizes":[],"default_left":[0,0,0,0,0,0,0,0,0,0,0,0,0,0,0,0,0,0,0,0,0,0,0,0,0,0,0,0,0,0,0,0,0,0,0,0,0,0,0,0,0,0,0,0,0,0,0,0,0,0,0,0,0,0,0],"id":13,"left_children":[1,3,5,7,9,11,13,15,17,19,21,23,-1,25,27,-1,29,31,-1,-1,-1,-1,-1,-1,-1,33,35,37,39,-1,41,43,-1,45,47,49,51,-1,53,-1,-1,-1,-1,-1,-1,-1,-1,-1,-1,-1,-1,-1,-1,-1,-1],"loss_changes":[2.6330835E2,4.0150925E1,3.9038696E1,2.9791672E1,3.8815775E0,1.5057015E1,4.8367638E1,1.4313293E1,1.2968549E1,1.9765091E-1,7.853106E-1,1.5336418E-1,0E0,3.21277E1,2.4441175E1,0E0,1.3556183E1,1.6298522E0,0E0,0E0,0E0,0E0,0E0,0E0,0E0,2.1018509E1,2.6837646E1,2.567807E1,1.8322735E0,0E0,4.60697E0,4.4733666E-2,0E0,2.0518314E1,3.3704643E0,2.1788254E1,9.4776285E-1,0E0,2.5951263E1,0E0,0E0,0E0,0E0,0E0,0E0,0E0,0E0,0E0,0E0,0E0,0E0,0E0,0E0,0E0,0E0],"parents":[2147483647,0,0,1,1,2,2,3,3,4,4,5,5,6,6,7,7,8,8,9,9,10,10,11,11,13,13,14,14,16,16,17,17,25,25,26,26,27,27,28,28,30,30,31,31,33,33,34,34,35,35,36,36,38,38],"right_children":[2,4,6,8,10,12,14,16,18,20,22,24,-1,26,28,-1,30,32,-1,-1,-1,-1,-1,-1,-1,34,36,38,40,-1,42,44,-1,46,48,50,52,-1,54,-1,-1,-1,-1,-1,-1,-1,-1,-1,-1,-1,-1,-1,-1,-1,-1],"split_conditions":[2E0,2.7E1,3.5683142E2,3.6183E2,3.2E1,3.7E1,3.5E1,3.5139E2,1.1E1,3.5365E2,3.5915E2,3E1,-3.903828E-2,3.4E1,1E0,2.9974684E-2,3.5884537E2,3.6558E2,1.007412E-1,8.705902E-3,4.582205E-2,-3.9423816E-2,6.397724E-3,3.061123E-2,1.132706E-1,4E0,6E0,2E0,3.5828537E2,2.19012E-1,7E0,3.624E2,-6.1336804E-2,3.257143E1,3.591893E2,3.574757E2,3.562E2,1.1484331E-1,1.7E1,1.2114944E-1,3.284931E-2,-3.0918123E-4,1.15300655E-1,6.602478E-3,-4.0730475E-3,-7.2016306E-2,4.2193454E-2,-6.5530874E-2,-1.6373877E-1,-3.135853E-2,-1.9308874E-1,2.5616074E-2,-1.8832333E-2,-7.8093365E-2,1.3705839E-2],"split_indices":[6,5,14,0,11,10,11,0,5,0,0,10,0,12,18,0,15,0,0,0,0,0,0,0,0,6,4,5,15,0,5,0,0,12,15,14,0,0,5,0,0,0,0,0,0,0,0,0,0,0,0,0,0,0,0],"split_type":[0,0,0,0,0,0,0,0,0,0,0,0,0,0,0,0,0,0,0,0,0,0,0,0,0,0,0,0,0,0,0,0,0,0,0,0,0,0,0,0,0,0,0,0,0,0,0,0,0,0,0,0,0,0,0],"sum_hessian":[1.16E2,3.4E1,8.2E1,2.7E1,7E0,7E0,7.5E1,2.1E1,6E0,4E0,3E0,5E0,2E0,3.9E1,3.6E1,2E0,1.9E1,3E0,3E0,1E0,3E0,2E0,1E0,1E0,4E0,2.1E1,1.8E1,3.2E1,4E0,1.3E1,6E0,2E0,1E0,1.4E1,7E0,1.5E1,3E0,2E0,3E1,2E0,2E0,1E0,5E0,1E0,1E0,6E0,8E0,5E0,2E0,3E0,1.2E1,1E0,2E0,1.7E1,1.3E1],"tree_param":{"num_deleted":"0","num_feature":"20","num_nodes":"55","size_leaf_vector":"1"}},{"base_weights":[4.921825E-2,2.2690654E0,-9.8009163E-1,3.3195195E0,1.4396598E0,1.0300424E0,-1.2113229E0,-4.1171934E-2,3.6506126E0,1.7255166E0,-5.2061208E-2,2.011303E0,-3.4967948E-2,-6.8146014E-1,-1.9657397E0,-1.5992546E-2,3.9570637E0,3.9935493E-1,2.1149824E0,2.9845906E-2,1.08739816E-1,-4.16517E-1,-3.2929983E0,-2.4931817E0,-6.615375E-1,4.338131E0,5.5688668E-2,3.8070537E-2,-1.08252205E-2,1.9188376E-1,1.4222322E0,-7.034211E-1,1.4221445E0,2.6062965E-2,-2.3690854E-1,-9.662056E-2,-2.8872406E0,-2.2879474E0,3.1058311E-2,3.1826783E-2,2.3083864E-1,3.7423015E-2,1.04177795E-1,-4.3692254E-2,4.6051886E-2,9.9704936E-2,-3.5940647E-2,-3.47764E-2,1.6742898E-2,-1.5845154E-1,-2.1097375E-2,-3.3394147E-2,-1.382019E-1,3.18398E-2,-2.2987176E-2],"categories":[],"categories_nodes":[],"categories_segments":[],"categories_sizes":[],"default_left":[0,0,0,0,0,0,0,0,0,0,0,0,0,0,0,0,0,0,0,0,0,0,0,0,0,0,0,0,0,0,0,0,0,0,0,0,0,0,0,0,0,0,0,0,0,0,0,0,0,0,0,0,0,0,0],"id":14,"left_children":[1,3,5,7,9,11,13,-1,15,17,-1,19,-1,21,23,-1,25,27,29,-1,-1,31,33,35,37,39,-1,-1,-1,-1,41,43,45,-1,-1,47,49,51,53,-1,-1,-1,-1,-1,-1,-1,-1,-1,-1,-1,-1,-1,-1,-1,-1],"loss_changes":[2.7412827E2,2.8328629E1,3.93618E1,2.4953339E1,1.8107735E1,1.6679562E1,2.8240982E1,0E0,1.9516953E1,1.0001759E1,0E0,8.928108E-2,0E0,2.9764324E1,1.8987389E1,0E0,1.0337097E1,1.5027013E0,1.3636269E1,0E0,0E0,2.315619E1,2.4518852E1,1.9553146E1,1.1335506E1,9.438278E0,0E0,0E0,0E0,0E0,4.233099E0,1.1048168E1,8.78056E0,0E0,0E0,1.2665658E0,1.1167343E1,4.678383E-1,2.67114E0,0E0,0E0,0E0,0E0,0E0,0E0,0E0,0E0,0E0,0E0,0E0,0E0,0E0,0E0,0E0,0E0],"parents":[2147483647,0,0,1,1,2,2,3,3,4,4,5,5,6,6,8,8,9,9,11,11,13,13,14,14,16,16,17,17,18,18,21,21,22,22,23,23,24,24,25,25,30,30,31,31,32,32,35,35,36,36,37,37,38,38],"right_children":[2,4,6,8,10,12,14,-1,16,18,-1,20,-1,22,24,-1,26,28,30,-1,-1,32,34,36,38,40,-1,-1,-1,-1,42,44,46,-1,-1,48,50,52,54,-1,-1,-1,-1,-1,-1,-1,-1,-1,-1,-1,-1,-1,-1,-1,-1],"split_conditions":[2E0,9.9771005E-1,3.5683142E2,3.2964287E1,3.5973572E2,3.7E1,3.4142857E1,-4.1171934E-2,2E0,3.5798428E2,-5.2061208E-2,3E1,-3.4967948E-2,3.492857E1,3.5974E2,-1.5992546E-2,3.5935464E2,3.592E2,3.5829715E2,2.9845906E-2,1.08739816E-1,3.45E1,3.5271E2,3.2E1,3.2E1,3E1,5.5688668E-2,3.8070537E-2,-1.08252205E-2,1.9188376E-1,3.6189E2,4E1,3.568E2,2.6062965E-2,-2.3690854E-1,3.1E1,3.6414E2,3.5184E2,2E0,3.1826783E-2,2.3083864E-1,3.7423015E-2,1.04177795E-1,-4.3692254E-2,4.6051886E-2,9.9704936E-2,-3.5940647E-2,-3.47764E-2,1.6742898E-2,-1.5845154E-1,-2.1097375E-2,-3.3394147E-2,-1.382019E-1,3.18398E-2,-2.2987176E-2],"split_indices":[6,19,14,13,14,10,12,0,4,14,0,10,0,13,17,0,15,0,14,0,0,13,0,10,9,11,0,0,0,0,17,9,0,0,0,9,0,0,3,0,0,0,0,0,0,0,0,0,0,0,0,0,0,0,0],"split_type":[0,0,0,0,0,0,0,0,0,0,0,0,0,0,0,0,0,0,0,0,0,0,0,0,0,0,0,0,0,0,0,0,0,0,0,0,0,0,0,0,0,0,0,0,0,0,0,0,0,0,0,0,0,0,0],"sum_hessian":[1.18E2,3.7E1,8.1E1,1.5E1,2.2E1,8E0,7.3E1,1E0,1.4E1,2E1,2E0,5E0,3E0,4.4E1,2.9E1,1E0,1.3E1,5E0,1.5E1,1E0,4E0,4.1E1,3E0,2E1,9E0,1.1E1,2E0,3E0,2E0,3E0,1.2E1,3.6E1,5E0,1E0,2E0,3E0,1.7E1,2E0,7E0,1E0,1E1,7E0,5E0,3.3E1,3E0,4E0,1E0,1E0,2E0,1.5E1,2E0,1E0,1E0,3E0,4E0],"tree_param":{"num_deleted":"0","num_feature":"20","num_nodes":"55","size_leaf_vector":"1"}},{"base_weights":[2.970197E-1,2.4209585E0,-7.552668E-1,1.8878137E0,2.83439E-1,-1.3175538E0,-1.074731E-2,2.2510793E0,1.1316844E-1,-2.4490356E-3,-1.7956995E0,-5.195456E-1,1.1465894E0,2.5946643E0,5.0155956E-1,1.8551508E0,-9.546547E-1,6.8839645E-1,-1.2454811E0,-2.030966E0,1.2339554E0,9.7914505E-1,-9.431755E-1,2.0021262E0,-8.5113144E-1,2.7706465E-2,2.7549798E0,7.2661364E-1,-1.5592766E-2,-8.101749E-3,1.4723806E-1,-2.7583185E-1,-6.576297E-2,1.1876837E0,-7.060725E-1,2.3506546E-2,-8.959585E-2,4.0893936E-1,-2.3069894E0,7.7402785E-2,1.5143871E-2,1.4817902E0,-3.8352013E-2,-2.775539E-1,-1.7258737E0,1.1234347E-1,7.2231293E-3,-1.2282244E-2,-6.668978E-2,6.803253E-2,1.4946195E-1,4.276223E-2,5.3022387E-3,-1.6986847E-2,-3.7005425E-3,8.058389E-2,-3.3907034E-2,-5.1599886E-2,-1.3555527E-3,2.9752031E-2,-3.7341118E-3,-9.2616275E-2,-2.0139897E-1,1.5022278E-2,8.510075E-2,2.4574058E-2,-4.485381E-2,-1.5743129E-2,-1.0420197E-1],"categories":[],"categories_nodes":[],"categories_segments":[],"categories_sizes":[],"default_left":[0,0,0,0,0,0,0,0,0,0,0,0,0,0,0,0,0,0,0,0,0,0,0,0,0,0,0,0,0,0,0,0,0,0,0,0,0,0,0,0,0,0,0,0,0,0,0,0,0,0,0,0,0,0,0,0,0,0,0,0,0,0,0,0,0,0,0,0,0],"id":15,"left_children":[1,3,5,7,-1,9,11,13,15,17,19,21,23,25,27,29,31,33,35,37,39,41,43,45,47,-1,49,51,-1,-1,-1,53,-1,55,57,-1,-1,59,61,-1,-1,63,-1,65,67,-1,-1,-1,-1,-1,-1,-1,-1,-1,-1,-1,-1,-1,-1,-1,-1,-1,-1,-1,-1,-1,-1,-1,-1],"loss_changes":[2.6332254E2,5.682924E1,3.3057896E1,2.2308617E1,0E0,2.829213E1,2.1205488E1,1.6130768E1,1.4791933E1,1.2021045E1,2.6027756E1,1.679576E1,2.0504429E1,6.324478E0,1.3249723E0,7.0709963E0,8.6114264E-1,7.1047554E0,5.5297937E0,2.1821022E1,4.0848446E-1,6.402861E0,9.940598E0,3.3126183E0,8.413465E-1,0E0,3.1186523E0,3.084278E-1,0E0,0E0,0E0,1.3547942E-2,0E0,6.6306343E0,6.358936E-1,0E0,0E0,4.044494E-1,1.444809E1,0E0,0E0,7.894449E-1,0E0,6.1581087E0,3.8921947E0,0E0,0E0,0E0,0E0,0E0,0E0,0E0,0E0,0E0,0E0,0E0,0E0,0E0,0E0,0E0,0E0,0E0,0E0,0E0,0E0,0E0,0E0,0E0,0E0],"parents":[2147483647,0,0,1,1,2,2,3,3,5,5,6,6,7,7,8,8,9,9,10,10,11,11,12,12,13,13,14,14,15,15,16,16,17,17,18,18,19,19,20,20,21,21,22,22,23,23,24,24,26,26,27,27,31,31,33,33,34,34,37,37,38,38,41,41,43,43,44,44],"right_children":[2,4,6,8,-1,10,12,14,16,18,20,22,24,26,28,30,32,34,36,38,40,42,44,46,48,-1,50,52,-1,-1,-1,54,-1,56,58,-1,-1,60,62,-1,-1,64,-1,66,68,-1,-1,-1,-1,-1,-1,-1,-1,-1,-1,-1,-1,-1,-1,-1,-1,-1,-1,-1,-1,-1,-1,-1,-1],"split_conditions":[2E0,1E0,1.001721E0,4E1,2.83439E-1,3E0,3.4607143E1,2.7E1,4E0,3.582686E2,1E0,3.3285713E1,3.5916E2,3.5139E2,3E1,3.5316E2,5E0,3.7E1,3E0,3.5324E2,3.5853E2,1E0,3.4E1,3.525E1,3.6064E2,2.7706465E-2,2.9E1,3.592E2,-1.5592766E-2,-8.101749E-3,1.4723806E-1,3.6022E2,-6.576297E-2,2.9E1,3.6063E2,2.3506546E-2,-8.959585E-2,3.5312E2,3.492857E1,7.7402785E-2,1.5143871E-2,3.5201E2,-3.8352013E-2,3.3964287E1,5E0,1.1234347E-1,7.2231293E-3,-1.2282244E-2,-6.668978E-2,6.803253E-2,1.4946195E-1,4.276223E-2,5.3022387E-3,-1.6986847E-2,-3.7005425E-3,8.058389E-2,-3.3907034E-2,-5.1599886E-2,-1.3555527E-3,2.9752031E-2,-3.7341118E-3,-9.2616275E-2,-2.0139897E-1,1.5022278E-2,8.510075E-2,2.4574058E-2,-4.485381E-2,-1.5743129E-2,-1.0420197E-1],"split_indices":[6,18,19,8,0,4,13,5,4,15,18,13,0,0,5,0,4,10,6,0,0,1,10,13,0,0,10,0,0,0,0,0,0,5,0,0,0,0,13,0,0,0,0,13,6,0,0,0,0,0,0,0,0,0,0,0,0,0,0,0,0,0,0,0,0,0,0,0,0],"split_type":[0,0,0,0,0,0,0,0,0,0,0,0,0,0,0,0,0,0,0,0,0,0,0,0,0,0,0,0,0,0,0,0,0,0,0,0,0,0,0,0,0,0,0,0,0,0,0,0,0,0,0,0,0,0,0,0,0,0,0,0,0,0,0,0,0,0,0,0,0],"sum_hessian":[1.16E2,3.8E1,7.8E1,3.4E1,4E0,4.4E1,3.4E1,2.8E1,6E0,1.2E1,3.2E1,2.4E1,1E1,2.3E1,5E0,2E0,4E0,8E0,4E0,3E1,2E0,5E0,1.9E1,7E0,3E0,2E0,2.1E1,4E0,1E0,1E0,1E0,2E0,2E0,6E0,2E0,1E0,3E0,3E0,2.7E1,1E0,1E0,4E0,1E0,1.1E1,8E0,6E0,1E0,2E0,1E0,4E0,1.7E1,3E0,1E0,1E0,1E0,5E0,1E0,1E0,1E0,2E0,1E0,2.3E1,4E0,1E0,3E0,5E0,6E0,2E0,6E0],"tree_param":{"num_deleted":"0","num_feature":"20","num_nodes":"69","size_leaf_vector":"1"}},{"base_weights":[-7.330667E-2,1.9874523E0,-8.81031E-1,1.5343575E0,2.852442E-1,-1.662053E0,-2.219895E-1,1.9875807E0,-5.3426105E-1,1.1206512E0,-1.9489852E0,-4.962477E-1,2.0164742E0,2.471826E0,4.5843777E-1,-9.5854187E-1,3.9678574E-2,1.08249985E-1,-5.0309848E-2,-2.6201982E0,-1.072059E0,-9.4226485E-1,1.4056039E0,1.154777E-1,2.1103859E-2,1.0671425E-2,2.5921185E0,6.361968E-1,-1.5202904E-2,-1.6307576E-2,-6.357091E-2,-3.3632946E-1,-3.05455E0,2.7750942E-1,-1.909551E0,-1.3449785E0,7.456681E-1,1.4646721E-2,7.613545E-2,1.5600626E-1,8.880492E-2,4.1158628E-2,8.741506E-3,2.4667645E-2,-3.886706E-2,-1.9244431E-1,-6.107823E-2,-8.992768E-3,2.482132E-2,2.1037865E-2,-1.1076125E-1,6.850897E-3,-8.874653E-2,-1.3235665E-2,6.0138166E-2],"categories":[],"categories_nodes":[],"categories_segments":[],"categories_sizes":[],"default_left":[0,0,0,0,0,0,0,0,0,0,0,0,0,0,0,0,0,0,0,0,0,0,0,0,0,0,0,0,0,0,0,0,0,0,0,0,0,0,0,0,0,0,0,0,0,0,0,0,0,0,0,0,0,0,0],"id":16,"left_children":[1,3,5,7,-1,9,11,13,15,17,19,21,23,25,27,29,-1,-1,-1,31,33,35,37,-1,-1,-1,39,41,-1,-1,-1,43,45,47,49,51,53,-1,-1,-1,-1,-1,-1,-1,-1,-1,-1,-1,-1,-1,-1,-1,-1,-1,-1],"loss_changes":[1.8318423E2,4.346147E1,4.029438E1,2.825071E1,0E0,3.0928246E1,2.8013021E1,1.6638351E1,4.1409144E0,1.1063099E1,1.661493E1,3.5254787E1,1.36162E0,4.3367844E0,1.1422243E0,5.74625E-1,0E0,0E0,0E0,1.6828705E1,1.8613964E1,2.3434772E1,5.963402E-1,0E0,0E0,0E0,1.7830429E0,3.7367105E-1,0E0,0E0,0E0,1.8471022E0,1.7138443E1,7.901594E-1,8.055214E0,1.7447262E1,3.5512712E0,0E0,0E0,0E0,0E0,0E0,0E0,0E0,0E0,0E0,0E0,0E0,0E0,0E0,0E0,0E0,0E0,0E0,0E0],"parents":[2147483647,0,0,1,1,2,2,3,3,5,5,6,6,7,7,8,8,9,9,10,10,11,11,12,12,13,13,14,14,15,15,19,19,20,20,21,21,22,22,26,26,27,27,31,31,32,32,33,33,34,34,35,35,36,36],"right_children":[2,4,6,8,-1,10,12,14,16,18,20,22,24,26,28,30,-1,-1,-1,32,34,36,38,-1,-1,-1,40,42,-1,-1,-1,44,46,48,50,52,54,-1,-1,-1,-1,-1,-1,-1,-1,-1,-1,-1,-1,-1,-1,-1,-1,-1,-1],"split_conditions":[2E0,1E0,9.973098E-1,4E1,2.852442E-1,3.5139E2,3.6285713E1,2.7E1,3.5901715E2,4E0,3.5E1,2.4E1,1.4E1,3.0857143E1,3.442857E1,5E0,3.9678574E-2,1.08249985E-1,-5.0309848E-2,3.5803E2,3.8E1,3.5974857E2,3.2857143E1,1.154777E-1,2.1103859E-2,1.0671425E-2,3.3E1,3.5E1,-1.5202904E-2,-1.6307576E-2,-6.357091E-2,2.8E1,4E0,3.6E1,1.2E1,3.591E2,8E0,1.4646721E-2,7.613545E-2,1.5600626E-1,8.880492E-2,4.1158628E-2,8.741506E-3,2.4667645E-2,-3.886706E-2,-1.9244431E-1,-6.107823E-2,-8.992768E-3,2.482132E-2,2.1037865E-2,-1.1076125E-1,6.850897E-3,-8.874653E-2,-1.3235665E-2,6.0138166E-2],"split_indices":[6,18,19,8,0,17,12,5,15,6,9,5,5,12,13,4,0,0,0,15,9,14,13,0,0,0,9,12,0,0,0,8,6,9,5,17,5,0,0,0,0,0,0,0,0,0,0,0,0,0,0,0,0,0,0],"split_type":[0,0,0,0,0,0,0,0,0,0,0,0,0,0,0,0,0,0,0,0,0,0,0,0,0,0,0,0,0,0,0,0,0,0,0,0,0,0,0,0,0,0,0,0,0,0,0,0,0,0,0,0,0,0,0],"sum_hessian":[1.08E2,3E1,7.8E1,2.8E1,2E0,3.5E1,4.3E1,2.3E1,5E0,3E0,3.2E1,3.9E1,4E0,1.7E1,6E0,4E0,1E0,2E0,1E0,1.7E1,1.5E1,3.2E1,7E0,3E0,1E0,1E0,1.6E1,5E0,1E0,2E0,2E0,3E0,1.4E1,6E0,9E0,2.6E1,6E0,1E0,6E0,8E0,8E0,3E0,2E0,1E0,2E0,9E0,5E0,2E0,4E0,1E0,8E0,6E0,2E1,2E0,4E0],"tree_param":{"num_deleted":"0","num_feature":"20","num_nodes":"55","size_leaf_vector":"1"}},{"base_weights":[3.192031E-2,1.937517E0,-7.397727E-1,2.4868517E0,7.231658E-1,1.3710338E-1,-1.3387904E0,2.816211E0,2.1834278E-1,-5.688791E-1,1.2170563E0,-2.001377E-1,1.8004583E0,-2.456058E0,-5.7478577E-1,1.8434308E-1,1.768691E0,4.887619E-1,-1.4822865E-2,-2.1592459E-2,-5.5268478E-2,1.4499607E0,-1.6154481E-2,9.348698E-2,-4.147625E-1,1.1404194E-1,-1.5036106E-2,-1.4378808E0,-2.0707737E-1,-1.0996788E0,3.4793472E-1,2.4212685E0,2.1363258E-2,7.723999E-3,2.8933143E-2,1.580906E-3,-3.2003403E-3,8.8123925E-2,3.4160486E-1,6.814828E-2,-6.826085E-1,4.130459E-2,-2.9229667E0,5.735076E-1,-1.8577235E0,-1.223169E0,1.2863827E0,2.9394785E-2,1.4672051E-1,2.728281E-2,-1.6764324E-2,2.066927E-2,4.9510957E-3,-4.956013E-2,3.7500422E-2,3.521662E-2,-2.4868926E-2,-1.8641534E-1,-6.934426E-2,5.4567862E-2,-4.385948E-3,-2.442085E-2,-1.2820904E-1,-7.0763014E-2,-1.1370087E-2,7.718703E-2,1.7143631E-2],"categories":[],"categories_nodes":[],"categories_segments":[],"categories_sizes":[],"default_left":[0,0,0,0,0,0,0,0,0,0,0,0,0,0,0,0,0,0,0,0,0,0,0,0,0,0,0,0,0,0,0,0,0,0,0,0,0,0,0,0,0,0,0,0,0,0,0,0,0,0,0,0,0,0,0,0,0,0,0,0,0,0,0,0,0,0,0],"id":17,"left_children":[1,3,5,7,9,11,13,15,17,19,21,23,25,27,29,-1,31,33,-1,35,-1,37,-1,-1,39,-1,-1,41,-1,43,45,47,49,-1,-1,-1,-1,-1,51,-1,53,55,57,59,61,63,65,-1,-1,-1,-1,-1,-1,-1,-1,-1,-1,-1,-1,-1,-1,-1,-1,-1,-1,-1,-1],"loss_changes":[1.7348598E2,2.0882492E1,4.430575E1,1.6569641E1,8.349901E0,1.9993645E1,4.126818E1,1.1719574E1,7.0174414E-1,1.1505889E0,3.6968288E0,1.4102907E1,6.742096E0,2.8367485E1,1.5396833E1,0E0,1.2491211E1,7.650256E-4,0E0,8.79445E-3,0E0,2.1689777E0,0E0,0E0,1.4262777E1,0E0,0E0,3.0874777E1,0E0,2.643242E1,1.926625E1,5.801113E0,9.309069E-1,0E0,0E0,0E0,0E0,0E0,1.1303991E-2,0E0,1.1795837E1,3.207615E0,3.4887428E0,2.4926445E0,1.2290607E1,6.3455915E-1,1.4132519E0,0E0,0E0,0E0,0E0,0E0,0E0,0E0,0E0,0E0,0E0,0E0,0E0,0E0,0E0,0E0,0E0,0E0,0E0,0E0,0E0],"parents":[2147483647,0,0,1,1,2,2,3,3,4,4,5,5,6,6,7,7,8,8,9,9,10,10,11,11,12,12,13,13,14,14,16,16,17,17,19,19,21,21,24,24,27,27,29,29,30,30,31,31,32,32,38,38,40,40,41,41,42,42,43,43,44,44,45,45,46,46],"right_children":[2,4,6,8,10,12,14,16,18,20,22,24,26,28,30,-1,32,34,-1,36,-1,38,-1,-1,40,-1,-1,42,-1,44,46,48,50,-1,-1,-1,-1,-1,52,-1,54,56,58,60,62,64,66,-1,-1,-1,-1,-1,-1,-1,-1,-1,-1,-1,-1,-1,-1,-1,-1,-1,-1,-1,-1],"split_conditions":[2E0,3.9E1,1.4E1,2.6E1,1.1E1,3.6285713E1,3.3E1,9.9771005E-1,3.5625E2,3.6558E2,3.6E1,9.8985785E-1,3.5916E2,3.6E2,9.960896E-1,1.8434308E-1,3.3E1,3.5365E2,-1.4822865E-2,3.624E2,-5.5268478E-2,2.1E1,-1.6154481E-2,9.348698E-2,2.9E1,1.1404194E-1,-1.5036106E-2,3.2E1,-2.0707737E-1,3.2E1,3.5E1,3E0,3.5139E2,7.723999E-3,2.8933143E-2,1.580906E-3,-3.2003403E-3,8.8123925E-2,3.572E2,6.814828E-2,3.6438E2,3.3285713E1,3.5638E2,3.4E1,2E0,5E0,4E1,2.9394785E-2,1.4672051E-1,2.728281E-2,-1.6764324E-2,2.066927E-2,4.9510957E-3,-4.956013E-2,3.7500422E-2,3.521662E-2,-2.4868926E-2,-1.8641534E-1,-6.934426E-2,5.4567862E-2,-4.385948E-3,-2.442085E-2,-1.2820904E-1,-7.0763014E-2,-1.1370087E-2,7.718703E-2,1.7143631E-2],"split_indices":[6,8,5,5,5,12,9,19,0,0,11,19,0,0,19,0,9,0,0,0,0,5,0,0,9,0,0,11,0,8,9,4,0,0,0,0,0,0,0,0,0,12,0,9,3,4,8,0,0,0,0,0,0,0,0,0,0,0,0,0,0,0,0,0,0,0,0],"split_type":[0,0,0,0,0,0,0,0,0,0,0,0,0,0,0,0,0,0,0,0,0,0,0,0,0,0,0,0,0,0,0,0,0,0,0,0,0,0,0,0,0,0,0,0,0,0,0,0,0,0,0,0,0,0,0,0,0,0,0,0,0,0,0,0,0,0,0],"sum_hessian":[1.16E2,3.3E1,8.3E1,2.2E1,1.1E1,3.4E1,4.9E1,1.9E1,3E0,3E0,8E0,2.9E1,5E0,1.9E1,3E1,9E0,1E1,2E0,1E0,2E0,1E0,7E0,1E0,2E0,2.7E1,4E0,1E0,1.3E1,6E0,1.9E1,1.1E1,7E0,3E0,1E0,1E0,1E0,1E0,5E0,2E0,3E0,2.4E1,7E0,6E0,6E0,1.3E1,4E0,7E0,2E0,5E0,1E0,2E0,1E0,1E0,2E1,4E0,3E0,4E0,3E0,3E0,3E0,3E0,5E0,8E0,3E0,1E0,5E0,2E0],"tree_param":{"num_deleted":"0","num_feature":"20","num_nodes":"67","size_leaf_vector":"1"}},{"base_weights":[1.2805535E-1,2.2156448E0,-8.390555E-1,1.7093618E0,2.5569922E-1,-1.0303559E0,1.6920433E0,1.9976473E-1,1.347592E0,-1.7847129E0,-5.6884867E-1,1.037694E-1,3.0845134E-2,9.7719944E-1,1.5020578E-1,2.3373753E-1,-2.60378E0,-1.8229786E0,-2.3269105E-1,2.66885E-1,1.5669771E0,7.027755E-2,-5.864277E-1,7.1616364E-1,-3.0124495E0,-2.295705E0,6.0789015E-2,-2.50863E0,-4.1866507E-2,1.5712392E-3,5.206388E-2,-1.8880367E-3,1.0040329E-1,2.7877871E-2,-6.489048E-2,6.322622E-2,-9.513951E-3,-2.2216323E-1,-8.489989E-2,2.1657659E-2,-1.3454783E-1,-1.46601675E-2,-1.734871E-1,-1.1670764E-2,7.983823E-2],"categories":[],"categories_nodes":[],"categories_segments":[],"categories_sizes":[],"default_left":[0,0,0,0,0,0,0,0,0,0,0,0,0,0,0,0,0,0,0,0,0,0,0,0,0,0,0,0,0,0,0,0,0,0,0,0,0,0,0,0,0,0,0,0,0],"id":18,"left_children":[1,3,5,7,-1,9,11,-1,13,15,17,-1,-1,19,-1,21,23,25,27,29,31,-1,33,35,37,39,-1,41,43,-1,-1,-1,-1,-1,-1,-1,-1,-1,-1,-1,-1,-1,-1,-1,-1],"loss_changes":[2.3605496E2,4.5551407E1,4.047944E1,2.190635E1,0E0,2.5095367E1,1.1925831E0,0E0,1.5471306E1,4.6899506E1,1.9811905E1,0E0,0E0,1.0473919E1,0E0,9.47398E0,2.9292587E1,1.715609E1,1.6832869E1,2.3376803E0,9.985466E0,0E0,5.6064653E0,1.7317855E0,2.6308609E1,1.0872864E1,0E0,5.3704777E0,1.1986186E1,0E0,0E0,0E0,0E0,0E0,0E0,0E0,0E0,0E0,0E0,0E0,0E0,0E0,0E0,0E0,0E0],"parents":[2147483647,0,0,1,1,2,2,3,3,5,5,6,6,8,8,9,9,10,10,13,13,15,15,16,16,17,17,18,18,19,19,20,20,22,22,23,23,24,24,25,25,27,27,28,28],"right_children":[2,4,6,8,-1,10,12,-1,14,16,18,-1,-1,20,-1,22,24,26,28,30,32,-1,34,36,38,40,-1,42,44,-1,-1,-1,-1,-1,-1,-1,-1,-1,-1,-1,-1,-1,-1,-1,-1],"split_conditions":[2E0,1E0,1E0,3.5786108E2,2.5569922E-1,9.971888E-1,3.5828537E2,1.9976473E-1,3.7E1,3.2E1,3E1,1.037694E-1,3.0845134E-2,1E0,1.5020578E-1,1.4E1,2.9E1,3.593275E2,3.5772107E2,1.0093484E0,3E0,7.027755E-2,3.1E1,2E0,3.6E1,2.5E1,6.0789015E-2,1E1,3.6285713E1,1.5712392E-3,5.206388E-2,-1.8880367E-3,1.0040329E-1,2.7877871E-2,-6.489048E-2,6.322622E-2,-9.513951E-3,-2.2216323E-1,-8.489989E-2,2.1657659E-2,-1.3454783E-1,-1.46601675E-2,-1.734871E-1,-1.1670764E-2,7.983823E-2],"split_indices":[6,18,18,15,0,19,15,0,10,10,8,0,0,6,0,5,11,15,15,19,4,0,8,3,11,11,0,5,12,0,0,0,0,0,0,0,0,0,0,0,0,0,0,0,0],"split_type":[0,0,0,0,0,0,0,0,0,0,0,0,0,0,0,0,0,0,0,0,0,0,0,0,0,0,0,0,0,0,0,0,0,0,0,0,0,0,0,0,0,0,0,0,0],"sum_hessian":[1.15E2,3.6E1,7.9E1,3.2E1,4E0,7.4E1,5E0,3E0,2.9E1,2.7E1,4.7E1,3E0,2E0,2.5E1,4E0,8E0,1.9E1,9E0,3.8E1,1.2E1,1.3E1,3E0,5E0,2E0,1.7E1,8E0,1E0,2E0,3.6E1,1E1,2E0,3E0,1E1,2E0,3E0,1E0,1E0,7E0,1E1,1E0,7E0,1E0,1E0,3.3E1,3E0],"tree_param":{"num_deleted":"0","num_feature":"20","num_nodes":"45","size_leaf_vector":"1"}},{"base_weights":[9.913703E-2,2.1169724E0,-7.2416794E-1,1.6508769E0,2.541723E-1,-1.0954937E0,2.033763E-1,1.7821845E0,-5.3926088E-2,-7.752103E-1,-2.1445355E0,-7.623426E-1,1.2326237E0,-3.7465286E-2,1.8993558E0,-9.351786E-1,5.6912567E-2,-2.5169272E0,-6.774225E-1,9.749419E-2,-1.4327369E0,1.7928454E0,-3.3603096E-1,1.5515022E0,1.5945908E-1,-3.9551494E-1,-1.7372808E0,-1.9368051E-1,-1.3821188E0,-9.276104E-3,-3.8977433E-2,-1.2872969E-1,-1.4858997E-1,1.086389E-1,1.5436046E-2,-1.9106865E-3,-2.1128273E-2,8.816583E-3,1.00004815E-1,-5.72489E-2,1.4019369E-2,-5.0446063E-2,-1.4522266E-1,-7.414236E-2,-1.9443704E-2,-2.4214221E-2,1.2950373E-2],"categories":[],"categories_nodes":[],"categories_segments":[],"categories_sizes":[],"default_left":[0,0,0,0,0,0,0,0,0,0,0,0,0,0,0,0,0,0,0,0,0,0,0,0,0,0,0,0,0,0,0,0,0,0,0,0,0,0,0,0,0,0,0,0,0,0,0],"id":19,"left_children":[1,3,5,7,-1,9,11,13,-1,15,17,19,21,-1,23,25,-1,27,29,-1,31,33,35,37,-1,39,41,-1,43,-1,-1,45,-1,-1,-1,-1,-1,-1,-1,-1,-1,-1,-1,-1,-1,-1,-1],"loss_changes":[1.8925926E2,3.7235626E1,2.8120903E1,1.2673851E1,0E0,1.782499E1,2.4794811E1,1.0025116E1,0E0,1.5144756E1,5.3974075E0,2.6431065E1,1.1147985E1,0E0,7.614746E0,1.7926094E1,0E0,1.0041958E1,5.632007E-2,0E0,2.1693876E1,4.404022E0,8.693805E-2,1.4452759E1,0E0,1.3998262E1,1.1521694E1,0E0,1.2369537E-1,0E0,0E0,1.0904657E0,0E0,0E0,0E0,0E0,0E0,0E0,0E0,0E0,0E0,0E0,0E0,0E0,0E0,0E0,0E0],"parents":[2147483647,0,0,1,1,2,2,3,3,5,5,6,6,7,7,9,9,10,10,11,11,12,12,14,14,15,15,17,17,18,18,20,20,21,21,22,22,23,23,25,25,26,26,28,28,31,31],"right_children":[2,4,6,8,-1,10,12,14,-1,16,18,20,22,-1,24,26,-1,28,30,-1,32,34,36,38,-1,40,42,-1,44,-1,-1,46,-1,-1,-1,-1,-1,-1,-1,-1,-1,-1,-1,-1,-1,-1,-1],"split_conditions":[2E0,1E0,3.45E1,3.6663E2,2.541723E-1,3.4142857E1,1.0059084E0,3.2964287E1,-5.3926088E-2,3.6431E2,6E0,3.4714287E1,3.5916E2,-3.7465286E-2,3.4964287E1,3.6E2,5.6912567E-2,9.971888E-1,3.5573E2,9.749419E-2,9.9317926E-1,6E0,3.5956E2,3.5828607E2,1.5945908E-1,9.9968904E-1,3.5891037E2,-1.9368051E-1,3.6035E2,-9.276104E-3,-3.8977433E-2,3.492857E1,-1.4858997E-1,1.086389E-1,1.5436046E-2,-1.9106865E-3,-2.1128273E-2,8.816583E-3,1.00004815E-1,-5.72489E-2,1.4019369E-2,-5.0446063E-2,-1.4522266E-1,-7.414236E-2,-1.9443704E-2,-2.4214221E-2,1.2950373E-2],"split_indices":[6,18,13,0,0,13,19,13,0,0,4,13,0,0,13,0,0,19,0,0,19,6,0,15,0,19,15,0,0,0,0,13,0,0,0,0,0,0,0,0,0,0,0,0,0,0,0],"split_type":[0,0,0,0,0,0,0,0,0,0,0,0,0,0,0,0,0,0,0,0,0,0,0,0,0,0,0,0,0,0,0,0,0,0,0,0,0,0,0,0,0,0,0,0,0,0,0],"sum_hessian":[1.12E2,3.2E1,8E1,2.9E1,3E0,5.7E1,2.3E1,2.8E1,1E0,4.5E1,1.2E1,1.2E1,1.1E1,1E0,2.7E1,4.2E1,3E0,9E0,3E0,2E0,1E1,8E0,3E0,2.3E1,4E0,2.6E1,1.6E1,3E0,6E0,1E0,2E0,6E0,4E0,6E0,2E0,1E0,2E0,6E0,1.7E1,1.2E1,1.4E1,1.1E1,5E0,5E0,1E0,3E0,3E0],"tree_param":{"num_deleted":"0","num_feature":"20","num_nodes":"47","size_leaf_vector":"1"}},{"base_weights":[1.0715838E-1,2.0605247E0,-7.2790235E-1,2.5360427E0,1.386466E-1,7.51848E-1,-8.9803547E-1,3.6645186E0,1.5902923E0,6.127647E-1,-4.8866272E-1,7.4269585E-2,-2.682147E-2,-1.6609553E0,-5.214059E-1,5.4179955E-2,4.072343E0,-1.5306091E-1,1.974801E0,2.5206567E-3,3.703747E-2,-3.410276E-2,2.2878647E-3,1.1891645E0,-1.97411E0,-1.3997796E0,1.932148E-1,2.1320426E-1,5.8666516E-2,9.496594E-3,-1.6535124E-2,2.368228E0,-2.5717416E-1,3.3468248E-3,8.5840516E-2,-2.7471044E0,-7.7180636E-1,1.286354E-1,-1.9467869E0,-1.8883286E0,6.017949E-1,5.182424E-2,1.3484888E-1,-1.8290043E-2,-9.980202E-4,-7.396219E-2,-1.9898672E-1,-8.795849E-2,8.981546E-3,4.4260178E-2,-5.87595E-2,-1.5736274E-2,-1.21237494E-1,-1.8482845E-2,-1.3887787E-1,7.1433387E-3,7.795794E-2],"categories":[],"categories_nodes":[],"categories_segments":[],"categories_sizes":[],"default_left":[0,0,0,0,0,0,0,0,0,0,0,0,0,0,0,0,0,0,0,0,0,0,0,0,0,0,0,0,0,0,0,0,0,0,0,0,0,0,0,0,0,0,0,0,0,0,0,0,0,0,0,0,0,0,0,0,0],"id":20,"left_children":[1,3,5,7,9,11,13,15,17,19,21,-1,-1,23,25,-1,27,29,31,-1,-1,-1,-1,33,35,37,39,-1,-1,-1,-1,41,43,-1,-1,45,47,49,51,53,55,-1,-1,-1,-1,-1,-1,-1,-1,-1,-1,-1,-1,-1,-1,-1,-1],"loss_changes":[1.9071669E2,3.163446E1,2.1319057E1,2.4055511E1,2.678785E0,9.301876E0,2.0396988E1,8.217957E0,1.1697952E1,3.225186E-1,4.4462025E-1,0E0,0E0,2.3768234E1,3.2283356E1,0E0,5.5545044E-1,3.0653003E-1,1.2902714E1,0E0,0E0,0E0,0E0,1.661499E0,1.8325996E1,1.9479671E1,2.5800224E1,0E0,0E0,0E0,0E0,2.4583435E0,7.000168E-2,0E0,0E0,1.4429436E1,9.710145E0,7.9453125E0,1.2497978E1,5.7254925E0,1.0761279E1,0E0,0E0,0E0,0E0,0E0,0E0,0E0,0E0,0E0,0E0,0E0,0E0,0E0,0E0,0E0,0E0],"parents":[2147483647,0,0,1,1,2,2,3,3,4,4,5,5,6,6,7,7,8,8,9,9,10,10,13,13,14,14,16,16,17,17,18,18,23,23,24,24,25,25,26,26,31,31,32,32,35,35,36,36,37,37,38,38,39,39,40,40],"right_children":[2,4,6,8,10,12,14,16,18,20,22,-1,-1,24,26,-1,28,30,32,-1,-1,-1,-1,34,36,38,40,-1,-1,-1,-1,42,44,-1,-1,46,48,50,52,54,56,-1,-1,-1,-1,-1,-1,-1,-1,-1,-1,-1,-1,-1,-1,-1,-1],"split_conditions":[2E0,2.7E1,3.5683142E2,9.9767345E-1,3.2E1,3.7E1,3.5821964E2,2.6E1,3.5798428E2,3.5365E2,3.5915E2,7.4269585E-2,-2.682147E-2,2E0,9.973098E-1,5.4179955E-2,3.5795E2,3.5054E2,3.9E1,2.5206567E-3,3.703747E-2,-3.410276E-2,2.2878647E-3,3.5666E2,5E0,3.2E1,3E1,2.1320426E-1,5.8666516E-2,9.496594E-3,-1.6535124E-2,3.5749E2,3.6022E2,3.3468248E-3,8.5840516E-2,3.3E1,1.1E1,2.2E1,3.5853607E2,1.1E1,2E1,5.182424E-2,1.3484888E-1,-1.8290043E-2,-9.980202E-4,-7.396219E-2,-1.9898672E-1,-8.795849E-2,8.981546E-3,4.4260178E-2,-5.87595E-2,-1.5736274E-2,-1.21237494E-1,-1.8482845E-2,-1.3887787E-1,7.1433387E-3,7.795794E-2],"split_indices":[6,5,14,19,11,10,15,10,14,0,0,0,0,5,19,0,17,0,11,0,0,0,0,0,6,10,10,0,0,0,0,0,0,0,0,10,5,5,15,5,5,0,0,0,0,0,0,0,0,0,0,0,0,0,0,0,0],"split_type":[0,0,0,0,0,0,0,0,0,0,0,0,0,0,0,0,0,0,0,0,0,0,0,0,0,0,0,0,0,0,0,0,0,0,0,0,0,0,0,0,0,0,0,0,0,0,0,0,0,0,0,0,0,0,0,0,0],"sum_hessian":[1.15E2,3.4E1,8.1E1,2.7E1,7E0,8E0,7.3E1,1.1E1,1.6E1,4E0,3E0,5E0,3E0,2.3E1,5E1,2E0,9E0,3E0,1.3E1,1E0,3E0,2E0,1E0,2E0,2.1E1,2.2E1,2.8E1,8E0,1E0,1E0,2E0,1.1E1,2E0,1E0,1E0,1.2E1,9E0,6E0,1.6E1,4E0,2.4E1,3E0,8E0,1E0,1E0,7E0,5E0,4E0,5E0,4E0,2E0,4E0,1.2E1,2E0,2E0,1.7E1,7E0],"tree_param":{"num_deleted":"0","num_feature":"20","num_nodes":"57","size_leaf_vector":"1"}},{"base_weights":[1.2056351E-1,-1.8099785E-1,3.2447453E0,7.358737E-1,-5.1205504E-1,3.956818E0,5.937157E-2,1.1745341E0,-1.0683035E0,1.1881937E-1,-6.207653E-1,3.6607172E-2,2.18612E-1,3.5172233E-1,2.4153833E0,1.0744095E-3,-1.2905594E0,-3.153834E-1,-1.6441048E0,-2.6401642E-1,8.1800155E-2,3.1995037E0,6.353569E-1,-7.411251E-2,-1.3094902E-2,1.2329128E-1,-1.0073651E0,-2.1246939E0,-6.575203E-2,4.8240624E-2,-5.5201735E-2,1.8070416E-1,2.816515E-2,4.053739E-2,2.7296066E-3,-3.3471886E-2,2.4221212E-2,-8.105957E-2,3.1363245E-2,-1.2450123E-2,-1.3312505E-1,2.9844602E-3,-8.463796E-3],"categories":[],"categories_nodes":[],"categories_segments":[],"categories_sizes":[],"default_left":[0,0,0,0,0,0,0,0,0,0,0,0,0,0,0,0,0,0,0,0,0,0,0,0,0,0,0,0,0,0,0,0,0,0,0,0,0,0,0,0,0,0,0],"id":21,"left_children":[1,3,5,7,9,11,-1,13,15,-1,17,-1,-1,19,21,-1,23,25,27,29,-1,31,33,-1,-1,35,37,39,41,-1,-1,-1,-1,-1,-1,-1,-1,-1,-1,-1,-1,-1,-1],"loss_changes":[1.0704826E2,3.1944653E1,9.951118E0,2.3414549E1,2.5653439E1,6.1761093E0,0E0,2.2633118E1,1.4810076E0,0E0,2.2919683E1,0E0,0E0,1.2293653E1,1.0528965E1,0E0,5.9772587E-1,1.8033936E1,1.2755466E1,1.2419812E1,0E0,4.5216637E0,3.631829E-1,0E0,0E0,1.0916673E1,2.4094624E1,1.2450912E1,7.503477E-2,0E0,0E0,0E0,0E0,0E0,0E0,0E0,0E0,0E0,0E0,0E0,0E0,0E0,0E0],"parents":[2147483647,0,0,1,1,2,2,3,3,4,4,5,5,7,7,8,8,10,10,13,13,14,14,16,16,17,17,18,18,19,19,21,21,22,22,25,25,26,26,27,27,28,28],"right_children":[2,4,6,8,10,12,-1,14,16,-1,18,-1,-1,20,22,-1,24,26,28,30,-1,32,34,-1,-1,36,38,40,42,-1,-1,-1,-1,-1,-1,-1,-1,-1,-1,-1,-1,-1,-1],"split_conditions":[1E0,3.5803607E2,1E0,3.9E1,2.6E1,3.5573572E2,5.937157E-2,3.4E1,3.4E1,1.1881937E-1,3.425E1,3.6607172E-2,2.18612E-1,1.0046147E0,3.5107143E1,1.0744095E-3,4E1,3.5973E2,3.7E1,3.5683142E2,8.1800155E-2,3.6289E2,3.631E2,-7.411251E-2,-1.3094902E-2,3.5553E2,3.6431E2,3.2E1,2E0,4.8240624E-2,-5.5201735E-2,1.8070416E-1,2.816515E-2,4.053739E-2,2.7296066E-3,-3.3471886E-2,2.4221212E-2,-8.105957E-2,3.1363245E-2,-1.2450123E-2,-1.3312505E-1,2.9844602E-3,-8.463796E-3],"split_indices":[18,15,7,10,9,14,0,11,9,0,13,0,0,19,13,0,9,0,10,14,0,0,0,0,0,0,0,10,3,0,0,0,0,0,0,0,0,0,0,0,0,0,0],"split_type":[0,0,0,0,0,0,0,0,0,0,0,0,0,0,0,0,0,0,0,0,0,0,0,0,0,0,0,0,0,0,0,0,0,0,0,0,0,0,0,0,0,0,0],"sum_hessian":[1.12E2,1.03E2,9E0,2.7E1,7.6E1,6E0,3E0,2.2E1,5E0,2E0,7.4E1,1E0,5E0,1.4E1,8E0,1E0,4E0,5.8E1,1.6E1,1E1,4E0,5E0,3E0,3E0,1E0,3.6E1,2.2E1,1.2E1,4E0,4E0,6E0,4E0,1E0,2E0,1E0,1.1E1,2.5E1,1.6E1,6E0,3E0,9E0,2E0,2E0],"tree_param":{"num_deleted":"0","num_feature":"20","num_nodes":"43","size_leaf_vector":"1"}},{"base_weights":[5.3904083E-2,1.8645602E0,-7.6375663E-1,1.4274912E0,2.188152E-1,-8.86351E-1,1.3014663E0,2.0156825E0,5.8728284E-1,9.268055E-2,-9.828449E-1,7.1557716E-2,1.9567871E-2,2.3542793E0,1.5737438E-1,-1.2704676E-2,1.7897987E0,-1.2798328E0,-2.860447E-1,2.1282515E-2,2.599394E0,3.8932037E-1,-1.346159E-2,2.1295814E-1,-5.673332E-2,-1.8590642E-2,1.2115774E-1,2.1197836E-1,-1.474787E0,1.4936697E0,-9.622645E-1,1.3881506E-1,5.126508E-2,3.2943727E-3,2.5904655E-2,3.028262E-2,-2.6374817E-2,-6.897869E-2,5.62257E-2,-8.3048455E-2,-8.680412E-3,9.056635E-2,-1.0306835E-2,2.109437E-2,-6.336104E-2],"categories":[],"categories_nodes":[],"categories_segments":[],"categories_sizes":[],"default_left":[0,0,0,0,0,0,0,0,0,0,0,0,0,0,0,0,0,0,0,0,0,0,0,0,0,0,0,0,0,0,0,0,0,0,0,0,0,0,0,0,0,0,0,0,0],"id":22,"left_children":[1,3,5,7,-1,9,11,13,15,-1,17,-1,-1,19,21,23,25,27,29,-1,31,33,-1,35,-1,-1,-1,37,39,41,43,-1,-1,-1,-1,-1,-1,-1,-1,-1,-1,-1,-1,-1,-1],"loss_changes":[1.7612335E2,3.4371674E1,2.1914696E1,1.5124931E1,0E0,2.2444199E1,3.0057907E-2,1.1584625E1,1.0845156E1,0E0,1.5361443E1,0E0,0E0,6.457329E0,5.006158E-1,3.0266721E0,7.7463093E0,1.5726868E1,3.0320784E1,0E0,1.0520096E0,9.081215E-2,0E0,3.2272015E0,0E0,0E0,0E0,1.1717787E1,1.1097679E1,4.1530704E0,8.132528E0,0E0,0E0,0E0,0E0,0E0,0E0,0E0,0E0,0E0,0E0,0E0,0E0,0E0,0E0],"parents":[2147483647,0,0,1,1,2,2,3,3,5,5,6,6,7,7,8,8,10,10,13,13,14,14,15,15,16,16,17,17,18,18,20,20,21,21,23,23,27,27,28,28,29,29,30,30],"right_children":[2,4,6,8,-1,10,12,14,16,-1,18,-1,-1,20,22,24,26,28,30,-1,32,34,-1,36,-1,-1,-1,38,40,42,44,-1,-1,-1,-1,-1,-1,-1,-1,-1,-1,-1,-1,-1,-1],"split_conditions":[2E0,1E0,1E0,3.9E1,2.188152E-1,3.5139E2,3.5916E2,2.7E1,3.5714287E1,9.268055E-2,3.7E1,7.1557716E-2,1.9567871E-2,3.5139E2,3.5625E2,3.6558E2,3.5316E2,2.9E1,3.5599E2,2.1282515E-2,3.6283E2,3.5365E2,-1.346159E-2,3.4E1,-5.673332E-2,-1.8590642E-2,1.2115774E-1,3.1E1,6E0,3.590114E2,4E0,1.3881506E-1,5.126508E-2,3.2943727E-3,2.5904655E-2,3.028262E-2,-2.6374817E-2,-6.897869E-2,5.62257E-2,-8.3048455E-2,-8.680412E-3,9.056635E-2,-1.0306835E-2,2.109437E-2,-6.336104E-2],"split_indices":[6,18,18,8,0,17,0,5,12,0,9,0,0,0,0,0,0,9,0,0,17,0,0,9,0,0,0,11,4,14,6,0,0,0,0,0,0,0,0,0,0,0,0,0,0],"split_type":[0,0,0,0,0,0,0,0,0,0,0,0,0,0,0,0,0,0,0,0,0,0,0,0,0,0,0,0,0,0,0,0,0,0,0,0,0,0,0,0,0,0,0,0,0],"sum_hessian":[1.17E2,3.6E1,8.1E1,3.2E1,4E0,7.7E1,4E0,1.8E1,1.4E1,2E0,7.5E1,3E0,1E0,1.5E1,3E0,1E1,4E0,5.2E1,2.3E1,2E0,1.3E1,2E0,1E0,9E0,1E0,1E0,3E0,6E0,4.6E1,6E0,1.7E1,1.1E1,2E0,1E0,1E0,6E0,3E0,2E0,4E0,4E1,6E0,5E0,1E0,3E0,1.4E1],"tree_param":{"num_deleted":"0","num_feature":"20","num_nodes":"45","size_leaf_vector":"1"}},{"base_weights":[7.015342E-2,1.7517204E0,-5.9546787E-1,1.2850745E0,2.1006261E-1,-7.42748E-1,1.4920591E0,1.405684E0,-5.5315018E-2,-2.1871886E-1,-1.301479E0,9.028359E-2,2.8827796E-2,1.7014937E0,-1.1835734E-2,-6.195394E-3,-1.52515E-1,-2.5619433E0,-8.9355457E-1,1.1713437E0,2.615376E0,-3.249817E-2,4.6971893E-1,8.959115E-2,-1.4434566E-1,-2.9727461E0,1.8111993E-2,-2.0083296E-1,-1.530429E0,7.863966E-2,-2.6328279E-2,1.6733356E-1,7.536324E-2,2.8981209E-2,3.5000802E-3,3.6881212E-2,-2.8182585E-2,-1.7698948E-1,-4.23872E-2,1.010042E-2,-1.00690745E-1,-9.588324E-2,3.934072E-2],"categories":[],"categories_nodes":[],"categories_segments":[],"categories_sizes":[],"default_left":[0,0,0,0,0,0,0,0,0,0,0,0,0,0,0,0,0,0,0,0,0,0,0,0,0,0,0,0,0,0,0,0,0,0,0,0,0,0,0,0,0,0,0],"id":23,"left_children":[1,3,5,7,-1,9,11,13,-1,15,17,-1,-1,19,21,23,-1,25,27,29,31,-1,33,-1,35,37,-1,39,41,-1,-1,-1,-1,-1,-1,-1,-1,-1,-1,-1,-1,-1,-1],"loss_changes":[1.3423822E2,3.3465256E1,2.7549034E1,1.0207787E1,0E0,2.3431442E1,6.8160915E-1,1.2180302E1,0E0,2.585753E1,1.776355E1,0E0,0E0,8.564369E0,2.1490602E0,1.0442907E1,0E0,1.188821E1,1.3369118E1,1.24158E1,1.4385338E0,0E0,1.3514942E-1,0E0,1.4838559E1,6.638916E0,0E0,1.2092313E1,1.5865959E1,0E0,0E0,0E0,0E0,0E0,0E0,0E0,0E0,0E0,0E0,0E0,0E0,0E0,0E0],"parents":[2147483647,0,0,1,1,2,2,3,3,5,5,6,6,7,7,9,9,10,10,13,13,14,14,15,15,17,17,18,18,19,19,20,20,22,22,24,24,25,25,27,27,28,28],"right_children":[2,4,6,8,-1,10,12,14,-1,16,18,-1,-1,20,22,24,-1,26,28,30,32,-1,34,-1,36,38,-1,40,42,-1,-1,-1,-1,-1,-1,-1,-1,-1,-1,-1,-1,-1,-1],"split_conditions":[2E0,1E0,1E0,3.6663E2,2.1006261E-1,3.5865714E2,3.5828537E2,2.7E1,-5.5315018E-2,3.557143E1,3.5821964E2,9.028359E-2,2.8827796E-2,3.6022E2,3.5597E2,3.5139E2,-1.52515E-1,6E0,3.4E1,3.6E1,3.6289E2,-3.249817E-2,3.592E2,8.959115E-2,3.5599E2,2.9E1,1.8111993E-2,3.6114E2,3.6284E2,7.863966E-2,-2.6328279E-2,1.6733356E-1,7.536324E-2,2.8981209E-2,3.5000802E-3,3.6881212E-2,-2.8182585E-2,-1.7698948E-1,-4.23872E-2,1.010042E-2,-1.00690745E-1,-9.588324E-2,3.934072E-2],"split_indices":[6,18,18,0,0,14,15,5,0,13,15,0,0,0,17,17,0,6,10,9,0,0,0,0,0,5,0,0,0,0,0,0,0,0,0,0,0,0,0,0,0,0,0],"split_type":[0,0,0,0,0,0,0,0,0,0,0,0,0,0,0,0,0,0,0,0,0,0,0,0,0,0,0,0,0,0,0,0,0,0,0,0,0,0,0,0,0,0,0],"sum_hessian":[1.18E2,3.3E1,8.5E1,2.9E1,4E0,8E1,5E0,2.8E1,1E0,4.2E1,3.8E1,3E0,2E0,2.3E1,5E0,4E1,2E0,8E0,3E1,1.6E1,7E0,2E0,3E0,2E0,3.8E1,7E0,1E0,1.5E1,1.5E1,1.3E1,3E0,3E0,4E0,2E0,1E0,1.2E1,2.6E1,5E0,2E0,1.3E1,2E0,1.3E1,2E0],"tree_param":{"num_deleted":"0","num_feature":"20","num_nodes":"43","size_leaf_vector":"1"}},{"base_weights":[-5.50744E-2,-2.0316508E-1,2.3222444E0,5.625856E-1,-3.9659953E-1,1.8357946E-2,2.5868988E0,1.0617023E0,-1.0285288E0,-2.3467708E-1,-1.3376267E0,1.425555E-1,3.164606E-2,1.11968614E-1,1.9989951E0,-7.381439E-2,-8.867391E-2,1.4964502E-1,-8.221862E-1,3.343048E-1,-1.6720055E0,-6.022091E-1,9.4658816E-1,1.4282726E-1,7.416458E-1,-1.0478878E-2,3.8283349E-3,-1.21410705E-1,2.5615722E-1,-1.2784971E0,4.3529573E-1,2.0126535E-2,4.9463273E-3,-2.044424E0,2.5850933E-3,2.6049424E-2,-4.6552315E-2,4.716206E-3,5.6803655E-2,4.387789E-2,4.949951E-3,4.1046582E-2,-7.820078E-3,-8.374569E-2,2.4179269E-2,-4.005709E-2,4.515062E-2,-1.35006E-1,-4.8992176E-2,-5.8249473E-3,6.0188295E-3],"categories":[],"categories_nodes":[],"categories_segments":[],"categories_sizes":[],"default_left":[0,0,0,0,0,0,0,0,0,0,0,0,0,0,0,0,0,0,0,0,0,0,0,0,0,0,0,0,0,0,0,0,0,0,0,0,0,0,0,0,0,0,0,0,0,0,0,0,0,0,0],"id":24,"left_children":[1,3,5,7,9,-1,11,13,15,17,19,-1,-1,21,23,-1,25,27,29,31,33,35,37,-1,39,-1,-1,-1,41,43,45,-1,-1,47,49,-1,-1,-1,-1,-1,-1,-1,-1,-1,-1,-1,-1,-1,-1,-1,-1],"loss_changes":[4.2014732E1,1.6812849E1,2.6721497E0,1.9357483E1,1.3399696E1,0E0,1.2930489E0,1.5799387E1,2.3940625E0,1.7734869E1,7.826723E0,0E0,0E0,6.5307107E0,7.585617E0,0E0,7.598124E-2,1.3801529E1,1.8344408E1,8.355677E-3,6.8654175E0,2.7011595E0,7.0029736E-1,0E0,3.4983945E-1,0E0,0E0,0E0,1.1079519E1,1.6875893E1,5.9281626E0,0E0,0E0,3.636673E0,5.6105003E-2,0E0,0E0,0E0,0E0,0E0,0E0,0E0,0E0,0E0,0E0,0E0,0E0,0E0,0E0,0E0,0E0],"parents":[2147483647,0,0,1,1,2,2,3,3,4,4,6,6,7,7,8,8,9,9,10,10,13,13,14,14,16,16,17,17,18,18,19,19,20,20,21,21,22,22,24,24,28,28,29,29,30,30,33,33,34,34],"right_children":[2,4,6,8,10,-1,12,14,16,18,20,-1,-1,22,24,-1,26,28,30,32,34,36,38,-1,40,-1,-1,-1,42,44,46,-1,-1,48,50,-1,-1,-1,-1,-1,-1,-1,-1,-1,-1,-1,-1,-1,-1,-1,-1],"split_conditions":[1E0,3.5796143E2,3.3E1,3.9E1,3.557143E1,1.8357946E-2,3.6285713E1,3.5972E2,3.8E1,3.590114E2,3.1E1,1.425555E-1,3.164606E-2,3.5932E2,3.6289E2,-7.381439E-2,3.6064E2,2.5E1,1.9E1,3.562E2,3.7E1,3.5271E2,3.5054E2,1.4282726E-1,1.3E1,-1.0478878E-2,3.8283349E-3,-1.21410705E-1,3.5708E2,3.8E1,3.5837143E2,2.0126535E-2,4.9463273E-3,3.4E1,3.5973E2,2.6049424E-2,-4.6552315E-2,4.716206E-3,5.6803655E-2,4.387789E-2,4.949951E-3,4.1046582E-2,-7.820078E-3,-8.374569E-2,2.4179269E-2,-4.005709E-2,4.515062E-2,-1.35006E-1,-4.8992176E-2,-5.8249473E-3,6.0188295E-3],"split_indices":[18,15,8,10,12,0,12,0,8,14,11,0,0,17,0,0,0,8,5,0,10,0,0,0,5,0,0,0,0,8,15,0,0,11,0,0,0,0,0,0,0,0,0,0,0,0,0,0,0,0,0],"split_type":[0,0,0,0,0,0,0,0,0,0,0,0,0,0,0,0,0,0,0,0,0,0,0,0,0,0,0,0,0,0,0,0,0,0,0,0,0,0,0,0,0,0,0,0,0,0,0,0,0,0,0],"sum_hessian":[1.17E2,1.11E2,6E0,2.2E1,8.9E1,1E0,5E0,1.7E1,5E0,7.7E1,1.2E1,4E0,1E0,9E0,8E0,3E0,2E0,4.7E1,3E1,2E0,1E1,5E0,4E0,4E0,4E0,1E0,1E0,1E0,4.6E1,2.2E1,8E0,1E0,1E0,8E0,2E0,1E0,4E0,1E0,3E0,3E0,1E0,1.9E1,2.7E1,1.8E1,4E0,2E0,6E0,4E0,4E0,1E0,1E0],"tree_param":{"num_deleted":"0","num_feature":"20","num_nodes":"51","size_leaf_vector":"1"}},{"base_weights":[-4.9070857E-2,-2.4641731E-1,3.0309055E0,1.0938873E-1,-3.359489E-1,3.4167297E0,1.7899036E-2,8.1287247E-1,-5.0527745E-1,1.9705239E-1,1.9878482E-2,1.7036192E0,-6.587264E-1,-1.557086E-1,-4.4307017E-1,3.663354E-2,2.0669816E0,-1.6297674E-2,-4.4142406E-2,-3.4532663E-1,-1.7865067E0,2.079134E-2,1.1570237E-1,-3.2492474E-2,1.970625E-2,-1.06902815E-1,-7.189751E-4],"categories":[],"categories_nodes":[],"categories_segments":[],"categories_sizes":[],"default_left":[0,0,0,0,0,0,0,0,0,0,0,0,0,0,0,0,0,0,0,0,0,0,0,0,0,0,0],"id":25,"left_children":[1,3,5,-1,7,9,-1,11,13,-1,-1,15,17,-1,19,-1,21,-1,-1,23,25,-1,-1,-1,-1,-1,-1],"loss_changes":[7.0646454E1,2.4490128E1,5.995819E0,0E0,2.1030714E1,7.9311676E0,0E0,1.9473726E1,1.3713375E1,0E0,0E0,1.6608372E0,1.5972257E-1,0E0,1.14638E1,0E0,1.4854183E0,0E0,0E0,1.9846773E1,3.7071972E0,0E0,0E0,0E0,0E0,0E0,0E0],"parents":[2147483647,0,0,1,1,2,2,4,4,5,5,7,7,8,8,11,11,12,12,14,14,16,16,19,19,20,20],"right_children":[2,4,6,-1,8,10,-1,12,14,-1,-1,16,18,-1,20,-1,22,-1,-1,24,26,-1,-1,-1,-1,-1,-1],"split_conditions":[1E0,2.6E1,1E0,1.0938873E-1,3.5692E2,3.6E1,1.7899036E-2,3.7E1,3.5772107E2,1.9705239E-1,1.9878482E-2,3.1E1,1E1,-1.557086E-1,1.0212038E0,3.663354E-2,2.8E1,-1.6297674E-2,-4.4142406E-2,3.6022E2,5E0,2.079134E-2,1.1570237E-1,-3.2492474E-2,1.970625E-2,-1.06902815E-1,-7.189751E-4],"split_indices":[18,9,1,0,14,9,0,10,15,0,0,9,5,0,19,0,10,0,0,17,4,0,0,0,0,0,0],"split_type":[0,0,0,0,0,0,0,0,0,0,0,0,0,0,0,0,0,0,0,0,0,0,0,0,0,0,0],"sum_hessian":[1.14E2,1.08E2,6E0,3E0,1.05E2,5E0,1E0,1.3E1,9.2E1,4E0,1E0,8E0,5E0,1E0,9.1E1,3E0,5E0,3E0,2E0,8.6E1,5E0,1E0,4E0,6.1E1,2.5E1,4E0,1E0],"tree_param":{"num_deleted":"0","num_feature":"20","num_nodes":"27","size_leaf_vector":"1"}},{"base_weights":[1.3813812E-1,1.6595303E0,-5.156811E-1,1.2337846E0,1.898475E-1,-4.1455173E-1,-1.436011E-1,1.3489121E0,-4.9744703E-2,-3.1366223E-1,-1.0634623E-1,1.5648133E0,4.2803954E-2,-8.4791434E-1,1.3493729E-1,1.661978E0,-1.6749382E-2,-1.130476E-2,1.6655254E-1,-5.5908513E-1,-2.8021545E0,5.7157105E-1,-6.308904E-1,8.8293016E-2,-1.5585804E-2,1.3895512E-2,1.8398286E-3,2.411039E-2,-5.9365917E-2,-1.7629665E-1,-1.5770484E-2,1.0651636E-2,7.571567E-2,-1.1937799E-1,-8.848756E-3],"categories":[],"categories_nodes":[],"categories_segments":[],"categories_sizes":[],"default_left":[0,0,0,0,0,0,0,0,0,0,0,0,0,0,0,0,0,0,0,0,0,0,0,0,0,0,0,0,0,0,0,0,0,0,0],"id":26,"left_children":[1,3,5,7,-1,9,-1,11,-1,13,-1,15,17,19,21,23,-1,-1,25,27,29,31,33,-1,-1,-1,-1,-1,-1,-1,-1,-1,-1,-1,-1],"loss_changes":[1.0927977E2,2.5345291E1,1.7158134E1,8.782917E0,0E0,1.2289894E1,0E0,7.828747E0,0E0,1.7370312E1,0E0,4.986992E0,2.0403619E-1,1.7059927E1,1.3736048E1,5.266178E0,0E0,0E0,4.757116E-2,2.0197777E1,6.0872993E0,8.465643E0,1.1538149E1,0E0,0E0,0E0,0E0,0E0,0E0,0E0,0E0,0E0,0E0,0E0,0E0],"parents":[2147483647,0,0,1,1,2,2,3,3,5,5,7,7,9,9,11,11,12,12,13,13,14,14,15,15,18,18,19,19,20,20,21,21,22,22],"right_children":[2,4,6,8,-1,10,-1,12,-1,14,-1,16,18,20,22,24,-1,-1,26,28,30,32,34,-1,-1,-1,-1,-1,-1,-1,-1,-1,-1,-1,-1],"split_conditions":[2E0,1E0,3.5535713E1,3.6663E2,1.898475E-1,1.0212038E0,-1.436011E-1,2.9E1,-4.9744703E-2,9.971888E-1,-1.0634623E-1,3.9E1,3E1,9.9575675E-1,3.5916E2,4E1,-1.6749382E-2,-1.130476E-2,2E0,3.2E1,3.564E2,3.4607143E1,3E1,8.8293016E-2,-1.5585804E-2,1.3895512E-2,1.8398286E-3,2.411039E-2,-5.9365917E-2,-1.7629665E-1,-1.5770484E-2,1.0651636E-2,7.571567E-2,-1.1937799E-1,-8.848756E-3],"split_indices":[6,18,13,0,0,19,0,5,0,19,0,9,10,19,0,11,0,0,3,8,0,13,8,0,0,0,0,0,0,0,0,0,0,0,0],"split_type":[0,0,0,0,0,0,0,0,0,0,0,0,0,0,0,0,0,0,0,0,0,0,0,0,0,0,0,0,0,0,0,0,0,0,0],"sum_hessian":[1.08E2,3.2E1,7.6E1,2.8E1,4E0,7.4E1,2E0,2.7E1,1E0,7.1E1,3E0,2.3E1,4E0,3.2E1,3.9E1,2.2E1,1E0,1E0,3E0,2.9E1,3E0,2.5E1,1.4E1,2.1E1,1E0,1E0,2E0,1.1E1,1.8E1,2E0,1E0,1.9E1,6E0,2E0,1.2E1],"tree_param":{"num_deleted":"0","num_feature":"20","num_nodes":"35","size_leaf_vector":"1"}},{"base_weights":[2.5953922E-2,1.687892E0,-5.8563197E-1,1.3341522E0,1.915266E-1,9.0666664E-1,-7.482276E-1,2.0138004E0,7.359417E-1,6.676159E-2,-1.9777043E-2,-3.8617432E-1,-1.359141E0,2.1085498E0,2.1920204E-2,-1.9255956E-1,1.5826716E0,-5.7330775E-1,8.71994E-1,-5.713862E-1,-1.9634801E0,1.18887566E-1,4.8785448E-2,2.7076388E-2,-3.249289E-2,-1.0734304E-2,2.1268718E0,-9.512716E-1,3.3156013E-1,1.104805E0,-1.3121796E-2,4.337907E-2,-1.1923485E0,-1.65516E-1,-8.2434404E-1,1.1365398E-1,3.1240655E-2,-1.4050933E-2,-9.546276E-2,4.377325E-2,-2.6977858E-2,7.2377205E-2,2.8577471E-2,3.7000895E-2,-2.6130391E-2,-7.751942E-2,2.3897266E-2,-1.5196936E-2,-7.644837E-2],"categories":[],"categories_nodes":[],"categories_segments":[],"categories_sizes":[],"default_left":[0,0,0,0,0,0,0,0,0,0,0,0,0,0,0,0,0,0,0,0,0,0,0,0,0,0,0,0,0,0,0,0,0,0,0,0,0,0,0,0,0,0,0,0,0,0,0,0,0],"id":27,"left_children":[1,3,5,7,-1,9,11,13,15,-1,-1,17,19,21,-1,23,25,27,29,31,33,-1,-1,-1,-1,-1,35,37,39,41,-1,43,45,-1,47,-1,-1,-1,-1,-1,-1,-1,-1,-1,-1,-1,-1,-1,-1],"loss_changes":[1.2092579E2,1.914347E1,2.1788181E1,1.0308571E1,0E0,5.550865E0,1.6948605E1,1.0160866E0,1.3669988E1,0E0,0E0,1.2507635E1,1.2684151E1,1.3395538E0,0E0,3.3731878E0,9.25971E0,1.5705733E1,2.1386948E0,5.3961673E0,2.1818901E1,0E0,0E0,0E0,0E0,0E0,1.1703682E-1,2.001039E1,7.1056323E0,2.692623E-1,0E0,3.5410466E0,4.9272223E0,0E0,3.2021842E0,0E0,0E0,0E0,0E0,0E0,0E0,0E0,0E0,0E0,0E0,0E0,0E0,0E0,0E0],"parents":[2147483647,0,0,1,1,2,2,3,3,5,5,6,6,7,7,8,8,11,11,12,12,13,13,15,15,16,16,17,17,18,18,19,19,20,20,26,26,27,27,28,28,29,29,31,31,32,32,34,34],"right_children":[2,4,6,8,-1,10,12,14,16,-1,-1,18,20,22,-1,24,26,28,30,32,34,-1,-1,-1,-1,-1,36,38,40,42,-1,44,46,-1,48,-1,-1,-1,-1,-1,-1,-1,-1,-1,-1,-1,-1,-1,-1],"split_conditions":[2E0,1E0,3.5683142E2,3.6E1,1.915266E-1,3.7E1,3.5982E2,2.7E1,3.6022E2,6.676159E-2,-1.9777043E-2,3.6012857E2,1.2E1,3.582E2,2.1920204E-2,3.3E1,9E0,3.7E1,3.5802E2,3.4E1,3.3E1,1.18887566E-1,4.8785448E-2,2.7076388E-2,-3.249289E-2,-1.0734304E-2,4.3E1,3.4142857E1,6E0,3.5651E2,-1.3121796E-2,3.5737E2,3.6414E2,-1.65516E-1,3.6E1,1.1365398E-1,3.1240655E-2,-1.4050933E-2,-9.546276E-2,4.377325E-2,-2.6977858E-2,7.2377205E-2,2.8577471E-2,3.7000895E-2,-2.6130391E-2,-7.751942E-2,2.3897266E-2,-1.5196936E-2,-7.644837E-2],"split_indices":[6,18,14,8,0,10,0,5,0,0,0,14,5,17,0,9,5,9,0,9,9,0,0,0,0,0,8,12,6,0,0,17,0,0,8,0,0,0,0,0,0,0,0,0,0,0,0,0,0],"split_type":[0,0,0,0,0,0,0,0,0,0,0,0,0,0,0,0,0,0,0,0,0,0,0,0,0,0,0,0,0,0,0,0,0,0,0,0,0,0,0,0,0,0,0,0,0,0,0,0,0],"sum_hessian":[1.17E2,3.1E1,8.6E1,2.8E1,3E0,8E0,7.8E1,1.2E1,1.6E1,6E0,2E0,5E1,2.8E1,1.1E1,1E0,8E0,8E0,4.4E1,6E0,1.3E1,1.5E1,8E0,3E0,3E0,5E0,2E0,6E0,3.1E1,1.3E1,5E0,1E0,7E0,6E0,6E0,9E0,5E0,1E0,1.9E1,1.2E1,8E0,5E0,2E0,3E0,3E0,4E0,5E0,1E0,6E0,3E0],"tree_param":{"num_deleted":"0","num_feature":"20","num_nodes":"49","size_leaf_vector":"1"}},{"base_weights":[9.5994405E-2,1.8671323E-1,-1.5983028E0,-1.00457415E-1,7.1945024E-1,-9.624348E-2,8.63266E-4,7.2985417E-1,-5.7530755E-1,1.7014031E-1,1.4203137E0,1.2659227E0,-1.3573729E0,1.4877068E0,-8.0181366E-1,5.7938284E-1,-1.4190094E0,1.9360517E0,7.46763E-1,2.0100875E0,1.719162E-1,-7.735844E-2,-1.0209846E-2,9.1473155E-2,3.0170442E-3,-1.0392366E-1,-1.9730078E0,1.9715282E-1,1.3746891E0,-2.3503369E-2,-9.474742E-2,2.2235274E0,-9.093857E-3,3.269648E-1,7.3868565E-2,1.05408825E-1,2.0825481E-2,2.7802015E-2,-4.5486007E-2,1.3652875E-2,-5.4025438E-2,-1.1857589E-1,2.7218757E-2,5.5069238E-2,-1.3733921E-2,9.227409E-2,1.4436786E-2,1.8876648E-2,1.2166538E-1,2.907955E-2,-1.0320028E-2],"categories":[],"categories_nodes":[],"categories_segments":[],"categories_sizes":[],"default_left":[0,0,0,0,0,0,0,0,0,0,0,0,0,0,0,0,0,0,0,0,0,0,0,0,0,0,0,0,0,0,0,0,0,0,0,0,0,0,0,0,0,0,0,0,0,0,0,0,0,0,0],"id":28,"left_children":[1,3,5,7,9,-1,-1,11,13,15,17,19,21,23,25,27,29,31,33,35,37,-1,-1,-1,-1,39,41,43,45,-1,-1,47,-1,49,-1,-1,-1,-1,-1,-1,-1,-1,-1,-1,-1,-1,-1,-1,-1,-1,-1],"loss_changes":[1.8128162E1,1.7053768E1,3.198779E0,2.9201859E1,1.4773006E1,0E0,0E0,3.1928545E1,2.3155277E1,1.5780145E1,4.459614E0,1.7565098E1,9.972811E-1,2.3286648E0,3.494164E1,5.5047846E0,1.3674393E0,5.8840866E0,2.2773237E0,1.1539879E0,4.660667E0,0E0,0E0,0E0,0E0,1.0603357E1,1.7342232E1,6.2755547E0,2.5346985E0,0E0,0E0,2.1793709E0,0E0,1.0707023E0,0E0,0E0,0E0,0E0,0E0,0E0,0E0,0E0,0E0,0E0,0E0,0E0,0E0,0E0,0E0,0E0,0E0],"parents":[2147483647,0,0,1,1,2,2,3,3,4,4,7,7,8,8,9,9,10,10,11,11,12,12,13,13,14,14,15,15,16,16,17,17,18,18,19,19,20,20,25,25,26,26,27,27,28,28,31,31,33,33],"right_children":[2,4,6,8,10,-1,-1,12,14,16,18,20,22,24,26,28,30,32,34,36,38,-1,-1,-1,-1,40,42,44,46,-1,-1,48,-1,50,-1,-1,-1,-1,-1,-1,-1,-1,-1,-1,-1,-1,-1,-1,-1,-1,-1],"split_conditions":[1.0212038E0,3.5982E2,5E0,3.3E1,3.6E1,-9.624348E-2,8.63266E-4,2.2E1,3.5406E2,3.5973E2,1.3E1,9.9771005E-1,3.5825E2,2.7E1,3.4142857E1,3.45E1,5E0,3.9E1,3.6038E2,1E0,4E1,-7.735844E-2,-1.0209846E-2,9.1473155E-2,3.0170442E-3,3.5891037E2,5E0,2.9E1,3.5877E2,-2.3503369E-2,-9.474742E-2,3.5139E2,-9.093857E-3,3.5742E2,7.3868565E-2,1.05408825E-1,2.0825481E-2,2.7802015E-2,-4.5486007E-2,1.3652875E-2,-5.4025438E-2,-1.1857589E-1,2.7218757E-2,5.5069238E-2,-1.3733921E-2,9.227409E-2,1.4436786E-2,1.8876648E-2,1.2166538E-1,2.907955E-2,-1.0320028E-2],"split_indices":[19,17,4,10,8,0,0,5,0,0,5,19,0,5,13,13,4,9,0,1,8,0,0,0,0,15,4,8,0,0,0,0,0,0,0,0,0,0,0,0,0,0,0,0,0,0,0,0,0,0,0],"split_type":[0,0,0,0,0,0,0,0,0,0,0,0,0,0,0,0,0,0,0,0,0,0,0,0,0,0,0,0,0,0,0,0,0,0,0,0,0,0,0,0,0,0,0,0,0,0,0,0,0,0,0],"sum_hessian":[1.15E2,1.1E2,5E0,7.2E1,3.8E1,4E0,1E0,2.6E1,4.6E1,2.2E1,1.6E1,2.1E1,5E0,4E0,4.2E1,1.8E1,4E0,8E0,8E0,1.2E1,9E0,4E0,1E0,3E0,1E0,2.7E1,1.5E1,1.3E1,5E0,2E0,2E0,7E0,1E0,6E0,2E0,1.1E1,1E0,7E0,2E0,2E1,7E0,1.3E1,2E0,4E0,9E0,3E0,2E0,1E0,6E0,4E0,2E0],"tree_param":{"num_deleted":"0","num_feature":"20","num_nodes":"51","size_leaf_vector":"1"}},{"base_weights":[2.3449518E-2,1.3720046E0,-5.726963E-1,1.0235022E0,1.73371E-1,-7.011142E-1,1.256394E0,1.392422E0,-3.4953976E-1,-3.9441866E-1,-1.2093494E0,1.5001497E0,2.5629425E-2,1.6252176E0,3.067678E-1,-5.629763E-1,2.86129E-2,4.3396452E-1,-6.537827E-1,-1.6569687E0,4.9810955E-1,8.533948E-2,2.200575E-2,1.0513939E0,2.10346E0,2.7625894E-2,-1.2315496E-1,2.3527814E-2,-8.1365776E-1,9.5294976E-1,-3.3034325E-1,-8.7497956E-1,7.454961E-1,-1.7453972E0,9.422207E-3,-1.7151643E-2,9.031731E-1,-2.3746968E-3,7.114834E-2,2.3098184E-2,1.2084539E-1,7.180214E-4,-9.954643E-3,-5.6459934E-2,-1.867938E-2,-3.10078E-2,7.903388E-2,-5.008729E-2,1.2789726E-2,1.2470288E-2,-6.08684E-2,2.8597514E-4,5.5697728E-2,-6.9038115E-2,-1.5661111E-1,5.712783E-2,1.8136596E-2],"categories":[],"categories_nodes":[],"categories_segments":[],"categories_sizes":[],"default_left":[0,0,0,0,0,0,0,0,0,0,0,0,0,0,0,0,0,0,0,0,0,0,0,0,0,0,0,0,0,0,0,0,0,0,0,0,0,0,0,0,0,0,0,0,0,0,0,0,0,0,0,0,0,0,0,0,0],"id":29,"left_children":[1,3,5,7,-1,9,11,13,15,17,19,21,-1,23,25,27,-1,29,31,33,35,-1,-1,37,39,-1,41,-1,43,45,47,49,51,53,-1,-1,55,-1,-1,-1,-1,-1,-1,-1,-1,-1,-1,-1,-1,-1,-1,-1,-1,-1,-1,-1,-1],"loss_changes":[9.9669815E1,2.4200874E1,2.1081234E1,1.7709148E1,0E0,1.2148762E1,3.1888103E-1,6.3252945E0,1.8961303E0,1.1456064E1,2.3754105E1,1.2499809E-1,0E0,3.8258247E0,7.019667E-1,2.1964839E0,0E0,5.4714384E0,1.3032938E1,4.245392E0,2.6948307E0,0E0,0E0,4.9673862E0,4.543236E0,0E0,3.4186948E-2,0E0,4.113059E-1,8.880127E0,2.6174479E0,1.3777798E1,1.6290901E0,7.3059006E0,0E0,0E0,2.324214E-1,0E0,0E0,0E0,0E0,0E0,0E0,0E0,0E0,0E0,0E0,0E0,0E0,0E0,0E0,0E0,0E0,0E0,0E0,0E0,0E0],"parents":[2147483647,0,0,1,1,2,2,3,3,5,5,6,6,7,7,8,8,9,9,10,10,11,11,13,13,14,14,15,15,17,17,18,18,19,19,20,20,23,23,24,24,26,26,28,28,29,29,30,30,31,31,32,32,33,33,36,36],"right_children":[2,4,6,8,-1,10,12,14,16,18,20,22,-1,24,26,28,-1,30,32,34,36,-1,-1,38,40,-1,42,-1,44,46,48,50,52,54,-1,-1,56,-1,-1,-1,-1,-1,-1,-1,-1,-1,-1,-1,-1,-1,-1,-1,-1,-1,-1,-1,-1],"split_conditions":[2E0,1E0,1E0,4E1,1.73371E-1,3.5973E2,3.5828537E2,2.4E1,4.3E1,3.5799857E2,3.6431E2,3.5853E2,2.5629425E-2,3.582E2,3E1,2.6E1,2.86129E-2,3.9E1,3.8E1,4.3E1,5E0,8.533948E-2,2.200575E-2,3.242857E1,2.9E1,2.7625894E-2,3.5365E2,2.3527814E-2,3.3892857E1,3.5606E2,5E0,3.5599E2,3.583125E2,3.5107143E1,9.422207E-3,-1.7151643E-2,3.6656E2,-2.3746968E-3,7.114834E-2,2.3098184E-2,1.2084539E-1,7.180214E-4,-9.954643E-3,-5.6459934E-2,-1.867938E-2,-3.10078E-2,7.903388E-2,-5.008729E-2,1.2789726E-2,1.2470288E-2,-6.08684E-2,2.8597514E-4,5.5697728E-2,-6.9038115E-2,-1.5661111E-1,5.712783E-2,1.8136596E-2],"split_indices":[6,18,18,8,0,0,15,5,8,14,0,0,0,0,5,10,0,10,10,10,5,0,0,12,10,0,0,0,13,17,5,17,15,13,0,0,0,0,0,0,0,0,0,0,0,0,0,0,0,0,0,0,0,0,0,0,0],"split_type":[0,0,0,0,0,0,0,0,0,0,0,0,0,0,0,0,0,0,0,0,0,0,0,0,0,0,0,0,0,0,0,0,0,0,0,0,0,0,0,0,0,0,0,0,0,0,0,0,0,0,0,0,0,0,0,0,0],"sum_hessian":[1.22E2,3.7E1,8.5E1,3.3E1,4E0,8E1,5E0,2.6E1,7E0,5.1E1,2.9E1,3E0,2E0,2.1E1,5E0,6E0,1E0,1.2E1,3.9E1,2.3E1,6E0,2E0,1E0,1.1E1,1E1,3E0,2E0,1E0,5E0,7E0,5E0,3.4E1,5E0,2.2E1,1E0,2E0,4E0,3E0,8E0,2E0,8E0,1E0,1E0,2E0,3E0,2E0,5E0,2E0,3E0,8E0,2.6E1,2E0,3E0,1.9E1,3E0,2E0,2E0],"tree_param":{"num_deleted":"0","num_feature":"20","num_nodes":"57","size_leaf_vector":"1"}},{"base_weights":[-2.1645099E-2,-2.2645831E-1,2.3702474E0,1.0834572E0,-3.7574896E-1,1.954513E-1,1.372164E0,1.7772098E0,-5.749121E-1,9.274025E-2,-4.6864533E-1,1.623729E0,2.477506E-2,2.956481E-2,1.1852493E-1,-1.1042532E-2,-4.092741E-2,9.73793E-1,-5.627371E-1,2.1455575E-2,9.075528E-2,1.0814667E-3,5.7995E-2,-1.1244062E0,-1.9867258E-1,-9.737129E-3,-8.827168E-2,-2.7310416E-2,1.658308E-2],"categories":[],"categories_nodes":[],"categories_segments":[],"categories_sizes":[],"default_left":[0,0,0,0,0,0,0,0,0,0,0,0,0,0,0,0,0,0,0,0,0,0,0,0,0,0,0,0,0],"id":30,"left_children":[1,3,5,7,9,-1,11,13,15,-1,17,19,-1,-1,-1,-1,-1,21,23,-1,-1,-1,-1,25,27,-1,-1,-1,-1],"loss_changes":[5.5894463E1,2.0940712E1,8.458641E0,1.3677217E1,2.0554234E1,0E0,7.3920345E-1,4.227049E0,1.6427183E-1,0E0,1.3034374E1,3.6422634E-1,0E0,0E0,0E0,0E0,0E0,1.0381365E0,1.7566704E1,0E0,0E0,0E0,0E0,1.9918148E1,1.01339E1,0E0,0E0,0E0,0E0],"parents":[2147483647,0,0,1,1,2,2,3,3,4,4,6,6,7,7,8,8,10,10,11,11,17,17,18,18,23,23,24,24],"right_children":[2,4,6,8,10,-1,12,14,16,-1,18,20,-1,-1,-1,-1,-1,22,24,-1,-1,-1,-1,26,28,-1,-1,-1,-1],"split_conditions":[1E0,3.5692E2,3.5598E2,3.7E1,2.6E1,1.954513E-1,3.6E1,3.1E1,3.6064E2,9.274025E-2,3.5312E2,3.4E1,2.477506E-2,2.956481E-2,1.1852493E-1,-1.1042532E-2,-4.092741E-2,7E0,3.3E1,2.1455575E-2,9.075528E-2,1.0814667E-3,5.7995E-2,3.2E1,3.5982E2,-9.737129E-3,-8.827168E-2,-2.7310416E-2,1.658308E-2],"split_indices":[18,14,0,10,9,0,11,9,0,0,0,8,0,0,0,0,0,5,8,0,0,0,0,10,17,0,0,0,0],"split_type":[0,0,0,0,0,0,0,0,0,0,0,0,0,0,0,0,0,0,0,0,0,0,0,0,0,0,0,0,0],"sum_hessian":[1.12E2,1.04E2,8E0,1E1,9.4E1,2E0,6E0,7E0,3E0,3E0,9.1E1,4E0,2E0,3E0,4E0,2E0,1E0,5E0,8.6E1,1E0,3E0,1E0,4E0,3.3E1,5.3E1,1.4E1,1.9E1,3.2E1,2.1E1],"tree_param":{"num_deleted":"0","num_feature":"20","num_nodes":"29","size_leaf_vector":"1"}},{"base_weights":[8.063149E-2,1.0582336E0,-3.248203E-1,1.3867933E0,-5.010556E-1,-4.2922652E-1,1.156201E0,1.6641771E0,2.3764965E-1,-7.677848E-1,2.7482986E-2,7.7616565E-2,-4.981696E-1,1.3750639E0,2.3949178E-2,1.9623058E-1,1.7887073E0,2.748712E-2,2.8640747E-3,-1.7333174E-2,-5.3667575E-2,7.3750114E-1,-5.9038097E-1,7.772478E-2,2.0919228E-2,1.0543823E-3,1.3662911E-2,1.9718713E0,7.7157515E-1,-1.06809616E-1,1.1038971E-2,4.699585E-2,-6.8644523E-3,-7.137886E-1,5.3238153E-1,1.0570824E-1,2.7784094E-2,4.315249E-3,5.9982684E-2,-9.022999E-3,-1.1053085E-3,-6.740766E-2,-2.4633678E-2,6.142044E-3,3.242108E-2],"categories":[],"categories_nodes":[],"categories_segments":[],"categories_sizes":[],"default_left":[0,0,0,0,0,0,0,0,0,0,0,0,0,0,0,0,0,0,0,0,0,0,0,0,0,0,0,0,0,0,0,0,0,0,0,0,0,0,0,0,0,0,0,0,0],"id":31,"left_children":[1,3,5,7,9,11,13,15,17,19,-1,-1,21,23,-1,25,27,-1,29,-1,-1,31,33,-1,-1,-1,-1,35,37,39,-1,-1,-1,41,43,-1,-1,-1,-1,-1,-1,-1,-1,-1,-1],"loss_changes":[4.8700943E1,1.9138363E1,1.3948893E1,9.167126E0,2.3838158E0,1.1975728E1,2.3067284E-1,4.0362854E0,5.113496E-1,3.99992E-1,0E0,0E0,9.550844E0,3.6257267E-2,0E0,3.4710154E-2,2.5771942E0,0E0,1.4307928E-1,0E0,0E0,1.1914687E0,1.0771814E1,0E0,0E0,0E0,0E0,2.4524536E0,1.3632107E0,2.0964477E-2,0E0,0E0,0E0,8.873997E0,3.0053234E-1,0E0,0E0,0E0,0E0,0E0,0E0,0E0,0E0,0E0,0E0],"parents":[2147483647,0,0,1,1,2,2,3,3,4,4,5,5,6,6,7,7,8,8,9,9,12,12,13,13,15,15,16,16,18,18,21,21,22,22,27,27,28,28,29,29,33,33,34,34],"right_children":[2,4,6,8,10,12,14,16,18,20,-1,-1,22,24,-1,26,28,-1,30,-1,-1,32,34,-1,-1,-1,-1,36,38,40,-1,-1,-1,42,44,-1,-1,-1,-1,-1,-1,-1,-1,-1,-1],"split_conditions":[2E0,4E1,1E0,2.7E1,4.3E1,3.5139E2,3.5828537E2,3.5139E2,2.9E1,3.5842572E2,2.7482986E-2,7.7616565E-2,3.5778677E2,3.5853E2,2.3949178E-2,3.5054E2,3.9E1,2.748712E-2,1E0,-1.7333174E-2,-5.3667575E-2,5E0,4E1,7.772478E-2,2.0919228E-2,1.0543823E-3,1.3662911E-2,3.8E1,1E0,3E1,1.1038971E-2,4.699585E-2,-6.8644523E-3,3.5824963E2,3.6E1,1.0570824E-1,2.7784094E-2,4.315249E-3,5.9982684E-2,-9.022999E-3,-1.1053085E-3,-6.740766E-2,-2.4633678E-2,6.142044E-3,3.242108E-2],"split_indices":[6,8,18,5,8,17,15,0,5,15,0,0,15,0,0,0,8,0,1,0,0,6,8,0,0,0,0,9,1,10,0,0,0,15,9,0,0,0,0,0,0,0,0,0,0],"split_type":[0,0,0,0,0,0,0,0,0,0,0,0,0,0,0,0,0,0,0,0,0,0,0,0,0,0,0,0,0,0,0,0,0,0,0,0,0,0,0,0,0,0,0,0,0],"sum_hessian":[1.21E2,3.5E1,8.6E1,2.9E1,6E0,8.1E1,5E0,2.3E1,6E0,5E0,1E0,2E0,7.9E1,3E0,2E0,2E0,2.1E1,2E0,4E0,3E0,2E0,5E0,7.4E1,2E0,1E0,1E0,1E0,1.7E1,4E0,3E0,1E0,4E0,1E0,6.7E1,7E0,1.5E1,2E0,2E0,2E0,1E0,2E0,1.6E1,5.1E1,2E0,5E0],"tree_param":{"num_deleted":"0","num_feature":"20","num_nodes":"45","size_leaf_vector":"1"}},{"base_weights":[8.132297E-2,1.3810146E0,-5.370471E-1,1.1099834E0,1.7036419E-1,-1.9108574E-1,-1.1727222E0,1.3743784E0,4.585266E-2,-5.2253533E-2,-9.393585E-2,-2.06489E0,-6.41438E-1,1.4945693E0,-4.6769332E-2,4.0745926E-1,-4.1761875E-1,-5.3089E-1,8.2814956E-1,4.900551E-2,-1.488923E-1,3.9384764E-1,-9.437707E-1,1.5738469E0,-1.416626E-2,3.1318664E-4,2.5309611E-2,-2.6564026E-2,-1.9158364E-3,1.0839516E0,-7.9100436E-1,-4.2578316E-1,1.1073216E0,2.4267452E-2,-3.1500626E-2,-1.2816365E-2,4.5637004E-2,-5.2940655E-1,-7.385413E-2,1.4210172E-1,6.424323E-2,1.4295101E-2,6.0599424E-2,3.0849887E-2,-4.8859842E-2,-3.2770824E-2,-6.538328E-3,7.419794E-2,2.961347E-2,-4.3034475E-2,-1.2992859E-3],"categories":[],"categories_nodes":[],"categories_segments":[],"categories_sizes":[],"default_left":[0,0,0,0,0,0,0,0,0,0,0,0,0,0,0,0,0,0,0,0,0,0,0,0,0,0,0,0,0,0,0,0,0,0,0,0,0,0,0,0,0,0,0,0,0,0,0,0,0,0,0],"id":32,"left_children":[1,3,5,7,-1,9,11,13,15,17,-1,19,21,23,-1,25,27,29,31,33,-1,35,37,39,-1,-1,-1,-1,-1,41,43,45,47,-1,-1,-1,-1,49,-1,-1,-1,-1,-1,-1,-1,-1,-1,-1,-1,-1,-1],"loss_changes":[9.477344E1,1.7086899E1,1.7369427E1,9.78426E0,0E0,1.2319601E1,1.1947353E1,9.171154E0,1.5109172E0,2.1509306E1,0E0,1.9444866E1,6.318715E0,4.251484E0,0E0,1.9488549E-1,1.5209162E-1,1.4718849E1,6.7726126E0,1.4909165E0,0E0,1.9208145E0,2.5328026E0,5.876953E0,0E0,0E0,0E0,0E0,0E0,1.6438913E-1,8.205551E0,1.8527603E-1,2.0309124E0,0E0,0E0,0E0,0E0,1.6453819E0,0E0,0E0,0E0,0E0,0E0,0E0,0E0,0E0,0E0,0E0,0E0,0E0,0E0],"parents":[2147483647,0,0,1,1,2,2,3,3,5,5,6,6,7,7,8,8,9,9,11,11,12,12,13,13,15,15,16,16,17,17,18,18,19,19,21,21,22,22,23,23,29,29,30,30,31,31,32,32,37,37],"right_children":[2,4,6,8,-1,10,12,14,16,18,-1,20,22,24,-1,26,28,30,32,34,-1,36,38,40,-1,-1,-1,-1,-1,42,44,46,48,-1,-1,-1,-1,50,-1,-1,-1,-1,-1,-1,-1,-1,-1,-1,-1,-1,-1],"split_conditions":[2E0,1E0,3.6E2,2.7E1,1.7036419E-1,1.0212038E0,3.3E1,3.6663E2,3.2E1,3.5932E2,-9.393585E-2,1E1,4E0,3.642857E1,-4.6769332E-2,3.5365E2,3.5915E2,3E0,2.8E1,9E0,-1.488923E-1,5E0,3.5861716E2,3.5786108E2,-1.416626E-2,3.1318664E-4,2.5309611E-2,-2.6564026E-2,-1.9158364E-3,3.5409E2,3.5406E2,3.5667E2,3.624E2,2.4267452E-2,-3.1500626E-2,-1.2816365E-2,4.5637004E-2,3.4E1,-7.385413E-2,1.4210172E-1,6.424323E-2,1.4295101E-2,6.0599424E-2,3.0849887E-2,-4.8859842E-2,-3.2770824E-2,-6.538328E-3,7.419794E-2,2.961347E-2,-4.3034475E-2,-1.2992859E-3],"split_indices":[6,18,0,5,0,19,9,0,11,17,0,5,6,12,0,0,0,4,11,5,0,5,15,15,0,0,0,0,0,0,0,0,17,0,0,0,0,12,0,0,0,0,0,0,0,0,0,0,0,0,0],"split_type":[0,0,0,0,0,0,0,0,0,0,0,0,0,0,0,0,0,0,0,0,0,0,0,0,0,0,0,0,0,0,0,0,0,0,0,0,0,0,0,0,0,0,0,0,0,0,0,0,0,0,0],"sum_hessian":[1.16E2,3.7E1,7.9E1,3.4E1,3E0,5.2E1,2.7E1,2.7E1,7E0,4.9E1,3E0,9E0,1.8E1,2.6E1,1E0,4E0,3E0,3.2E1,1.7E1,3E0,6E0,4E0,1.4E1,2.5E1,1E0,1E0,3E0,2E0,1E0,4E0,2.8E1,3E0,1.4E1,2E0,1E0,2E0,2E0,9E0,5E0,3E0,2.2E1,1E0,3E0,3E0,2.5E1,1E0,2E0,7E0,7E0,5E0,4E0],"tree_param":{"num_deleted":"0","num_feature":"20","num_nodes":"51","size_leaf_vector":"1"}},{"base_weights":[4.3000404E-2,1.2749722E0,-4.9652475E-1,9.895972E-1,1.6196147E-1,-6.366674E-1,5.4814035E-1,1.1873759E0,-6.534004E-2,-2.8815192E-1,-1.1033667E0,2.379799E-3,5.9846795E-1,1.3031983E0,-4.5600127E-2,2.8716755E-1,-5.1357013E-1,-1.1977642E0,1.1561845E-1,-1.823408E0,-2.6176503E-1,6.339078E-1,7.873726E-3,1.37972E0,-1.5246105E-2,3.0536653E-4,1.8940926E-2,-3.0384446E-2,-8.133316E-3,1.4426231E-1,-2.3686814E0,-2.0932682E-1,1.2131996E0,5.213089E-1,-2.1956038E0,4.6079573E-1,-6.6912496E-1,1.3150151E-2,3.5685446E-2,7.301142E-2,-1.3812065E-2,5.840785E-2,-2.4946347E-2,-4.7982916E-2,-1.3701795E-1,6.9840336E-3,-6.3981466E-2,7.9114154E-2,9.683037E-3,-1.648817E-2,5.5586338E-2,-1.3969013E-1,-5.9914537E-2,3.414197E-2,5.569458E-4,-5.5072945E-2,1.2737036E-2],"categories":[],"categories_nodes":[],"categories_segments":[],"categories_sizes":[],"default_left":[0,0,0,0,0,0,0,0,0,0,0,0,0,0,0,0,0,0,0,0,0,0,0,0,0,0,0,0,0,0,0,0,0,0,0,0,0,0,0,0,0,0,0,0,0,0,0,0,0,0,0,0,0,0,0,0,0],"id":33,"left_children":[1,3,5,7,-1,9,11,13,15,17,19,-1,21,23,-1,25,27,29,31,33,35,37,-1,39,-1,-1,-1,-1,-1,41,43,45,47,49,51,53,55,-1,-1,-1,-1,-1,-1,-1,-1,-1,-1,-1,-1,-1,-1,-1,-1,-1,-1,-1,-1],"loss_changes":[7.640655E1,1.6413712E1,1.206115E1,6.754196E0,0E0,1.1230349E1,2.234273E-1,7.753704E0,1.0955077E0,1.5564013E1,1.7702335E1,0E0,4.0834665E-2,3.6201668E0,0E0,1.0072419E-1,2.2935867E-4,2.0769936E1,1.0953569E1,1.5107697E1,4.723465E0,4.9081087E-2,0E0,3.7363472E0,0E0,0E0,0E0,0E0,0E0,5.192731E0,1.0361099E0,9.143785E0,2.3276386E0,1.8740716E0,5.0044937E0,5.914545E-1,4.2747717E0,0E0,0E0,0E0,0E0,0E0,0E0,0E0,0E0,0E0,0E0,0E0,0E0,0E0,0E0,0E0,0E0,0E0,0E0,0E0,0E0],"parents":[2147483647,0,0,1,1,2,2,3,3,5,5,6,6,7,7,8,8,9,9,10,10,12,12,13,13,15,15,16,16,17,17,18,18,19,19,20,20,21,21,23,23,29,29,30,30,31,31,32,32,33,33,34,34,35,35,36,36],"right_children":[2,4,6,8,-1,10,12,14,16,18,20,-1,22,24,-1,26,28,30,32,34,36,38,-1,40,-1,-1,-1,-1,-1,42,44,46,48,50,52,54,56,-1,-1,-1,-1,-1,-1,-1,-1,-1,-1,-1,-1,-1,-1,-1,-1,-1,-1,-1,-1],"split_conditions":[2E0,1E0,3.9E1,2.4E1,1.6196147E-1,3.4142857E1,3.5324E2,3.6663E2,3.1E1,3.5821964E2,3.5E1,2.379799E-3,4.2E1,4E1,-4.5600127E-2,3.5365E2,3.5665E2,3.2E1,3.6205E2,3.5694714E2,3.4E1,3.5737E2,7.873726E-3,3.642857E1,-1.5246105E-2,3.0536653E-4,1.8940926E-2,-3.0384446E-2,-8.133316E-3,4E0,5E0,3.6E2,3.6558E2,3.5736E2,3.5863715E2,4E0,1.6E1,1.3150151E-2,3.5685446E-2,7.301142E-2,-1.3812065E-2,5.840785E-2,-2.4946347E-2,-4.7982916E-2,-1.3701795E-1,6.9840336E-3,-6.3981466E-2,7.9114154E-2,9.683037E-3,-1.648817E-2,5.5586338E-2,-1.3969013E-1,-5.9914537E-2,3.414197E-2,5.569458E-4,-5.5072945E-2,1.2737036E-2],"split_indices":[6,18,8,5,0,12,0,0,9,15,9,0,10,11,0,0,0,10,17,14,10,17,0,12,0,0,0,0,0,6,5,17,17,0,15,6,5,0,0,0,0,0,0,0,0,0,0,0,0,0,0,0,0,0,0,0,0],"split_type":[0,0,0,0,0,0,0,0,0,0,0,0,0,0,0,0,0,0,0,0,0,0,0,0,0,0,0,0,0,0,0,0,0,0,0,0,0,0,0,0,0,0,0,0,0,0,0,0,0,0,0,0,0,0,0,0,0],"sum_hessian":[1.13E2,3.4E1,7.9E1,3.1E1,3E0,7E1,9E0,2.6E1,5E0,4.1E1,2.9E1,1E0,8E0,2.5E1,1E0,3E0,2E0,1.2E1,2.9E1,1.5E1,1.4E1,7E0,1E0,2.4E1,1E0,1E0,2E0,1E0,1E0,6E0,6E0,2.3E1,6E0,2E0,1.3E1,5E0,9E0,2E0,5E0,2.3E1,1E0,2E0,4E0,2E0,4E0,1.8E1,5E0,4E0,2E0,1E0,1E0,7E0,6E0,3E0,2E0,6E0,3E0],"tree_param":{"num_deleted":"0","num_feature":"20","num_nodes":"57","size_leaf_vector":"1"}},{"base_weights":[8.039298E-2,1.2271914E0,-3.5552362E-1,2.079178E0,5.694412E-1,-4.578776E-1,1.1025683E0,5.899452E-1,2.6158767E0,1.5187558E0,5.4109573E-2,6.265195E-1,-5.835762E-1,1.3418741E0,2.0798557E-2,1.1979421E-2,4.8563134E-2,5.382185E-2,1.56093E-1,9.841824E-3,8.5313484E-2,6.1071503E-1,-4.396839E-1,1.1071402E0,-1.255207E-2,-1.3584335E0,-3.102572E-1,7.692337E-2,1.8802358E-2,9.889889E-3,-8.991432E-3,-1.1740017E-1,5.9307575E-2,-8.034506E-1,-6.0733795E-2,6.559868E-2,2.3249118E-2,-1.6894438E0,-9.371567E-2,-9.4048536E-1,2.2832957E-1,-1.4264489E-2,9.656715E-3,-9.2457775E-3,-4.739952E-2,3.6365986E-3,-1.4864922E-2,-9.222895E-2,1.2061215E-2,-4.206152E-2,1.5173531E-2,1.8137438E-2,-6.3402645E-2,4.7369283E-2,-2.0978143E-2],"categories":[],"categories_nodes":[],"categories_segments":[],"categories_sizes":[],"default_left":[0,0,0,0,0,0,0,0,0,0,0,0,0,0,0,0,0,0,0,0,0,0,0,0,0,0,0,0,0,0,0,0,0,0,0,0,0,0,0,0,0,0,0,0,0,0,0,0,0,0,0,0,0,0,0],"id":34,"left_children":[1,3,5,7,9,11,13,15,17,19,21,23,25,27,-1,29,-1,-1,-1,-1,-1,31,33,35,-1,37,39,-1,-1,-1,-1,41,-1,43,45,-1,-1,47,49,51,53,-1,-1,-1,-1,-1,-1,-1,-1,-1,-1,-1,-1,-1,-1],"loss_changes":[5.9925404E1,1.730904E1,1.3488855E1,9.646549E0,9.702057E0,1.1542812E1,4.2765903E-1,1.0903071E0,4.4288177E0,1.399292E0,4.116396E0,4.0739036E0,1.5250494E1,1.80964E-1,0E0,1.4249408E-1,0E0,0E0,0E0,0E0,0E0,3.0721428E0,1.0539987E0,1.7916727E-1,0E0,7.7957306E0,1.9222965E1,0E0,0E0,0E0,0E0,2.6364127E-1,0E0,1.8231368E-1,1.794895E-1,0E0,0E0,4.9376793E0,1.7398018E0,1.1559313E1,1.4839488E1,0E0,0E0,0E0,0E0,0E0,0E0,0E0,0E0,0E0,0E0,0E0,0E0,0E0,0E0],"parents":[2147483647,0,0,1,1,2,2,3,3,4,4,5,5,6,6,7,7,8,8,9,9,10,10,11,11,12,12,13,13,15,15,21,21,22,22,23,23,25,25,26,26,31,31,33,33,34,34,37,37,38,38,39,39,40,40],"right_children":[2,4,6,8,10,12,14,16,18,20,22,24,26,28,-1,30,-1,-1,-1,-1,-1,32,34,36,-1,38,40,-1,-1,-1,-1,42,-1,44,46,-1,-1,48,50,52,54,-1,-1,-1,-1,-1,-1,-1,-1,-1,-1,-1,-1,-1,-1],"split_conditions":[2E0,3.584057E2,1E0,5E0,3.4E1,3.5683142E2,3.5828537E2,3.5679428E2,3.4E1,5E0,2E0,3.7E1,3.5821964E2,3.5853E2,2.0798557E-2,3.5139E2,4.8563134E-2,5.382185E-2,1.56093E-1,9.841824E-3,8.5313484E-2,3.5915E2,1.1E1,3.6076E2,-1.255207E-2,3.9E1,9.973098E-1,7.692337E-2,1.8802358E-2,9.889889E-3,-8.991432E-3,1E0,5.9307575E-2,5E0,4E1,6.559868E-2,2.3249118E-2,3.8E1,3.5336E2,3.1E1,3.5781E2,-1.4264489E-2,9.656715E-3,-9.2457775E-3,-4.739952E-2,3.6365986E-3,-1.4864922E-2,-9.222895E-2,1.2061215E-2,-4.206152E-2,1.5173531E-2,1.8137438E-2,-6.3402645E-2,4.7369283E-2,-2.0978143E-2],"split_indices":[6,14,18,5,8,14,15,14,8,4,3,10,15,0,0,0,0,0,0,0,0,0,5,0,0,11,19,0,0,0,0,1,0,4,8,0,0,8,0,8,0,0,0,0,0,0,0,0,0,0,0,0,0,0,0],"split_type":[0,0,0,0,0,0,0,0,0,0,0,0,0,0,0,0,0,0,0,0,0,0,0,0,0,0,0,0,0,0,0,0,0,0,0,0,0,0,0,0,0,0,0,0,0,0,0,0,0,0,0,0,0,0,0],"sum_hessian":[1.18E2,3.2E1,8.6E1,1.3E1,1.9E1,8.1E1,5E0,4E0,9E0,6E0,1.3E1,8E0,7.3E1,3E0,2E0,2E0,2E0,3E0,6E0,1E0,5E0,6E0,7E0,5E0,3E0,1.8E1,5.5E1,2E0,1E0,1E0,1E0,3E0,3E0,3E0,4E0,3E0,2E0,1.4E1,4E0,2.5E1,3E1,2E0,1E0,1E0,2E0,3E0,1E0,1.3E1,1E0,1E0,3E0,5E0,2E1,1.4E1,1.6E1],"tree_param":{"num_deleted":"0","num_feature":"20","num_nodes":"55","size_leaf_vector":"1"}},{"base_weights":[2.5818352E-2,-1.5765914E-1,2.2042933E0,-4.5180604E-1,3.083255E-1,1.374331E-1,4.1833352E-2,1.38137E-1,-9.1792727E-1,-1.075583E0,6.655858E-1,1.1977282E0,-2.3642242E-1,2.7239588E-1,-1.2556852E0,-2.1579743E-3,-9.669457E-2,1.6094284E0,2.0525853E-1,1.5833156E-2,1.4386393E0,1.538823E-1,-7.592068E-1,-9.747362E-2,7.9381347E-1,-2.5258245E0,-7.3673975E-1,-2.7191606E-1,1.3415973E-2,1.9369019E0,9.053167E-2,-2.026767E-2,1.3379564E0,1.3905334E-2,8.0756225E-2,-2.6605293E-2,3.6744334E-2,1.8150711E-2,-5.4256942E-2,-3.5205364E-2,5.5419445E-2,-1.5108381E-1,2.3628427E-2,7.932813E-3,-5.4121464E-2,-3.7488937E-3,-1.6644811E-2,9.642601E-3,1.06540084E-1,-4.969788E-3,1.1759663E-2,5.0560664E-2,-1.2417984E-2,7.5611755E-2,2.0378018E-2],"categories":[],"categories_nodes":[],"categories_segments":[],"categories_sizes":[],"default_left":[0,0,0,0,0,0,0,0,0,0,0,0,0,0,0,0,0,0,0,0,0,0,0,0,0,0,0,0,0,0,0,0,0,0,0,0,0,0,0,0,0,0,0,0,0,0,0,0,0,0,0,0,0,0,0],"id":35,"left_children":[1,3,5,7,9,-1,-1,11,13,15,17,19,21,23,25,27,-1,29,31,-1,33,35,37,-1,39,41,43,45,-1,47,49,51,53,-1,-1,-1,-1,-1,-1,-1,-1,-1,-1,-1,-1,-1,-1,-1,-1,-1,-1,-1,-1,-1,-1],"loss_changes":[4.6313152E1,1.48055725E1,4.4007187E0,1.8275808E1,2.1481346E1,0E0,0E0,1.2189566E1,1.5217566E1,8.287794E0,1.4441852E1,1.2425032E0,4.8098683E0,1.1974209E1,1.7253983E1,4.3777773E-1,0E0,5.296032E0,6.1579905E0,0E0,7.797251E-1,5.9709067E0,4.0515985E0,0E0,4.5500975E0,1.332201E1,6.981373E0,1.1068106E-2,0E0,2.6326065E0,