{"learner":{"attributes":{},"feature_names":["price","promo","year","quarter","month","day","dow","is_weekend","sales_lag_1","sales_lag_7","sales_lag_14","sales_lag_28","sales_roll_mean_7","sales_roll_mean_28","price_roll_7","price_roll_28","is_hol","price_h4","promo_h4","price_ratio_h4"],"feature_types":["float","float","float","float","float","float","float","float","float","float","float","float","float","float","float","float","float","float","float","float"],"gradient_booster":{"model":{"gbtree_model_param":{"num_parallel_tree":"1","num_trees":"600"},"iteration_indptr":[0,1,2,3,4,5,6,7,8,9,10,11,12,13,14,15,16,17,18,19,20,21,22,23,24,25,26,27,28,29,30,31,32,33,34,35,36,37,38,39,40,41,42,43,44,45,46,47,48,49,50,51,52,53,54,55,56,57,58,59,60,61,62,63,64,65,66,67,68,69,70,71,72,73,74,75,76,77,78,79,80,81,82,83,84,85,86,87,88,89,90,91,92,93,94,95,96,97,98,99,100,101,102,103,104,105,106,107,108,109,110,111,112,113,114,115,116,117,118,119,120,121,122,123,124,125,126,127,128,129,130,131,132,133,134,135,136,137,138,139,140,141,142,143,144,145,146,147,148,149,150,151,152,153,154,155,156,157,158,159,160,161,162,163,164,165,166,167,168,169,170,171,172,173,174,175,176,177,178,179,180,181,182,183,184,185,186,187,188,189,190,191,192,193,194,195,196,197,198,199,200,201,202,203,204,205,206,207,208,209,210,211,212,213,214,215,216,217,218,219,220,221,222,223,224,225,226,227,228,229,230,231,232,233,234,235,236,237,238,239,240,241,242,243,244,245,246,247,248,249,250,251,252,253,254,255,256,257,258,259,260,261,262,263,264,265,266,267,268,269,270,271,272,273,274,275,276,277,278,279,280,281,282,283,284,285,286,287,288,289,290,291,292,293,294,295,296,297,298,299,300,301,302,303,304,305,306,307,308,309,310,311,312,313,314,315,316,317,318,319,320,321,322,323,324,325,326,327,328,329,330,331,332,333,334,335,336,337,338,339,340,341,342,343,344,345,346,347,348,349,350,351,352,353,354,355,356,357,358,359,360,361,362,363,364,365,366,367,368,369,370,371,372,373,374,375,376,377,378,379,380,381,382,383,384,385,386,387,388,389,390,391,392,393,394,395,396,397,398,399,400,401,402,403,404,405,406,407,408,409,410,411,412,413,414,415,416,417,418,419,420,421,422,423,424,425,426,427,428,429,430,431,432,433,434,435,436,437,438,439,440,441,442,443,444,445,446,447,448,449,450,451,452,453,454,455,456,457,458,459,460,461,462,463,464,465,466,467,468,469,470,471,472,473,474,475,476,477,478,479,480,481,482,483,484,485,486,487,488,489,490,491,492,493,494,495,496,497,498,499,500,501,502,503,504,505,506,507,508,509,510,511,512,513,514,515,516,517,518,519,520,521,522,523,524,525,526,527,528,529,530,531,532,533,534,535,536,537,538,539,540,541,542,543,544,545,546,547,548,549,550,551,552,553,554,555,556,557,558,559,560,561,562,563,564,565,566,567,568,569,570,571,572,573,574,575,576,577,578,579,580,581,582,583,584,585,586,587,588,589,590,591,592,593,594,595,596,597,598,599,600],"tree_info":[0,0,0,0,0,0,0,0,0,0,0,0,0,0,0,0,0,0,0,0,0,0,0,0,0,0,0,0,0,0,0,0,0,0,0,0,0,0,0,0,0,0,0,0,0,0,0,0,0,0,0,0,0,0,0,0,0,0,0,0,0,0,0,0,0,0,0,0,0,0,0,0,0,0,0,0,0,0,0,0,0,0,0,0,0,0,0,0,0,0,0,0,0,0,0,0,0,0,0,0,0,0,0,0,0,0,0,0,0,0,0,0,0,0,0,0,0,0,0,0,0,0,0,0,0,0,0,0,0,0,0,0,0,0,0,0,0,0,0,0,0,0,0,0,0,0,0,0,0,0,0,0,0,0,0,0,0,0,0,0,0,0,0,0,0,0,0,0,0,0,0,0,0,0,0,0,0,0,0,0,0,0,0,0,0,0,0,0,0,0,0,0,0,0,0,0,0,0,0,0,0,0,0,0,0,0,0,0,0,0,0,0,0,0,0,0,0,0,0,0,0,0,0,0,0,0,0,0,0,0,0,0,0,0,0,0,0,0,0,0,0,0,0,0,0,0,0,0,0,0,0,0,0,0,0,0,0,0,0,0,0,0,0,0,0,0,0,0,0,0,0,0,0,0,0,0,0,0,0,0,0,0,0,0,0,0,0,0,0,0,0,0,0,0,0,0,0,0,0,0,0,0,0,0,0,0,0,0,0,0,0,0,0,0,0,0,0,0,0,0,0,0,0,0,0,0,0,0,0,0,0,0,0,0,0,0,0,0,0,0,0,0,0,0,0,0,0,0,0,0,0,0,0,0,0,0,0,0,0,0,0,0,0,0,0,0,0,0,0,0,0,0,0,0,0,0,0,0,0,0,0,0,0,0,0,0,0,0,0,0,0,0,0,0,0,0,0,0,0,0,0,0,0,0,0,0,0,0,0,0,0,0,0,0,0,0,0,0,0,0,0,0,0,0,0,0,0,0,0,0,0,0,0,0,0,0,0,0,0,0,0,0,0,0,0,0,0,0,0,0,0,0,0,0,0,0,0,0,0,0,0,0,0,0,0,0,0,0,0,0,0,0,0,0,0,0,0,0,0,0,0,0,0,0,0,0,0,0,0,0,0,0,0,0,0,0,0,0,0,0,0,0,0,0,0,0,0,0,0,0,0,0,0,0,0,0,0,0,0,0,0,0,0,0,0,0,0,0,0,0,0,0,0,0,0,0,0,0,0,0,0,0,0,0,0,0,0,0,0,0,0,0,0,0,0,0,0,0,0,0,0,0,0,0,0,0,0,0,0,0,0,0,0,0,0,0,0,0,0,0,0,0,0,0,0,0,0,0,0,0,0,0,0,0,0,0,0,0,0,0],"trees":[{"base_weights":[1.3299108E-1,-5.2088475E-1,5.175449E0,8.930019E-2,-2.1213045E0,6.2101536E0,2.7748578E0,3.9101407E-1,-1.395694E0,-2.879083E0,-1.2695292E0,2.0846944E0,6.6924524E0,9.080093E-1,3.9588895E0,5.3325947E-2,1.3424399E0,-2.2811635E0,2.643743E-2,1.0658735E0,-2.9856994E0,-9.325153E-1,-2.9087906E0,-2.2529745E-2,2.582342E0,6.8140535E0,2.7470255E-2,1.9120538E-1,-6.635411E-1,4.590576E0,1.0741076E0,-5.574733E-1,8.479584E-1,3.6224096E0,8.2831264E-1,-1.8321139E0,-3.2129464E-1,-7.451422E-1,3.879048E0,-2.2529745E-2,1.0247026E-1,-3.0853217E0,7.3254013E-1,-1.775345E0,-2.0115764E-1,-4.670633E-2,-3.1828997E0,1.4395241E-1,2.7470255E-2,7.0500007E0,2.5741076E0,-9.629462E-2,4.7904816E-1,6.996034E-2,5.088929E0,1.2747025E-1,-2.6745987E-1,-6.740012E-3,-9.5196724E-2,5.3995103E-2,-1.7921625E-1,5.9947122E-2,2.8216934E-1,-3.3440094E-2,9.705295E-2,-2.3754957E-1,-6.546329E-2,7.443815E-3,-1.3317706E-1,-4.7529746E-2,2.662054E-1,-1.5824625E-1,3.2936733E-3,5.2470256E-2,2.470255E-3,-1.7556185E-2,-1.7398381E-1,-1.2692706E-1,2.1442493E-2,-1.7894177E-1,-4.670633E-2,3.5839432E-1,5.2470256E-2,1.5329367E-1,2.7470255E-2,-2.2529745E-2,4.1205384E-2,2.7105823E-1,5.2470256E-2,-2.2529745E-2,2.470255E-3],"categories":[],"categories_nodes":[],"categories_segments":[],"categories_sizes":[],"default_left":[0,0,0,0,0,0,0,0,0,0,0,0,0,0,0,0,0,0,0,0,0,0,0,0,0,0,0,0,0,0,0,0,0,0,0,0,0,0,0,0,0,0,0,0,0,0,0,0,0,0,0,0,0,0,0,0,0,0,0,0,0,0,0,0,0,0,0,0,0,0,0,0,0,0,0,0,0,0,0,0,0,0,0,0,0,0,0,0,0,0,0],"id":0,"left_children":[1,3,5,7,9,11,13,15,17,19,21,23,25,27,29,31,33,35,37,39,41,43,45,-1,47,49,-1,-1,51,53,55,57,59,61,63,65,-1,67,69,-1,-1,71,73,75,77,-1,79,-1,-1,81,83,-1,85,-1,87,-1,89,-1,-1,-1,-1,-1,-1,-1,-1,-1,-1,-1,-1,-1,-1,-1,-1,-1,-1,-1,-1,-1,-1,-1,-1,-1,-1,-1,-1,-1,-1,-1,-1,-1,-1],"loss_changes":[2.2117803E3,5.8026135E2,1.7402832E2,1.9365242E2,1.0219983E2,9.1502686E1,5.166548E1,1.1526979E2,9.1985825E1,3.935376E1,4.093136E1,9.99535E0,3.1365234E1,5.29482E1,2.2403397E1,1.2957872E2,1.0718579E2,7.19805E1,8.909572E1,5.397936E0,3.3375366E1,4.0942345E1,4.063324E0,0E0,2.037346E0,2.7871094E1,0E0,0E0,1.2461387E1,1.1964676E1,8.598708E0,8.5679405E1,1.2312333E2,7.649603E1,1.3123906E2,5.7877136E1,0E0,4.327364E1,3.995668E1,0E0,0E0,2.0777771E1,5.975385E-1,7.402589E1,5.5573708E1,0E0,6.450981E0,0E0,0E0,2.2895508E1,2.2983112E0,0E0,1.9752498E0,0E0,7.7317505E0,0E0,1.9634895E-1,0E0,0E0,0E0,0E0,0E0,0E0,0E0,0E0,0E0,0E0,0E0,0E0,0E0,0E0,0E0,0E0,0E0,0E0,0E0,0E0,0E0,0E0,0E0,0E0,0E0,0E0,0E0,0E0,0E0,0E0,0E0,0E0,0E0,0E0],"parents":[2147483647,0,0,1,1,2,2,3,3,4,4,5,5,6,6,7,7,8,8,9,9,10,10,11,11,12,12,13,13,14,14,15,15,16,16,17,17,18,18,19,19,20,20,21,21,22,22,24,24,25,25,28,28,29,29,30,30,31,31,32,32,33,33,34,34,35,35,37,37,38,38,41,41,42,42,43,43,44,44,46,46,49,49,50,50,52,52,54,54,56,56],"right_children":[2,4,6,8,10,12,14,16,18,20,22,24,26,28,30,32,34,36,38,40,42,44,46,-1,48,50,-1,-1,52,54,56,58,60,62,64,66,-1,68,70,-1,-1,72,74,76,78,-1,80,-1,-1,82,84,-1,86,-1,88,-1,90,-1,-1,-1,-1,-1,-1,-1,-1,-1,-1,-1,-1,-1,-1,-1,-1,-1,-1,-1,-1,-1,-1,-1,-1,-1,-1,-1,-1,-1,-1,-1,-1,-1,-1],"split_conditions":[1E0,1E0,1E0,3.1E1,2.7E1,3.150543E2,5E0,1.009114E0,3.1849E2,3.0822E2,3.2156E2,3E0,3.3E1,3.1468073E2,7E0,3.1689465E2,3.1902E2,1.0077246E0,3.2061E2,3.0708E2,3.2412E2,1.2E1,2.8E1,-2.2529745E-2,3.1E1,3.2484E2,2.7470255E-2,1.9120538E-1,2.6857143E1,3.112E2,3.1526E2,2.8E1,3.213E2,2.5E1,3.1727E2,3.1094E2,-3.2129464E-1,2.8428572E1,3E0,-2.2529745E-2,1.0247026E-1,2.8857143E1,3.1789E2,3.1642E2,9.882267E-1,-4.670633E-2,3.192175E2,1.4395241E-1,2.7470255E-2,3.1E1,3.1836E2,-9.629462E-2,3.1335E2,6.996034E-2,3.2101E2,1.2747025E-1,3.1906E2,-6.740012E-3,-9.5196724E-2,5.3995103E-2,-1.7921625E-1,5.9947122E-2,2.8216934E-1,-3.3440094E-2,9.705295E-2,-2.3754957E-1,-6.546329E-2,7.443815E-3,-1.3317706E-1,-4.7529746E-2,2.662054E-1,-1.5824625E-1,3.2936733E-3,5.2470256E-2,2.470255E-3,-1.7556185E-2,-1.7398381E-1,-1.2692706E-1,2.1442493E-2,-1.7894177E-1,-4.670633E-2,3.5839432E-1,5.2470256E-2,1.5329367E-1,2.7470255E-2,-2.2529745E-2,4.1205384E-2,2.7105823E-1,5.2470256E-2,-2.2529745E-2,2.470255E-3],"split_indices":[18,7,7,8,13,15,4,19,17,0,17,4,8,15,4,15,17,19,0,0,17,5,11,0,8,17,0,0,12,0,0,10,17,10,0,17,0,12,4,0,0,12,0,17,19,0,15,0,0,5,0,0,0,0,0,0,0,0,0,0,0,0,0,0,0,0,0,0,0,0,0,0,0,0,0,0,0,0,0,0,0,0,0,0,0,0,0,0,0,0,0],"split_type":[0,0,0,0,0,0,0,0,0,0,0,0,0,0,0,0,0,0,0,0,0,0,0,0,0,0,0,0,0,0,0,0,0,0,0,0,0,0,0,0,0,0,0,0,0,0,0,0,0,0,0,0,0,0,0,0,0,0,0,0,0,0,0,0,0,0,0,0,0,0,0,0,0,0,0,0,0,0,0,0,0,0,0,0,0,0,0,0,0,0,0],"sum_hessian":[6.69E2,5.93E2,7.6E1,4.3E2,1.63E2,5.2E1,2.4E1,3.58E2,7.2E1,8.5E1,7.8E1,6E0,4.6E1,1E1,1.4E1,2.65E2,9.3E1,4.4E1,2.8E1,2E0,8.3E1,6.6E1,1.2E1,1E0,5E0,4.5E1,1E0,3E0,7E0,1.1E1,3E0,1.5E2,1.15E2,1.6E1,7.7E1,4.1E1,3E0,2.4E1,4E0,1E0,1E0,8.1E1,2E0,3E1,3.6E1,2E0,1E1,4E0,1E0,4.2E1,3E0,3E0,4E0,2E0,9E0,1E0,2E0,1.15E2,3.5E1,1.1E2,5E0,8E0,8E0,3.3E1,4.4E1,5E0,3.6E1,1.7E1,7E0,1E0,3E0,7.9E1,2E0,1E0,1E0,1.7E1,1.3E1,7E0,2.9E1,8E0,2E0,4.1E1,1E0,2E0,1E0,1E0,3E0,8E0,1E0,1E0,1E0],"tree_param":{"num_deleted":"0","num_feature":"20","num_nodes":"91","size_leaf_vector":"1"}},{"base_weights":[6.008669E-2,2.138358E0,-1.504304E0,-1.6158197E0,4.014065E0,-2.045217E0,2.7321901E0,-1.9544427E0,2.3110104E0,3.2528706E0,8.101589E0,-2.744499E0,-1.4740438E0,-6.016318E-2,2.9535112E0,1.2491643E0,-2.2040868E0,1.244053E-1,2.6783515E-2,2.1109533E0,3.6912813E0,1.1851039E-1,8.221631E0,-3.418325E0,-2.0153737E0,-3.869777E0,-1.3013419E0,-2.0765647E-1,3.3008714E0,-1.4502144E-1,1.1655295E-1,-3.255381E0,-1.1253448E0,3.9566274E0,1.5696982E0,3.2626302E0,4.906639E0,1.7468052E-1,4.225478E-1,7.781417E-1,-3.5422585E0,1.0885415E0,-2.1618567E0,-2.2361232E-2,-4.140261E0,-4.974777E-1,-1.7164234E0,6.710329E-2,-8.4408E-2,2.1177173E0,4.2006664E0,2.9106855E-2,-2.9072667E-2,-2.4061087E-1,-1.0860606E-1,-9.6633695E-2,3.1368073E-2,2.7638769E-2,2.1367069E-1,4.4800993E-2,1.6831978E-1,1.720229E-1,1.2945525E-2,5.440833E-2,2.5792578E-1,5.1934194E-2,6.42643E-3,-2.4411035E-1,-1.528486E-1,3.306246E-3,7.036527E-2,-7.903145E-2,-1.4104167E-1,-8.258452E-2,-2.433507E-1,5.9992713E-3,-1.28948E-1,-1.0080564E-1,-1.7895637E-2,6.5186016E-2,2.3203884E-1,2.3115364E-1,1.3300355E-2],"categories":[],"categories_nodes":[],"categories_segments":[],"categories_sizes":[],"default_left":[0,0,0,0,0,0,0,0,0,0,0,0,0,0,0,0,0,0,0,0,0,0,0,0,0,0,0,0,0,0,0,0,0,0,0,0,0,0,0,0,0,0,0,0,0,0,0,0,0,0,0,0,0,0,0,0,0,0,0,0,0,0,0,0,0,0,0,0,0,0,0,0,0,0,0,0,0,0,0,0,0,0,0],"id":1,"left_children":[1,3,5,7,9,11,13,15,17,19,21,23,25,-1,27,29,31,-1,-1,33,35,-1,37,39,41,43,45,47,49,51,-1,53,55,57,59,61,63,-1,-1,65,67,69,71,-1,73,75,77,-1,-1,79,81,-1,-1,-1,-1,-1,-1,-1,-1,-1,-1,-1,-1,-1,-1,-1,-1,-1,-1,-1,-1,-1,-1,-1,-1,-1,-1,-1,-1,-1,-1,-1,-1],"loss_changes":[2.1425251E3,1.9992972E3,8.672201E2,1.3083965E2,5.617012E2,1.2935779E2,4.1006866E1,7.313223E1,1.1824417E0,7.280908E1,4.6520996E-1,6.631494E1,7.19212E1,0E0,4.5706055E1,1.0896589E1,8.933078E1,0E0,0E0,4.0741364E1,4.3902344E1,0E0,8.345947E-1,4.2282654E1,3.59989E1,9.257355E0,5.7538208E1,1.3737468E1,3.0494232E1,1.6079062E0,0E0,5.8692078E1,6.0642937E1,8.420685E0,4.297869E1,4.6114014E1,2.1316528E1,0E0,0E0,3.742541E-1,3.3194458E1,1.2105808E0,2.2735382E1,0E0,1.1855515E1,7.870899E1,4.609851E1,0E0,0E0,3.0917458E1,3.201071E1,0E0,0E0,0E0,0E0,0E0,0E0,0E0,0E0,0E0,0E0,0E0,0E0,0E0,0E0,0E0,0E0,0E0,0E0,0E0,0E0,0E0,0E0,0E0,0E0,0E0,0E0,0E0,0E0,0E0,0E0,0E0,0E0],"parents":[2147483647,0,0,1,1,2,2,3,3,4,4,5,5,6,6,7,7,8,8,9,9,10,10,11,11,12,12,14,14,15,15,16,16,19,19,20,20,22,22,23,23,24,24,25,25,26,26,27,27,28,28,29,29,31,31,32,32,33,33,34,34,35,35,36,36,39,39,40,40,41,41,42,42,44,44,45,45,46,46,49,49,50,50],"right_children":[2,4,6,8,10,12,14,16,18,20,22,24,26,-1,28,30,32,-1,-1,34,36,-1,38,40,42,44,46,48,50,52,-1,54,56,58,60,62,64,-1,-1,66,68,70,72,-1,74,76,78,-1,-1,80,82,-1,-1,-1,-1,-1,-1,-1,-1,-1,-1,-1,-1,-1,-1,-1,-1,-1,-1,-1,-1,-1,-1,-1,-1,-1,-1,-1,-1,-1,-1,-1,-1],"split_conditions":[3E0,1E0,1E0,1E0,1E0,3.1608786E2,2.4857143E1,3.1428607E2,3.5E1,2.6357143E1,2E0,9.994213E-1,3.1046E2,-6.016318E-2,2.4E1,3.1488E2,3.1693463E2,1.244053E-1,2.6783515E-2,3.1248E2,1.0087839E0,1.1851039E-1,2.6142857E1,1.9E1,3.0953E2,3.0708E2,2.7285715E1,2.5E1,3.165511E2,3.0726E2,1.1655295E-1,3.151E2,6E0,3.0604E2,3.168757E2,3.2E1,2.5285715E1,1.7468052E-1,4.225478E-1,3.1395E2,2.4E1,3.0782E2,2.6392857E1,-2.2361232E-2,2.7E1,1.007103E0,1E0,6.710329E-2,-8.4408E-2,3.3E1,2.9428572E1,2.9106855E-2,-2.9072667E-2,-2.4061087E-1,-1.0860606E-1,-9.6633695E-2,3.1368073E-2,2.7638769E-2,2.1367069E-1,4.4800993E-2,1.6831978E-1,1.720229E-1,1.2945525E-2,5.440833E-2,2.5792578E-1,5.1934194E-2,6.42643E-3,-2.4411035E-1,-1.528486E-1,3.306246E-3,7.036527E-2,-7.903145E-2,-1.4104167E-1,-8.258452E-2,-2.433507E-1,5.9992713E-3,-1.28948E-1,-1.0080564E-1,-1.7895637E-2,6.5186016E-2,2.3203884E-1,2.3115364E-1,1.3300355E-2],"split_indices":[6,6,18,18,18,15,12,15,8,13,4,19,0,0,8,0,15,0,0,0,19,0,13,8,0,17,13,11,15,0,0,0,4,0,14,9,12,0,0,0,8,0,13,0,11,19,1,0,0,11,12,0,0,0,0,0,0,0,0,0,0,0,0,0,0,0,0,0,0,0,0,0,0,0,0,0,0,0,0,0,0,0,0],"split_type":[0,0,0,0,0,0,0,0,0,0,0,0,0,0,0,0,0,0,0,0,0,0,0,0,0,0,0,0,0,0,0,0,0,0,0,0,0,0,0,0,0,0,0,0,0,0,0,0,0,0,0,0,0,0,0,0,0,0,0,0,0,0,0,0,0,0,0,0,0,0,0,0,0,0,0,0,0,0,0,0,0,0,0],"sum_hessian":[6.57E2,2.82E2,3.75E2,9.4E1,1.88E2,3.33E2,4.2E1,8.7E1,7E0,1.6E2,2.8E1,1.48E2,1.85E2,2E0,4E1,6E0,8.1E1,6E0,1E0,4.6E1,1.14E2,1E0,2.7E1,7.5E1,7.3E1,1.1E1,1.74E2,4E0,3.6E1,3E0,3E0,4E1,4.1E1,9E0,3.7E1,8.7E1,2.7E1,2E0,2.5E1,2E0,7.3E1,3E0,7E1,1E0,1E1,6E1,1.14E2,2E0,2E0,1.7E1,1.9E1,1E0,2E0,1.5E1,2.5E1,2.8E1,1.3E1,1E0,8E0,2.8E1,9E0,8.2E1,5E0,2E0,2.5E1,1E0,1E0,1.7E1,5.6E1,1E0,2E0,3.9E1,3.1E1,3E0,7E0,4.7E1,1.3E1,9.3E1,2.1E1,1.4E1,3E0,1.7E1,2E0],"tree_param":{"num_deleted":"0","num_feature":"20","num_nodes":"83","size_leaf_vector":"1"}},{"base_weights":[7.421751E-2,2.0530014E0,-1.4656229E0,-1.3266741E0,3.647125E0,-1.9816154E0,2.552404E0,-1.8245035E0,3.0375438E0,3.0009818E0,3.9030942E-1,-2.706284E0,-1.4324816E0,-5.815773E-2,2.7620203E0,-2.5277108E-1,-1.6025394E0,3.636553E0,6.149459E-2,2.1364896E0,3.5404959E0,-3.5043654E0,-1.8588455E0,-4.4532084E0,-1.3273373E0,1.0799633E0,3.20135E0,-2.3260055E-1,-2.0781415E0,4.0400267E-2,1.9866551E-1,7.533216E-1,3.0077329E0,2.395862E0,3.8682456E0,-2.9746919E0,-2.9524213E-1,1.5225258E0,-2.0304136E0,-2.5846648E-1,-2.1815015E-2,-8.254594E-1,-1.8889517E0,1.9803573E0,-3.828585E-2,3.692738E0,9.1885895E-1,-1.12269126E-1,2.4573775E-2,-1.563625E-1,-5.919519E-2,1.4837988E-1,7.268689E-4,-3.4116197E-2,1.6545396E-1,9.166755E-2,1.9826703E-1,1.971062E-1,-4.9203254E-2,-1.6166571E-1,-5.605867E-2,3.2236099E-3,9.935265E-2,-1.2724845E-1,-4.5651205E-2,-4.7322232E-2,1.7009382E-1,-1.4645237E-1,-5.832277E-2,1.17794886E-1,-6.822109E-3,2.002679E-1,-1.9565583E-3,-6.742096E-2,1.047727E-1],"categories":[],"categories_nodes":[],"categories_segments":[],"categories_sizes":[],"default_left":[0,0,0,0,0,0,0,0,0,0,0,0,0,0,0,0,0,0,0,0,0,0,0,0,0,0,0,0,0,0,0,0,0,0,0,0,0,0,0,0,0,0,0,0,0,0,0,0,0,0,0,0,0,0,0,0,0,0,0,0,0,0,0,0,0,0,0,0,0,0,0,0,0,0,0],"id":2,"left_children":[1,3,5,7,9,11,13,15,17,19,-1,21,23,-1,25,-1,27,29,-1,31,33,35,37,39,41,43,45,47,49,-1,-1,51,53,55,57,59,-1,61,63,-1,-1,65,67,69,-1,71,73,-1,-1,-1,-1,-1,-1,-1,-1,-1,-1,-1,-1,-1,-1,-1,-1,-1,-1,-1,-1,-1,-1,-1,-1,-1,-1,-1,-1],"loss_changes":[2.0262246E3,1.5726361E3,7.804616E2,2.0976984E2,5.0866895E2,1.2823938E2,3.670288E1,5.285605E1,6.355438E0,7.31239E1,0E0,8.952405E1,5.475302E1,0E0,2.6840729E1,0E0,5.229181E1,3.457283E0,0E0,8.088443E1,3.0123413E1,7.398071E1,4.4281006E1,1.5004181E1,5.0867065E1,1.8134789E1,3.249774E1,3.316651E1,5.2586792E1,0E0,0E0,4.5761276E1,4.8961212E1,1.5684219E1,3.2557617E1,2.5615967E1,0E0,2.581112E0,3.677359E1,0E0,0E0,5.436419E1,6.1960876E1,5.8860455E0,0E0,3.0489777E1,2.1499228E1,0E0,0E0,0E0,0E0,0E0,0E0,0E0,0E0,0E0,0E0,0E0,0E0,0E0,0E0,0E0,0E0,0E0,0E0,0E0,0E0,0E0,0E0,0E0,0E0,0E0,0E0,0E0,0E0],"parents":[2147483647,0,0,1,1,2,2,3,3,4,4,5,5,6,6,7,7,8,8,9,9,11,11,12,12,14,14,16,16,17,17,19,19,20,20,21,21,22,22,23,23,24,24,25,25,26,26,27,27,28,28,31,31,32,32,33,33,34,34,35,35,37,37,38,38,41,41,42,42,43,43,45,45,46,46],"right_children":[2,4,6,8,10,12,14,16,18,20,-1,22,24,-1,26,-1,28,30,-1,32,34,36,38,40,42,44,46,48,50,-1,-1,52,54,56,58,60,-1,62,64,-1,-1,66,68,70,-1,72,74,-1,-1,-1,-1,-1,-1,-1,-1,-1,-1,-1,-1,-1,-1,-1,-1,-1,-1,-1,-1,-1,-1,-1,-1,-1,-1,-1,-1],"split_conditions":[3E0,1E0,1E0,1E0,1E0,3.1608786E2,2.4857143E1,2E1,2.6E1,3.1545E2,3.9030942E-1,9.994213E-1,3.1007E2,-5.815773E-2,3.1335E2,-2.5277108E-1,3.1361E2,2.4E1,6.149459E-2,1.5E1,2.6357143E1,3.1946E2,3.0822E2,1E0,3.1777286E2,3.1261E2,3.2117E2,3.0846E2,3.1730713E2,4.0400267E-2,1.9866551E-1,9.83254E-1,2.5714285E1,2.8E1,3.5E1,3.3E1,-2.9524213E-1,3.0782E2,3.1699E2,-2.5846648E-1,-2.1815015E-2,3.7E1,3.1916287E2,2.7571428E1,-3.828585E-2,3.6E1,2.6857143E1,-1.12269126E-1,2.4573775E-2,-1.563625E-1,-5.919519E-2,1.4837988E-1,7.268689E-4,-3.4116197E-2,1.6545396E-1,9.166755E-2,1.9826703E-1,1.971062E-1,-4.9203254E-2,-1.6166571E-1,-5.605867E-2,3.2236099E-3,9.935265E-2,-1.2724845E-1,-4.5651205E-2,-4.7322232E-2,1.7009382E-1,-1.4645237E-1,-5.832277E-2,1.17794886E-1,-6.822109E-3,2.002679E-1,-1.9565583E-3,-6.742096E-2,1.047727E-1],"split_indices":[6,6,18,18,18,15,12,9,11,17,0,19,0,0,0,0,17,9,0,5,13,0,0,1,14,0,17,17,14,0,0,19,13,9,11,9,0,0,0,0,0,11,14,12,0,9,12,0,0,0,0,0,0,0,0,0,0,0,0,0,0,0,0,0,0,0,0,0,0,0,0,0,0,0,0],"split_type":[0,0,0,0,0,0,0,0,0,0,0,0,0,0,0,0,0,0,0,0,0,0,0,0,0,0,0,0,0,0,0,0,0,0,0,0,0,0,0,0,0,0,0,0,0,0,0,0,0,0,0,0,0,0,0,0,0,0,0,0,0,0,0,0,0,0,0,0,0,0,0,0,0,0,0],"sum_hessian":[6.63E2,2.9E2,3.73E2,9.3E1,1.97E2,3.31E2,4.2E1,8.4E1,9E0,1.72E2,2.5E1,1.41E2,1.9E2,2E0,4E1,4E0,8E1,6E0,3E0,6.8E1,1.04E2,7.1E1,7E1,5E0,1.85E2,9E0,3.1E1,2.1E1,5.9E1,1E0,5E0,2.7E1,4.1E1,2.5E1,7.9E1,6E1,1.1E1,3E0,6.7E1,4E0,1E0,9.9E1,8.6E1,6E0,3E0,2.5E1,6E0,5E0,1.6E1,2.6E1,3.3E1,6E0,2.1E1,3E0,3.8E1,2E1,5E0,7.8E1,1E0,5.2E1,8E0,1E0,2E0,4.5E1,2.2E1,9.7E1,2E0,3.4E1,5.2E1,5E0,1E0,2.3E1,2E0,2E0,4E0],"tree_param":{"num_deleted":"0","num_feature":"20","num_nodes":"75","size_leaf_vector":"1"}},{"base_weights":[-6.7306594E-3,1.8931093E0,-1.4767694E0,-1.2535385E0,3.5122633E0,-1.9631475E0,2.4825315E0,-1.6510044E0,2.6079955E0,2.9180846E0,7.531023E0,-2.6480458E0,-1.5406369E0,-5.6219168E-2,2.6859026E0,-1.9428425E0,3.1682014E-1,3.0142288E0,3.276876E-2,2.1174943E0,3.4571621E0,3.8938355E-1,1.5265252E-1,-2.7545002E0,1.4205036E0,-1.3007729E0,-2.710487E0,-2.2410622E-1,3.006555E0,-2.2172525E0,8.72607E-1,-1.5122598E-1,1.1992928E0,7.202392E-2,1.8351917E-1,2.935948E0,1.1450034E0,1.6273228E0,3.636421E0,-4.502851E-1,-2.967287E0,8.954389E-2,7.734537E-3,-1.5499866E0,1.800505E0,-3.5358999E0,-1.7858596E0,6.1157104E-2,-7.983262E-2,7.7386975E-1,3.5017192E0,-1.9012699E-1,-8.9553975E-2,-1.0486803E-1,1.1060782E-1,1.3391045E-2,1.1317475E-1,-8.231659E-2,1.5499294E-1,1.5729545E-2,1.2630588E-1,-6.070614E-3,1.5524188E-1,1.8484026E-1,-4.7973156E-2,9.3583606E-2,-7.1611725E-2,-1.594188E-1,-5.564812E-2,-8.664378E-2,-7.461799E-4,-1.1871338E-2,1.3197103E-1,-2.1137826E-1,-9.225296E-2,-4.9256727E-2,-1.5088987E-1,8.268139E-2,-2.5964761E-2,1.8819012E-1,4.286146E-2],"categories":[],"categories_nodes":[],"categories_segments":[],"categories_sizes":[],"default_left":[0,0,0,0,0,0,0,0,0,0,0,0,0,0,0,0,0,0,0,0,0,0,0,0,0,0,0,0,0,0,0,0,0,0,0,0,0,0,0,0,0,0,0,0,0,0,0,0,0,0,0,0,0,0,0,0,0,0,0,0,0,0,0,0,0,0,0,0,0,0,0,0,0,0,0,0,0,0,0,0,0],"id":3,"left_children":[1,3,5,7,9,11,13,15,17,19,21,23,25,-1,27,29,31,33,-1,35,37,-1,-1,39,41,43,45,47,49,51,53,-1,55,-1,-1,57,59,61,63,65,67,-1,-1,69,71,73,75,-1,-1,77,79,-1,-1,-1,-1,-1,-1,-1,-1,-1,-1,-1,-1,-1,-1,-1,-1,-1,-1,-1,-1,-1,-1,-1,-1,-1,-1,-1,-1,-1,-1],"loss_changes":[1.9270613E3,1.5379697E3,7.539775E2,1.6239316E2,4.5320825E2,9.633411E1,3.4562317E1,5.459842E1,5.9567413E0,6.8206055E1,4.9553223E0,6.065088E1,5.736554E1,0E0,3.893094E1,6.528696E1,4.1959614E1,2.9738846E0,0E0,5.474185E1,2.7867798E1,0E0,0E0,6.1423218E1,1.5982637E0,1.4345508E2,2.1160553E1,1.1885008E1,3.8195343E1,4.3859863E1,3.6467033E1,0E0,1.0297806E1,0E0,0E0,3.439572E1,3.934662E1,2.8798561E1,2.9356323E1,3.0041208E1,4.441797E1,0E0,0E0,4.7420227E1,2.4561806E1,1.3250839E1,1.5769493E1,0E0,0E0,9.9601E0,1.7565796E1,0E0,0E0,0E0,0E0,0E0,0E0,0E0,0E0,0E0,0E0,0E0,0E0,0E0,0E0,0E0,0E0,0E0,0E0,0E0,0E0,0E0,0E0,0E0,0E0,0E0,0E0,0E0,0E0,0E0,0E0],"parents":[2147483647,0,0,1,1,2,2,3,3,4,4,5,5,6,6,7,7,8,8,9,9,10,10,11,11,12,12,14,14,15,15,16,16,17,17,19,19,20,20,23,23,24,24,25,25,26,26,27,27,28,28,29,29,30,30,32,32,35,35,36,36,37,37,38,38,39,39,40,40,43,43,44,44,45,45,46,46,49,49,50,50],"right_children":[2,4,6,8,10,12,14,16,18,20,22,24,26,-1,28,30,32,34,-1,36,38,-1,-1,40,42,44,46,48,50,52,54,-1,56,-1,-1,58,60,62,64,66,68,-1,-1,70,72,74,76,-1,-1,78,80,-1,-1,-1,-1,-1,-1,-1,-1,-1,-1,-1,-1,-1,-1,-1,-1,-1,-1,-1,-1,-1,-1,-1,-1,-1,-1,-1,-1,-1,-1],"split_conditions":[3E0,1E0,1E0,1E0,1E0,3.1528E2,2.4857143E1,1.0161635E0,3.5E1,3.154E2,3E1,3.193832E2,3.1875357E2,-5.6219168E-2,2.4E1,3.6E1,2.9E1,3.1737E2,3.276876E-2,9.917553E-1,2.5285715E1,3.8938355E-1,1.5265252E-1,3E0,3.1883E2,3.1861642E2,3.2E2,2.5E1,3.1335E2,3.1527606E2,5E0,-1.5122598E-1,2.6857143E1,7.202392E-2,1.8351917E-1,9.684646E-1,2E1,2.6E1,3.5E1,2.7E1,3.4E1,8.954389E-2,7.734537E-3,1E0,3E0,3.1997E2,1.002679E0,6.1157104E-2,-7.983262E-2,3.1198E2,3E0,-1.9012699E-1,-8.9553975E-2,-1.0486803E-1,1.1060782E-1,1.3391045E-2,1.1317475E-1,-8.231659E-2,1.5499294E-1,1.5729545E-2,1.2630588E-1,-6.070614E-3,1.5524188E-1,1.8484026E-1,-4.7973156E-2,9.3583606E-2,-7.1611725E-2,-1.594188E-1,-5.564812E-2,-8.664378E-2,-7.461799E-4,-1.1871338E-2,1.3197103E-1,-2.1137826E-1,-9.225296E-2,-4.9256727E-2,-1.5088987E-1,8.268139E-2,-2.5964761E-2,1.8819012E-1,4.286146E-2],"split_indices":[6,6,18,18,18,17,12,19,8,17,5,15,15,0,8,8,8,17,0,19,12,0,0,5,0,15,0,11,0,15,4,0,12,0,0,19,5,11,11,10,10,0,0,1,4,14,19,0,0,0,3,0,0,0,0,0,0,0,0,0,0,0,0,0,0,0,0,0,0,0,0,0,0,0,0,0,0,0,0,0,0],"split_type":[0,0,0,0,0,0,0,0,0,0,0,0,0,0,0,0,0,0,0,0,0,0,0,0,0,0,0,0,0,0,0,0,0,0,0,0,0,0,0,0,0,0,0,0,0,0,0,0,0,0,0,0,0,0,0,0,0,0,0,0,0,0,0,0,0,0,0,0,0,0,0,0,0,0,0,0,0,0,0,0,0],"sum_hessian":[6.88E2,3E2,3.88E2,1.02E2,1.98E2,3.46E2,4.2E1,9.3E1,9E0,1.74E2,2.4E1,1.3E2,2.16E2,2E0,4E1,8.1E1,1.2E1,7E0,2E0,7.2E1,1.02E2,2.2E1,2E0,1.27E2,3E0,1.81E2,3.5E1,4E0,3.6E1,7.4E1,7E0,2E0,1E1,3E0,4E0,3.8E1,3.4E1,1E1,9.2E1,1.1E1,1.16E2,2E0,1E0,1.68E2,1.3E1,1.7E1,1.8E1,2E0,2E0,7E0,2.9E1,1.4E1,6E1,2E0,5E0,6E0,4E0,1E0,3.7E1,2.2E1,1.2E1,5E0,5E0,9.1E1,1E0,3E0,8E0,1.03E2,1.3E1,1.5E2,1.8E1,4E0,9E0,1.1E1,6E0,1.2E1,6E0,4E0,3E0,2.6E1,3E0],"tree_param":{"num_deleted":"0","num_feature":"20","num_nodes":"81","size_leaf_vector":"1"}},{"base_weights":[-1.6632538E-2,1.9208432E0,-1.4297485E0,-1.2309223E0,3.3731012E0,-1.884467E0,2.3611336E0,-1.6691624E0,2.8987002E0,2.818897E0,7.181261E0,-3.0489123E0,-1.6052547E0,-2.1663627E-1,2.6381786E0,-1.868206E0,7.3033494E-1,4.0898036E-2,3.3763459E0,1.7742923E0,3.1040149E0,1.0197353E-1,3.6580724E-1,-3.309586E0,1.0942268E-1,-1.4303643E0,-2.6582804E0,-7.717155E-2,5.9118528E-2,2.9857883E0,6.722227E-1,-2.4938495E-1,-1.6716831E0,-1.01372436E-1,2.238938E0,2.1284269E-1,8.258758E-2,-1.1347191E0,2.1391714E0,2.707388E0,3.990567E0,-2.8524366E-1,-3.574523E0,1.1583939E0,-1.2838583E-1,-1.9968296E0,-9.0140486E-1,-3.2108479E0,-9.598496E-1,3.224732E0,-3.9890862E-1,-2.5315398E-1,9.952214E-2,-7.427745E-2,-2.255555E-1,3.7917614E-2,1.4866057E-1,8.552074E-3,-1.03112E-1,1.5105967E-1,5.691532E-2,1.4296584E-1,1.9447709E-2,1.7591266E-1,3.2493252E-1,-1.1598156E-1,1.261177E-1,-2.1805024E-2,-1.8719707E-1,-9.700251E-3,7.724974E-2,-1.3960354E-1,-8.322984E-2,-3.5493795E-2,-1.6774844E-1,-1.0989133E-1,-2.3343582E-1,5.6902792E-2,-7.762507E-2,7.584935E-2,1.8392621E-1,-2.4618769E-2,-5.2993777E-3,-4.183251E-2,2.0736344E-2],"categories":[],"categories_nodes":[],"categories_segments":[],"categories_sizes":[],"default_left":[0,0,0,0,0,0,0,0,0,0,0,0,0,0,0,0,0,0,0,0,0,0,0,0,0,0,0,0,0,0,0,0,0,0,0,0,0,0,0,0,0,0,0,0,0,0,0,0,0,0,0,0,0,0,0,0,0,0,0,0,0,0,0,0,0,0,0,0,0,0,0,0,0,0,0,0,0,0,0,0,0,0,0,0,0],"id":4,"left_children":[1,3,5,7,9,11,13,15,17,19,21,23,25,27,29,31,33,-1,35,37,39,-1,-1,41,43,45,47,-1,-1,49,51,-1,53,-1,55,-1,-1,57,59,61,63,65,67,69,-1,71,73,75,77,79,81,83,-1,-1,-1,-1,-1,-1,-1,-1,-1,-1,-1,-1,-1,-1,-1,-1,-1,-1,-1,-1,-1,-1,-1,-1,-1,-1,-1,-1,-1,-1,-1,-1,-1],"loss_changes":[1.8371245E3,1.2994932E3,6.7327765E2,1.6771735E2,3.8919336E2,1.0792493E2,3.0566193E1,4.0528E1,6.1829834E0,4.5422485E1,1.723877E0,5.4699646E1,4.8131958E1,1.1105881E1,2.3961517E1,3.825412E1,3.3662144E1,0E0,3.5983658E0,4.382341E1,3.596277E1,0E0,0E0,4.7857178E1,1.982388E1,7.131152E1,3.351947E1,0E0,0E0,2.7166412E1,9.04284E0,0E0,3.1880066E1,0E0,3.1810303E0,0E0,0E0,6.4083285E0,2.7458435E1,3.235034E1,2.3335571E1,4.0121384E1,2.8142883E1,2.91393E0,0E0,2.6264313E1,5.7769257E1,3.2567688E1,1.5443436E1,1.766861E1,2.9949516E-2,2.2955112E0,0E0,0E0,0E0,0E0,0E0,0E0,0E0,0E0,0E0,0E0,0E0,0E0,0E0,0E0,0E0,0E0,0E0,0E0,0E0,0E0,0E0,0E0,0E0,0E0,0E0,0E0,0E0,0E0,0E0,0E0,0E0,0E0,0E0],"parents":[2147483647,0,0,1,1,2,2,3,3,4,4,5,5,6,6,7,7,8,8,9,9,10,10,11,11,12,12,13,13,14,14,15,15,16,16,18,18,19,19,20,20,23,23,24,24,25,25,26,26,29,29,30,30,32,32,34,34,37,37,38,38,39,39,40,40,41,41,42,42,43,43,45,45,46,46,47,47,48,48,49,49,50,50,51,51],"right_children":[2,4,6,8,10,12,14,16,18,20,22,24,26,28,30,32,34,-1,36,38,40,-1,-1,42,44,46,48,-1,-1,50,52,-1,54,-1,56,-1,-1,58,60,62,64,66,68,70,-1,72,74,76,78,80,82,84,-1,-1,-1,-1,-1,-1,-1,-1,-1,-1,-1,-1,-1,-1,-1,-1,-1,-1,-1,-1,-1,-1,-1,-1,-1,-1,-1,-1,-1,-1,-1,-1,-1],"split_conditions":[3E0,1E0,1E0,1E0,1E0,3.1492215E2,2.4E1,3.6E1,9.8260075E-1,2.3E1,2E0,3.3E1,3.2E1,1.0132418E0,3.3E1,2E1,5E0,4.0898036E-2,2.7E1,2.1E1,3.1883E2,1.0197353E-1,3.6580724E-1,2.2E1,3.1652E2,3.1643E2,1E0,-7.717155E-2,5.9118528E-2,3E0,5E0,-2.4938495E-1,3E0,-1.01372436E-1,3.1288E2,2.1284269E-1,8.258758E-2,1E0,3.1593286E2,3.1E1,2.8214285E1,3.1611E2,1.9E1,2.6E1,-1.2838583E-1,3.1529144E2,3.1998465E2,3.2E1,3.1261E2,3.1431E2,3.1906E2,3.4E1,9.952214E-2,-7.427745E-2,-2.255555E-1,3.7917614E-2,1.4866057E-1,8.552074E-3,-1.03112E-1,1.5105967E-1,5.691532E-2,1.4296584E-1,1.9447709E-2,1.7591266E-1,3.2493252E-1,-1.1598156E-1,1.261177E-1,-2.1805024E-2,-1.8719707E-1,-9.700251E-3,7.724974E-2,-1.3960354E-1,-8.322984E-2,-3.5493795E-2,-1.6774844E-1,-1.0989133E-1,-2.3343582E-1,5.6902792E-2,-7.762507E-2,7.584935E-2,1.8392621E-1,-2.4618769E-2,-5.2993777E-3,-4.183251E-2,2.0736344E-2],"split_indices":[6,6,18,18,18,15,8,8,19,9,4,9,8,19,8,9,4,0,10,8,0,0,0,10,0,0,1,0,0,3,4,0,3,0,0,0,0,1,14,8,13,0,8,10,0,14,15,9,0,0,0,8,0,0,0,0,0,0,0,0,0,0,0,0,0,0,0,0,0,0,0,0,0,0,0,0,0,0,0,0,0,0,0,0,0],"split_type":[0,0,0,0,0,0,0,0,0,0,0,0,0,0,0,0,0,0,0,0,0,0,0,0,0,0,0,0,0,0,0,0,0,0,0,0,0,0,0,0,0,0,0,0,0,0,0,0,0,0,0,0,0,0,0,0,0,0,0,0,0,0,0,0,0,0,0,0,0,0,0,0,0,0,0,0,0,0,0,0,0,0,0,0,0],"sum_hessian":[6.69E2,2.82E2,3.87E2,8.9E1,1.93E2,3.46E2,4.1E1,8.1E1,8E0,1.7E2,2.3E1,6.5E1,2.81E2,4E0,3.7E1,7.5E1,6E0,2E0,6E0,3.8E1,1.32E2,1E0,2.2E1,6E1,5E0,2.43E2,3.8E1,2E0,2E0,3.1E1,6E0,3E0,7.2E1,2E0,4E0,3E0,3E0,4E0,3.4E1,9.4E1,3.8E1,5E0,5.5E1,4E0,1E0,1.16E2,1.27E2,2.8E1,1E1,2.9E1,2E0,4E0,2E0,6.9E1,3E0,2E0,2E0,2E0,2E0,1.7E1,1.7E1,8.8E1,6E0,3.4E1,4E0,3E0,2E0,3E0,5.2E1,1E0,3E0,3.2E1,8.4E1,1.19E2,8E0,1.8E1,1E1,2E0,8E0,7E0,2.2E1,1E0,1E0,2E0,2E0],"tree_param":{"num_deleted":"0","num_feature":"20","num_nodes":"85","size_leaf_vector":"1"}},{"base_weights":[-6.811904E-2,1.7450376E0,-1.3604977E0,-1.111147E0,3.2936246E0,-1.8042016E0,2.219367E0,-1.5387746E0,2.5663874E0,2.76073E0,3.3989185E-1,-2.4207342E0,-1.315451E0,1.497053E0,3.5641913E0,-1.8537046E0,7.29996E-2,3.2587018E0,5.4193478E-2,1.3473985E0,3.0543537E0,-2.1398287E0,-4.2519917E0,-7.062806E-1,-1.7943808E0,4.3374264E-1,2.6023345E0,2.4226935E-1,2.4390547E0,5.0298613E-1,-2.1730163E0,-1.2209257E0,1.9110358E0,1.7790185E-1,3.656726E-2,2.6098578E0,3.6076695E-1,-8.168154E-2,3.10153E0,-5.1354295E-1,-2.3178642E0,-5.112222E0,-3.24428E-2,-1.4441211E0,-7.236889E-2,-2.1875057E0,-3.9478964E-1,1.5803975E0,-3.3537796E-1,3.1983836E0,-4.239947E-2,3.481315E-2,2.7877197E0,-8.362784E-2,8.3714925E-2,-2.753969E-1,-8.500132E-2,-9.552362E-2,1.4550614E-2,1.4153586E-1,-9.01763E-2,1.643464E-1,1.3235879E-2,4.643917E-2,-6.509163E-2,1.6363631E-1,7.0018336E-2,-8.867787E-2,1.18059866E-1,-1.189362E-1,4.7500484E-2,-2.647338E-1,-5.9385397E-2,3.0026003E-3,-9.58026E-2,2.2123178E-2,-1.4152735E-1,-1.6207042E-1,-6.97773E-2,2.028457E-3,-1.3997026E-1,1.0686233E-1,6.2758126E-3,-6.2161732E-2,3.1418752E-2,2.0132156E-1,7.80628E-2,1.548734E-1,1.5487052E-2],"categories":[],"categories_nodes":[],"categories_segments":[],"categories_sizes":[],"default_left":[0,0,0,0,0,0,0,0,0,0,0,0,0,0,0,0,0,0,0,0,0,0,0,0,0,0,0,0,0,0,0,0,0,0,0,0,0,0,0,0,0,0,0,0,0,0,0,0,0,0,0,0,0,0,0,0,0,0,0,0,0,0,0,0,0,0,0,0,0,0,0,0,0,0,0,0,0,0,0,0,0,0,0,0,0,0,0,0,0],"id":5,"left_children":[1,3,5,7,9,11,13,15,17,19,-1,21,23,25,27,29,31,33,-1,35,37,39,41,43,45,47,49,-1,51,53,55,57,59,-1,-1,61,63,-1,65,67,69,71,-1,73,75,77,79,81,83,85,-1,-1,87,-1,-1,-1,-1,-1,-1,-1,-1,-1,-1,-1,-1,-1,-1,-1,-1,-1,-1,-1,-1,-1,-1,-1,-1,-1,-1,-1,-1,-1,-1,-1,-1,-1,-1,-1,-1],"loss_changes":[1.6215839E3,1.277498E3,6.4571783E2,1.643558E2,3.304325E2,1.05294556E2,3.837657E1,4.6834183E1,7.758049E0,6.3942627E1,0E0,7.2178345E1,5.7957886E1,3.530423E1,9.804642E0,5.9036926E1,4.038574E1,2.6935349E0,0E0,3.6425915E1,3.4923706E1,3.9055298E1,5.867343E1,4.245854E1,6.1310577E1,1.55226E1,3.356063E1,0E0,4.135521E0,2.8282763E1,9.78985E1,1.0981488E1,2.9018763E1,0E0,0E0,1.9771614E1,1.820803E1,0E0,3.444214E1,5.8520927E1,2.7120117E1,5.168152E0,0E0,2.9929405E1,7.2252396E1,6.892557E1,2.7332201E1,5.4027863E0,1.04056635E1,1.1336761E1,0E0,0E0,5.1809845E0,0E0,0E0,0E0,0E0,0E0,0E0,0E0,0E0,0E0,0E0,0E0,0E0,0E0,0E0,0E0,0E0,0E0,0E0,0E0,0E0,0E0,0E0,0E0,0E0,0E0,0E0,0E0,0E0,0E0,0E0,0E0,0E0,0E0,0E0,0E0,0E0],"parents":[2147483647,0,0,1,1,2,2,3,3,4,4,5,5,6,6,7,7,8,8,9,9,11,11,12,12,13,13,14,14,15,15,16,16,17,17,19,19,20,20,21,21,22,22,23,23,24,24,25,25,26,26,28,28,29,29,30,30,31,31,32,32,35,35,36,36,38,38,39,39,40,40,41,41,43,43,44,44,45,45,46,46,47,47,48,48,49,49,52,52],"right_children":[2,4,6,8,10,12,14,16,18,20,-1,22,24,26,28,30,32,34,-1,36,38,40,42,44,46,48,50,-1,52,54,56,58,60,-1,-1,62,64,-1,66,68,70,72,-1,74,76,78,80,82,84,86,-1,-1,88,-1,-1,-1,-1,-1,-1,-1,-1,-1,-1,-1,-1,-1,-1,-1,-1,-1,-1,-1,-1,-1,-1,-1,-1,-1,-1,-1,-1,-1,-1,-1,-1,-1,-1,-1,-1],"split_conditions":[3E0,1E0,1E0,1E0,1E0,3.1608786E2,3.1732214E2,3.2116E2,2.6E1,2.6178572E1,3.3989185E-1,3.1946E2,3.1761856E2,2.9E1,2.9E1,3.1443787E2,5E0,2.8071428E1,5.4193478E-2,3.1526E2,3.0726E2,2.2E1,3.1669E2,5E0,1E0,2.6607143E1,2.7E1,2.4226935E-1,2.6964285E1,2.9E1,3.1481927E2,3.2286E2,3.1938858E2,1.7790185E-1,3.656726E-2,2.6035715E1,3.1559927E2,-8.168154E-2,3.1E1,3.1611E2,3.2396E2,3.4E1,-3.24428E-2,2.7E1,3.2E1,3.1916287E2,3.2185E2,3.1824E2,5E0,3.1524E2,-4.239947E-2,3.481315E-2,3.4E1,-8.362784E-2,8.3714925E-2,-2.753969E-1,-8.500132E-2,-9.552362E-2,1.4550614E-2,1.4153586E-1,-9.01763E-2,1.643464E-1,1.3235879E-2,4.643917E-2,-6.509163E-2,1.6363631E-1,7.0018336E-2,-8.867787E-2,1.18059866E-1,-1.189362E-1,4.7500484E-2,-2.647338E-1,-5.9385397E-2,3.0026003E-3,-9.58026E-2,2.2123178E-2,-1.4152735E-1,-1.6207042E-1,-6.97773E-2,2.028457E-3,-1.3997026E-1,1.0686233E-1,6.2758126E-3,-6.2161732E-2,3.1418752E-2,2.0132156E-1,7.80628E-2,1.548734E-1,1.5487052E-2],"split_indices":[6,6,18,18,18,15,15,0,11,13,0,0,14,10,8,15,4,13,0,0,17,10,17,4,1,13,5,0,13,8,15,0,14,0,0,13,15,0,8,0,17,10,0,10,8,14,17,0,4,14,0,0,8,0,0,0,0,0,0,0,0,0,0,0,0,0,0,0,0,0,0,0,0,0,0,0,0,0,0,0,0,0,0,0,0,0,0,0,0],"split_type":[0,0,0,0,0,0,0,0,0,0,0,0,0,0,0,0,0,0,0,0,0,0,0,0,0,0,0,0,0,0,0,0,0,0,0,0,0,0,0,0,0,0,0,0,0,0,0,0,0,0,0,0,0,0,0,0,0,0,0,0,0,0,0,0,0,0,0,0,0,0,0,0,0,0,0,0,0,0,0,0,0,0,0,0,0,0,0,0,0],"sum_hessian":[6.9E2,2.87E2,4.03E2,1.01E2,1.86E2,3.59E2,4.4E1,9.1E1,1E1,1.63E2,2.3E1,1.57E2,2.02E2,3E1,1.4E1,7.6E1,1.5E1,6E0,4E0,2.9E1,1.34E2,1.38E2,1.9E1,9E1,1.12E2,1.6E1,1.4E1,5E0,9E0,9E0,6.7E1,9E0,6E0,5E0,1E0,1.2E1,1.7E1,1E0,1.33E2,1.4E1,1.24E2,1.5E1,4E0,4.1E1,4.9E1,8.7E1,2.5E1,6E0,1E1,1.2E1,2E0,2E0,7E0,3E0,6E0,7E0,6E1,6E0,3E0,5E0,1E0,9E0,3E0,1.3E1,4E0,1.2E2,1.3E1,1E1,4E0,1.22E2,2E0,1.4E1,1E0,1E1,3.1E1,4.2E1,7E0,3.6E1,5.1E1,2.2E1,3E0,4E0,2E0,5E0,5E0,7E0,5E0,6E0,1E0],"tree_param":{"num_deleted":"0","num_feature":"20","num_nodes":"89","size_leaf_vector":"1"}},{"base_weights":[2.379434E-2,1.760182E0,-1.222904E0,-8.744824E-1,3.0541375E0,-1.8701247E0,-8.364409E-1,-1.568046E0,4.3404184E-2,2.8198736E0,5.1099677E0,-1.4587516E0,-3.2220955E0,-2.0558965E-1,-7.2330594E-1,-2.248999E0,6.266538E-3,-9.2138726E-1,1.6084775E0,2.4650338E0,3.6777961E0,2.433313E0,3.2960418E-1,-1.8527309E0,3.5547802E-1,-1.7932146E0,-4.8172045E0,-1.5990075E-1,-1.0165501E0,-1.6473958E0,-2.5413582E-1,-1.9882662E0,1.274945E0,-2.9347062E-2,-2.1351378E0,2.4234462E0,-1.4422898E0,2.5141113E0,-8.9287475E-2,2.1500082E0,4.7864456E0,3.4460316E0,-4.0322876E-1,-2.0295622E0,6.097077E-1,1.334417E-1,-3.4583125E-1,-2.6385233E0,-3.0109954E-1,-2.5355299E0,-5.704489E0,-5.5190694E-1,1.6539876E0,-1.5974398E0,-4.7940215E-1,-1.632288E-1,-5.3200122E-2,-2.902476E-2,-1.2176378E-1,8.866345E-2,-3.2250438E-2,2.7830718E-2,-1.3770257E-1,-1.2345218E-1,3.009801E-2,-1.9086298E-2,1.48409E-1,5.338717E-3,-9.97118E-2,-7.963949E-2,1.280415E-1,-7.099479E-3,1.5091908E-1,2.943208E-1,1.4604744E-1,1.8653855E-1,5.0558377E-2,5.3198338E-3,-3.556199E-2,-1.3801369E-1,-6.5913506E-2,-1.4905961E-2,5.1623117E-2,-6.8029754E-2,1.18086055E-1,-1.4746408E-1,1.9495344E-2,-6.908901E-2,3.1183243E-2,-1.4811507E-1,-1.004181E-2,-3.0832648E-1,-3.8653087E-2,-1.4065619E-1,-1.8473815E-2,1.0736783E-1,-5.1763695E-2,-5.7632633E-2,-1.3082896E-1,5.1733185E-2,-4.1430146E-2],"categories":[],"categories_nodes":[],"categories_segments":[],"categories_sizes":[],"default_left":[0,0,0,0,0,0,0,0,0,0,0,0,0,0,0,0,0,0,0,0,0,0,0,0,0,0,0,0,0,0,0,0,0,0,0,0,0,0,0,0,0,0,0,0,0,0,0,0,0,0,0,0,0,0,0,0,0,0,0,0,0,0,0,0,0,0,0,0,0,0,0,0,0,0,0,0,0,0,0,0,0,0,0,0,0,0,0,0,0,0,0,0,0,0,0,0,0,0,0,0,0],"id":6,"left_children":[1,3,5,7,9,11,13,15,17,19,21,23,25,-1,27,29,31,33,35,37,39,41,-1,43,45,47,49,51,53,55,-1,57,59,61,63,65,67,69,-1,71,73,75,77,79,81,-1,83,85,87,89,91,93,95,97,99,-1,-1,-1,-1,-1,-1,-1,-1,-1,-1,-1,-1,-1,-1,-1,-1,-1,-1,-1,-1,-1,-1,-1,-1,-1,-1,-1,-1,-1,-1,-1,-1,-1,-1,-1,-1,-1,-1,-1,-1,-1,-1,-1,-1,-1,-1],"loss_changes":[1.4503713E3,9.572293E2,9.598517E1,5.927304E1,7.613257E1,7.59436E1,8.818291E1,5.683185E1,6.339077E1,4.2990845E1,5.5367462E1,8.1427475E1,6.657599E1,0E0,3.93239E1,5.4703384E1,4.5552086E1,2.808791E1,4.3275787E1,3.0358215E1,7.101062E1,2.4370487E1,0E0,4.1733063E1,3.4992905E1,2.3170208E1,1.5903503E1,5.993045E1,4.8221893E1,2.6716957E1,0E0,2.9913406E0,1.1668121E1,2.7078087E1,1.1539528E1,2.0997963E1,3.6329327E0,2.7678772E1,0E0,4.4215393E1,3.8209778E1,3.8737488E-1,5.4658425E-1,4.1579376E1,2.9943135E0,0E0,4.992129E1,1.2443245E1,8.856768E0,5.3833466E0,1.8018097E1,2.7424164E1,2.2125072E1,3.0981506E1,4.47405E1,0E0,0E0,0E0,0E0,0E0,0E0,0E0,0E0,0E0,0E0,0E0,0E0,0E0,0E0,0E0,0E0,0E0,0E0,0E0,0E0,0E0,0E0,0E0,0E0,0E0,0E0,0E0,0E0,0E0,0E0,0E0,0E0,0E0,0E0,0E0,0E0,0E0,0E0,0E0,0E0,0E0,0E0,0E0,0E0,0E0,0E0],"parents":[2147483647,0,0,1,1,2,2,3,3,4,4,5,5,6,6,7,7,8,8,9,9,10,10,11,11,12,12,14,14,15,15,16,16,17,17,18,18,19,19,20,20,21,21,23,23,24,24,25,25,26,26,27,27,28,28,29,29,31,31,32,32,33,33,34,34,35,35,36,36,37,37,39,39,40,40,41,41,42,42,43,43,44,44,46,46,47,47,48,48,49,49,50,50,51,51,52,52,53,53,54,54],"right_children":[2,4,6,8,10,12,14,16,18,20,22,24,26,-1,28,30,32,34,36,38,40,42,-1,44,46,48,50,52,54,56,-1,58,60,62,64,66,68,70,-1,72,74,76,78,80,82,-1,84,86,88,90,92,94,96,98,100,-1,-1,-1,-1,-1,-1,-1,-1,-1,-1,-1,-1,-1,-1,-1,-1,-1,-1,-1,-1,-1,-1,-1,-1,-1,-1,-1,-1,-1,-1,-1,-1,-1,-1,-1,-1,-1,-1,-1,-1,-1,-1,-1,-1,-1,-1],"split_conditions":[3E0,1E0,3.1580606E2,1.0014447E0,3.2293E2,3.1824E2,3.0985E2,2.7642857E1,2.7428572E1,1.0091841E0,3.1733286E2,3.1699E2,1.3E1,-2.0558965E-1,3.170518E2,2.8E1,2.6E1,2.6642857E1,2.9142857E1,3.228E2,2.6E1,2.7E1,3.2960418E-1,3.4E1,3.1746E2,3.1737E2,2.8E1,2.7892857E1,3.1753E2,3.1388E2,-2.5413582E-1,2.6E1,2.8E1,3.244E2,3.2017E2,2.2E1,6E0,9.684646E-1,-8.9287475E-2,2.5857143E1,6E0,2.7107143E1,3.2406E2,9.985806E-1,3.1412357E2,1.334417E-1,3.1813E2,9E0,5E0,5E0,2.5E1,2.525E1,6E0,2.8285715E1,2.5E1,-1.632288E-1,-5.3200122E-2,-2.902476E-2,-1.2176378E-1,8.866345E-2,-3.2250438E-2,2.7830718E-2,-1.3770257E-1,-1.2345218E-1,3.009801E-2,-1.9086298E-2,1.48409E-1,5.338717E-3,-9.97118E-2,-7.963949E-2,1.280415E-1,-7.099479E-3,1.5091908E-1,2.943208E-1,1.4604744E-1,1.8653855E-1,5.0558377E-2,5.3198338E-3,-3.556199E-2,-1.3801369E-1,-6.5913506E-2,-1.4905961E-2,5.1623117E-2,-6.8029754E-2,1.18086055E-1,-1.4746408E-1,1.9495344E-2,-6.908901E-2,3.1183243E-2,-1.4811507E-1,-1.004181E-2,-3.0832648E-1,-3.8653087E-2,-1.4065619E-1,-1.8473815E-2,1.0736783E-1,-5.1763695E-2,-5.7632633E-2,-1.3082896E-1,5.1733185E-2,-4.1430146E-2],"split_indices":[6,6,15,19,0,0,0,13,12,19,15,0,5,0,15,11,9,13,12,0,10,9,0,9,0,17,10,13,0,0,0,10,10,17,0,11,4,19,0,12,4,13,0,19,15,0,0,5,6,6,5,13,6,12,11,0,0,0,0,0,0,0,0,0,0,0,0,0,0,0,0,0,0,0,0,0,0,0,0,0,0,0,0,0,0,0,0,0,0,0,0,0,0,0,0,0,0,0,0,0,0],"split_type":[0,0,0,0,0,0,0,0,0,0,0,0,0,0,0,0,0,0,0,0,0,0,0,0,0,0,0,0,0,0,0,0,0,0,0,0,0,0,0,0,0,0,0,0,0,0,0,0,0,0,0,0,0,0,0,0,0,0,0,0,0,0,0,0,0,0,0,0,0,0,0,0,0,0,0,0,0,0,0,0,0,0,0,0,0,0,0,0,0,0,0,0,0,0,0,0,0,0,0,0,0],"sum_hessian":[6.68E2,2.79E2,3.89E2,9.2E1,1.87E2,1.44E2,2.45E2,5.2E1,4E1,1.7E2,1.7E1,1.12E2,3.2E1,7E0,2.38E2,3.6E1,1.6E1,2.5E1,1.5E1,1.23E2,4.7E1,7E0,1E1,9.2E1,2E1,1.8E1,1.4E1,8.2E1,1.56E2,3.1E1,5E0,6E0,1E1,1.5E1,1E1,1.2E1,3E0,1.22E2,1E0,2.1E1,2.6E1,5E0,2E0,8.6E1,6E0,4E0,1.6E1,1.1E1,7E0,5E0,9E0,6.8E1,1.4E1,7.4E1,8.2E1,7E0,2.4E1,2E0,4E0,8E0,2E0,1.3E1,2E0,9E0,1E0,2E0,1E1,1E0,2E0,1E0,1.21E2,6E0,1.5E1,1.5E1,1.1E1,4E0,1E0,1E0,1E0,4.1E1,4.5E1,2E0,4E0,1.2E1,4E0,1E1,1E0,3E0,4E0,4E0,1E0,8E0,1E0,4E0,6.4E1,1.2E1,2E0,5.3E1,2.1E1,1.5E1,6.7E1],"tree_param":{"num_deleted":"0","num_feature":"20","num_nodes":"101","size_leaf_vector":"1"}},{"base_weights":[-8.3444364E-2,1.4822176E0,-1.2554231E0,-1.4157525E0,2.908389E0,-1.7075677E0,2.3488693E0,-1.7598408E0,2.06774E0,2.3936777E0,6.102559E0,-2.2147708E0,-1.275718E0,2.674183E0,-1.0292753E-1,-2.513285E0,-8.5321355E-1,2.6650648E0,3.274088E-2,1.5901773E0,2.9029932E0,2.1956532E-1,7.064724E0,-1.6748719E0,-2.7831075E0,-1.8408145E0,-6.524948E-1,1.7889117E0,3.4653006E0,-1.3083655E0,8.2688284E-1,-4.515542E0,-1.9867824E0,-1.7136141E0,-3.2248843E-2,1.4535242E-1,3.637867E-2,2.7717445E0,8.662388E-1,1.7365032E0,3.1695771E0,8.772583E-2,3.6593512E-1,-1.448835E0,-4.296534E0,-2.3105042E-1,-2.4575367E0,-7.2429365E-1,-2.0860434E0,5.941361E-1,-1.168222E0,1.1557956E0,2.0162137E-1,3.669847E0,-5.4133893E-3,-1.3720703E-2,-8.440671E-2,1.7653687E-2,5.6207754E-2,-5.5303335E-2,-2.4017341E-1,-8.389581E-2,-2.1349417E-1,-1.2339566E-1,-1.3683808E-2,-1.2873434E-1,1.7536465E-2,3.3598043E-2,1.775498E-1,-6.7874275E-2,5.645602E-2,1.6658317E-1,5.1489342E-2,1.6192143E-1,-5.8463622E-2,-8.1842475E-2,3.325732E-2,-2.3610638E-1,-5.4214146E-2,-7.563893E-2,-1.4219059E-1,-1.0430602E-2,-9.034176E-2,-1.1792343E-1,-9.377723E-3,-7.930963E-2,5.808825E-2,4.52631E-2,-6.991642E-2,1.1749589E-1,3.038053E-2,9.7510956E-2,2.1835713E-1],"categories":[],"categories_nodes":[],"categories_segments":[],"categories_sizes":[],"default_left":[0,0,0,0,0,0,0,0,0,0,0,0,0,0,0,0,0,0,0,0,0,0,0,0,0,0,0,0,0,0,0,0,0,0,0,0,0,0,0,0,0,0,0,0,0,0,0,0,0,0,0,0,0,0,0,0,0,0,0,0,0,0,0,0,0,0,0,0,0,0,0,0,0,0,0,0,0,0,0,0,0,0,0,0,0,0,0,0,0,0,0,0,0],"id":7,"left_children":[1,3,5,7,9,11,13,15,17,19,21,23,25,27,29,31,33,35,-1,37,39,-1,41,43,45,47,49,51,53,55,57,59,61,63,65,-1,-1,67,69,71,73,-1,-1,75,77,-1,79,81,83,85,87,89,-1,91,-1,-1,-1,-1,-1,-1,-1,-1,-1,-1,-1,-1,-1,-1,-1,-1,-1,-1,-1,-1,-1,-1,-1,-1,-1,-1,-1,-1,-1,-1,-1,-1,-1,-1,-1,-1,-1,-1,-1],"loss_changes":[1.2257542E3,1.1861565E3,6.265414E2,1.17508606E2,3.0105493E2,7.164661E1,3.457216E1,5.728473E1,5.8506317E0,6.3726074E1,1.1785828E1,4.2899536E1,6.4304596E1,2.0414337E1,7.8068376E0,4.0575684E1,2.8905434E1,6.979599E-1,0E0,5.4909622E1,2.5903687E1,0E0,7.3893433E0,4.23676E1,3.2922913E1,2.5048004E1,5.8557014E1,2.3747452E1,1.4285568E1,7.147393E-1,1.6649127E-1,3.5221405E0,2.0337234E1,2.104747E1,2.2324373E1,0E0,0E0,3.852034E1,2.666954E1,2.0242943E1,2.7984192E1,0E0,0E0,3.1693115E1,3.0825653E0,0E0,1.9418793E1,1.022976E1,4.0416138E1,3.5258453E1,3.1801651E1,9.700363E0,0E0,1.3066711E1,0E0,0E0,0E0,0E0,0E0,0E0,0E0,0E0,0E0,0E0,0E0,0E0,0E0,0E0,0E0,0E0,0E0,0E0,0E0,0E0,0E0,0E0,0E0,0E0,0E0,0E0,0E0,0E0,0E0,0E0,0E0,0E0,0E0,0E0,0E0,0E0,0E0,0E0,0E0],"parents":[2147483647,0,0,1,1,2,2,3,3,4,4,5,5,6,6,7,7,8,8,9,9,10,10,11,11,12,12,13,13,14,14,15,15,16,16,17,17,19,19,20,20,22,22,23,23,24,24,25,25,26,26,27,27,28,28,29,29,30,30,31,31,32,32,33,33,34,34,37,37,38,38,39,39,40,40,43,43,44,44,46,46,47,47,48,48,49,49,50,50,51,51,53,53],"right_children":[2,4,6,8,10,12,14,16,18,20,22,24,26,28,30,32,34,36,-1,38,40,-1,42,44,46,48,50,52,54,56,58,60,62,64,66,-1,-1,68,70,72,74,-1,-1,76,78,-1,80,82,84,86,88,90,-1,92,-1,-1,-1,-1,-1,-1,-1,-1,-1,-1,-1,-1,-1,-1,-1,-1,-1,-1,-1,-1,-1,-1,-1,-1,-1,-1,-1,-1,-1,-1,-1,-1,-1,-1,-1,-1,-1,-1,-1],"split_conditions":[3E0,1E0,1E0,1E0,1E0,3.1608786E2,3.2117E2,2.6E1,2.6E1,3.1545E2,3.1563E2,2.6392857E1,5E0,3.165511E2,3.1716037E2,3E0,3.2E1,2.6E1,3.274088E-2,3.1257E2,2.3E1,2.1956532E-1,2E0,3E0,3.0924E2,6E0,3.1622E2,3.3E1,2.8535715E1,2E0,5E0,2E0,3E0,3.173743E2,2E0,1.4535242E-1,3.637867E-2,3E0,2E1,2.4E1,3.5E1,8.772583E-2,3.6593512E-1,3.3E1,6E0,-2.3105042E-1,2.6E1,1E0,1E0,2.5E1,3.1656677E2,3.1433786E2,2.0162137E-1,3.1583E2,-5.4133893E-3,-1.3720703E-2,-8.440671E-2,1.7653687E-2,5.6207754E-2,-5.5303335E-2,-2.4017341E-1,-8.389581E-2,-2.1349417E-1,-1.2339566E-1,-1.3683808E-2,-1.2873434E-1,1.7536465E-2,3.3598043E-2,1.775498E-1,-6.7874275E-2,5.645602E-2,1.6658317E-1,5.1489342E-2,1.6192143E-1,-5.8463622E-2,-8.1842475E-2,3.325732E-2,-2.3610638E-1,-5.4214146E-2,-7.563893E-2,-1.4219059E-1,-1.0430602E-2,-9.034176E-2,-1.1792343E-1,-9.377723E-3,-7.930963E-2,5.808825E-2,4.52631E-2,-6.991642E-2,1.1749589E-1,3.038053E-2,9.7510956E-2,2.1835713E-1],"split_indices":[6,6,18,18,18,15,17,9,11,17,17,13,4,15,15,4,8,5,0,17,9,0,4,3,17,5,17,11,13,3,4,4,3,15,5,0,0,4,8,11,11,0,0,9,6,0,9,1,1,9,15,15,0,17,0,0,0,0,0,0,0,0,0,0,0,0,0,0,0,0,0,0,0,0,0,0,0,0,0,0,0,0,0,0,0,0,0,0,0,0,0,0,0],"split_type":[0,0,0,0,0,0,0,0,0,0,0,0,0,0,0,0,0,0,0,0,0,0,0,0,0,0,0,0,0,0,0,0,0,0,0,0,0,0,0,0,0,0,0,0,0,0,0,0,0,0,0,0,0,0,0,0,0,0,0,0,0,0,0,0,0,0,0,0,0,0,0,0,0,0,0,0,0,0,0,0,0,0,0,0,0,0,0,0,0,0,0,0,0],"sum_hessian":[6.66E2,2.85E2,3.81E2,9.4E1,1.91E2,3.39E2,4.2E1,8.6E1,8E0,1.66E2,2.5E1,1.54E2,1.85E2,3.7E1,5E0,4.6E1,4E1,5E0,3E0,6.6E1,1E2,1.1E1,1.4E1,8.1E1,7.3E1,9.6E1,8.9E1,1.9E1,1.8E1,2E0,3E0,8E0,3.8E1,1.9E1,2.1E1,4E0,1E0,2.4E1,4.2E1,2E1,8E1,1E0,1.3E1,7.6E1,5E0,9E0,6.4E1,1.8E1,7.8E1,2.6E1,6.3E1,1.6E1,3E0,1.7E1,1E0,1E0,1E0,2E0,1E0,1E0,7E0,3.5E1,3E0,1.2E1,7E0,2E0,1.9E1,7E0,1.7E1,4E0,3.8E1,5E0,1.5E1,7.9E1,1E0,7E1,6E0,4E0,1E0,2E1,4.4E1,1.3E1,5E0,6.8E1,1E1,5E0,2.1E1,6E0,5.7E1,4E0,1.2E1,6E0,1.1E1],"tree_param":{"num_deleted":"0","num_feature":"20","num_nodes":"93","size_leaf_vector":"1"}},{"base_weights":[-3.6755856E-3,1.5088077E0,-1.0878698E0,-9.351626E-1,2.782085E0,-1.4561287E0,2.1003017E0,-1.2161338E0,2.342659E0,2.2304063E0,5.6728253E0,-2.5086348E0,-1.2224597E0,1.5681019E0,2.0498072E-1,8.97496E-2,-1.6148773E0,2.825671E0,2.9787445E-2,1.7209691E0,3.7804604E0,1.7648323E-1,6.0784473E0,-2.0576005E0,-4.2540646E0,-2.3894513E0,-1.0581348E0,7.7531207E-1,2.6452792E0,1.6652824E0,-6.0515535E-1,-2.3427143E0,-3.9591938E-1,7.1830176E-2,1.8679352E-1,1.0925165E0,2.201797E0,3.9694967E0,2.5187048E-1,8.5532665E-2,6.1992264E0,-1.0050869E0,-2.6840124E0,-5.1452327E0,-9.8869115E-2,-3.3898616E0,-4.3569067E-1,-1.1311167E0,1.0704939E0,1.09530665E-1,3.1344044E-1,1.0784671E0,3.1641574E0,-3.5120584E-2,1.0884833E-1,-5.809651E-2,4.2606775E-2,-1.3229463E-1,6.373723E-2,-4.7215145E-2,5.1226474E-2,-3.2510806E-2,6.829535E-2,1.2058564E-1,2.8993743E-3,2.0896792E-1,1.3394768E-2,-2.6430131E-3,2.15333E-2,1.3116121E-1,3.2128328E-1,1.16770364E-1,-7.39817E-2,-1.7267546E-1,-4.505089E-2,-7.181635E-2,-2.7349433E-1,-1.7002743E-2,-1.8320632E-1,9.8690055E-2,-8.629435E-2,-5.308595E-2,-1.4280234E-1,1.12783246E-1,-1.02586806E-1,-1.1284984E-2,5.5794176E-2,7.145818E-2,1.8414086E-2,1.6962731E-1,2.7716447E-2],"categories":[],"categories_nodes":[],"categories_segments":[],"categories_sizes":[],"default_left":[0,0,0,0,0,0,0,0,0,0,0,0,0,0,0,0,0,0,0,0,0,0,0,0,0,0,0,0,0,0,0,0,0,0,0,0,0,0,0,0,0,0,0,0,0,0,0,0,0,0,0,0,0,0,0,0,0,0,0,0,0,0,0,0,0,0,0,0,0,0,0,0,0,0,0,0,0,0,0,0,0,0,0,0,0,0,0,0,0,0,0],"id":8,"left_children":[1,3,5,7,9,11,13,15,17,19,21,23,25,27,-1,29,31,33,-1,35,37,-1,39,41,43,45,47,49,51,53,55,57,59,-1,-1,61,63,65,67,-1,69,71,73,75,-1,77,79,81,83,-1,85,87,89,-1,-1,-1,-1,-1,-1,-1,-1,-1,-1,-1,-1,-1,-1,-1,-1,-1,-1,-1,-1,-1,-1,-1,-1,-1,-1,-1,-1,-1,-1,-1,-1,-1,-1,-1,-1,-1,-1],"loss_changes":[1.1036041E3,8.7703204E2,4.632949E2,9.218342E1,2.8237805E2,8.350348E1,3.7196762E1,4.7009064E1,5.0668373E0,1.1746979E2,3.755188E0,4.0843506E1,5.308371E1,2.6984238E1,0E0,2.5094355E1,6.0289474E1,2.2190056E0,0E0,3.3855774E1,2.4347412E1,0E0,1.5286255E0,3.1586304E1,1.4172775E1,6.693274E1,4.0980835E1,1.304081E1,7.969345E0,1.0009712E1,1.397225E1,5.053241E1,2.1999138E1,0E0,0E0,2.6616234E1,3.0011475E1,2.684613E1,1.8621856E-1,0E0,9.584961E-1,3.674521E1,4.0792618E1,1.7763367E0,0E0,1.7992462E1,4.3819885E1,2.6654877E1,3.793142E1,0E0,7.606551E0,7.1896267E-1,4.0799713E0,0E0,0E0,0E0,0E0,0E0,0E0,0E0,0E0,0E0,0E0,0E0,0E0,0E0,0E0,0E0,0E0,0E0,0E0,0E0,0E0,0E0,0E0,0E0,0E0,0E0,0E0,0E0,0E0,0E0,0E0,0E0,0E0,0E0,0E0,0E0,0E0,0E0,0E0],"parents":[2147483647,0,0,1,1,2,2,3,3,4,4,5,5,6,6,7,7,8,8,9,9,10,10,11,11,12,12,13,13,15,15,16,16,17,17,19,19,20,20,22,22,23,23,24,24,25,25,26,26,27,27,28,28,29,29,30,30,31,31,32,32,35,35,36,36,37,37,38,38,40,40,41,41,42,42,43,43,45,45,46,46,47,47,48,48,50,50,51,51,52,52],"right_children":[2,4,6,8,10,12,14,16,18,20,22,24,26,28,-1,30,32,34,-1,36,38,-1,40,42,44,46,48,50,52,54,56,58,60,-1,-1,62,64,66,68,-1,70,72,74,76,-1,78,80,82,84,-1,86,88,90,-1,-1,-1,-1,-1,-1,-1,-1,-1,-1,-1,-1,-1,-1,-1,-1,-1,-1,-1,-1,-1,-1,-1,-1,-1,-1,-1,-1,-1,-1,-1,-1,-1,-1,-1,-1,-1,-1],"split_conditions":[3E0,1E0,1E0,1E0,1E0,3.1492215E2,3.3E1,7E0,5E0,3.1788428E2,9.872202E-1,3.1865E2,3.1177E2,3.1679E2,2.0498072E-1,3.1433572E2,3.1730713E2,2.5E1,2.9787445E-2,2E0,3.2019965E2,1.7648323E-1,2E0,2E0,3.1439035E2,3.1823E2,3.7E1,3.138068E2,5E0,3.1294287E2,2.7785715E1,3E1,6E0,7.1830176E-2,1.8679352E-1,3.135957E2,2.7928572E1,3.2144287E2,3.1727E2,8.5532665E-2,2.2E1,2.2E1,2.1E1,4E0,-9.8869115E-2,3.0635E2,2.65E1,3.7E1,3.1888358E2,1.09530665E-1,3.1566714E2,3.1828857E2,3.2132E2,-3.5120584E-2,1.0884833E-1,-5.809651E-2,4.2606775E-2,-1.3229463E-1,6.373723E-2,-4.7215145E-2,5.1226474E-2,-3.2510806E-2,6.829535E-2,1.2058564E-1,2.8993743E-3,2.0896792E-1,1.3394768E-2,-2.6430131E-3,2.15333E-2,1.3116121E-1,3.2128328E-1,1.16770364E-1,-7.39817E-2,-1.7267546E-1,-4.505089E-2,-7.181635E-2,-2.7349433E-1,-1.7002743E-2,-1.8320632E-1,9.8690055E-2,-8.629435E-2,-5.308595E-2,-1.4280234E-1,1.12783246E-1,-1.02586806E-1,-1.1284984E-2,5.5794176E-2,7.145818E-2,1.8414086E-2,1.6962731E-1,2.7716447E-2],"split_indices":[6,6,18,18,18,15,11,5,4,14,19,0,0,15,0,14,14,11,0,3,15,0,4,3,15,17,11,15,4,14,13,9,4,0,0,14,13,14,0,0,11,10,5,6,0,0,13,10,15,0,14,14,0,0,0,0,0,0,0,0,0,0,0,0,0,0,0,0,0,0,0,0,0,0,0,0,0,0,0,0,0,0,0,0,0,0,0,0,0,0,0],"split_type":[0,0,0,0,0,0,0,0,0,0,0,0,0,0,0,0,0,0,0,0,0,0,0,0,0,0,0,0,0,0,0,0,0,0,0,0,0,0,0,0,0,0,0,0,0,0,0,0,0,0,0,0,0,0,0,0,0,0,0,0,0,0,0,0,0,0,0,0,0,0,0,0,0,0,0,0,0,0,0,0,0,0,0,0,0,0,0,0,0,0,0],"sum_hessian":[6.71E2,2.8E2,3.91E2,9.6E1,1.84E2,3.51E2,4E1,8.9E1,7E0,1.56E2,2.8E1,6.2E1,2.89E2,3.3E1,7E0,2.1E1,6.8E1,5E0,2E0,1.19E2,3.7E1,6E0,2.2E1,5.1E1,1.1E1,3.4E1,2.55E2,2E1,1.3E1,6E0,1.5E1,4.2E1,2.6E1,3E0,2E0,5.3E1,6.6E1,3.5E1,2E0,1E0,2.1E1,2E1,3.1E1,7E0,4E0,2.2E1,1.2E1,2.47E2,8E0,4E0,1.6E1,4E0,9E0,1E0,5E0,1.1E1,4E0,3.9E1,3E0,1.9E1,7E0,7E0,4.6E1,6E1,6E0,3.3E1,2E0,1E0,1E0,2E0,1.9E1,2E0,1.8E1,2.1E1,1E1,1E0,6E0,2E0,2E1,4E0,8E0,2.39E2,8E0,6E0,2E0,1E1,6E0,2E0,2E0,8E0,1E0],"tree_param":{"num_deleted":"0","num_feature":"20","num_nodes":"91","size_leaf_vector":"1"}},{"base_weights":[-2.3164165E-4,-3.832448E-1,3.2311082E0,-1.0668631E-3,-1.3092014E0,4.050215E0,1.6576464E0,-2.9469838E0,1.1389835E-1,-1.8639417E0,-9.3051237E-1,4.2084084E0,1.8998401E-2,1.0413313E0,3.5384748E0,1.036323E0,-3.5900507E0,1.6896281E0,-6.576168E-2,-1.6087129E0,-3.640875E0,-1.0703868E0,6.9595504E-1,3.2018461E0,4.9882326E0,-5.499983E-2,1.3246288E0,3.104248E-2,1.998915E-1,2.1270753E-3,7.5597145E-2,-4.191192E0,-1.0393987E0,9.6570903E-1,3.0684872E0,1.8547422E-1,-1.2009664E0,-2.924969E0,-1.3351709E0,-1.0536331E-1,-2.747234E-1,-7.672572E-1,-1.9248348E0,1.6517606E-1,-1.1584148E0,4.019603E0,8.752812E-1,2.4674096E0,5.732793E0,2.725165E-1,1.9156513E0,1.5354634E-3,-2.3082267E-1,-1.359272E-3,-6.838706E-2,8.963609E-2,-5.356441E-2,1.6363864E-1,1.0319424E-2,3.746589E-3,1.5565307E-1,-1.09481506E-1,-2.5594682E-3,-1.5322584E-1,-4.172597E-2,1.994186E-2,-8.22704E-2,1.094154E-2,-6.224781E-2,-1.2990734E-1,-8.463931E-3,-1.21426105E-1,4.6059992E-2,2.4198374E-2,2.2450624E-1,1.0870304E-1,-3.952141E-3,1.3270776E-1,3.367343E-2,3.217089E-1,9.223747E-2,-1.2731576E-2,3.198658E-2,1.0922565E-1,-2.6045704E-2],"categories":[],"categories_nodes":[],"categories_segments":[],"categories_sizes":[],"default_left":[0,0,0,0,0,0,0,0,0,0,0,0,0,0,0,0,0,0,0,0,0,0,0,0,0,0,0,0,0,0,0,0,0,0,0,0,0,0,0,0,0,0,0,0,0,0,0,0,0,0,0,0,0,0,0,0,0,0,0,0,0,0,0,0,0,0,0,0,0,0,0,0,0,0,0,0,0,0,0,0,0,0,0,0,0],"id":9,"left_children":[1,3,5,7,9,11,13,15,17,19,21,23,-1,25,27,29,31,33,35,37,39,41,43,45,47,-1,49,-1,-1,-1,-1,51,53,55,57,59,61,63,65,-1,-1,67,69,-1,71,73,75,77,79,81,83,-1,-1,-1,-1,-1,-1,-1,-1,-1,-1,-1,-1,-1,-1,-1,-1,-1,-1,-1,-1,-1,-1,-1,-1,-1,-1,-1,-1,-1,-1,-1,-1,-1,-1],"loss_changes":[8.292232E2,2.1197282E2,8.4793274E1,1.4427379E2,3.5028534E1,2.510907E1,2.6454033E1,4.470497E1,1.1618033E2,2.5889587E1,2.4860062E1,1.8565857E1,0E0,1.4196377E1,5.5593033E0,1.3536665E0,1.710994E1,3.8960403E1,1.0546308E2,1.8777908E1,1.1163185E1,2.390599E1,4.734538E1,3.833812E1,2.9023682E1,0E0,1.1292572E1,0E0,0E0,0E0,0E0,1.9891266E1,1.2922282E0,5.0774574E1,7.5101166E0,9.782438E1,7.604968E1,3.5977936E-1,2.9705727E1,0E0,0E0,3.5130367E1,2.9111107E1,0E0,1.8085157E1,2.4444427E1,8.84804E0,5.5758286E-1,3.4489746E1,1.7115095E0,8.99913E0,0E0,0E0,0E0,0E0,0E0,0E0,0E0,0E0,0E0,0E0,0E0,0E0,0E0,0E0,0E0,0E0,0E0,0E0,0E0,0E0,0E0,0E0,0E0,0E0,0E0,0E0,0E0,0E0,0E0,0E0,0E0,0E0,0E0,0E0],"parents":[2147483647,0,0,1,1,2,2,3,3,4,4,5,5,6,6,7,7,8,8,9,9,10,10,11,11,13,13,14,14,15,15,16,16,17,17,18,18,19,19,20,20,21,21,22,22,23,23,24,24,26,26,31,31,32,32,33,33,34,34,35,35,36,36,37,37,38,38,41,41,42,42,44,44,45,45,46,46,47,47,48,48,49,49,50,50],"right_children":[2,4,6,8,10,12,14,16,18,20,22,24,-1,26,28,30,32,34,36,38,40,42,44,46,48,-1,50,-1,-1,-1,-1,52,54,56,58,60,62,64,66,-1,-1,68,70,-1,72,74,76,78,80,82,84,-1,-1,-1,-1,-1,-1,-1,-1,-1,-1,-1,-1,-1,-1,-1,-1,-1,-1,-1,-1,-1,-1,-1,-1,-1,-1,-1,-1,-1,-1,-1,-1,-1,-1],"split_conditions":[1E0,1E0,1E0,3.0871E2,3.1597858E2,3.3E1,3.3E1,1.9E1,9.8659265E-1,3.1579E2,3.7E1,3.1713928E2,1.8998401E-2,2.4857143E1,2.6071428E1,4E0,3.1601392E2,2.7464285E1,3.1E1,9.841832E-1,1E1,3.2E1,3.1628E2,3.165175E2,3.1583E2,-5.499983E-2,3.1701E2,3.104248E-2,1.998915E-1,2.1270753E-3,7.5597145E-2,5E0,1.7E1,2.7E1,1E0,3.2049857E2,3.1849E2,3.1E1,2.3E1,-1.0536331E-1,-2.747234E-1,1E1,3.1984286E2,1.6517606E-1,3.4E1,4E0,2.5E1,2.5E1,3.2484E2,4E0,3.6E1,1.5354634E-3,-2.3082267E-1,-1.359272E-3,-6.838706E-2,8.963609E-2,-5.356441E-2,1.6363864E-1,1.0319424E-2,3.746589E-3,1.5565307E-1,-1.09481506E-1,-2.5594682E-3,-1.5322584E-1,-4.172597E-2,1.994186E-2,-8.22704E-2,1.094154E-2,-6.224781E-2,-1.2990734E-1,-8.463931E-3,-1.21426105E-1,4.6059992E-2,2.4198374E-2,2.2450624E-1,1.0870304E-1,-3.952141E-3,1.3270776E-1,3.367343E-2,3.217089E-1,9.223747E-2,-1.2731576E-2,3.198658E-2,1.0922565E-1,-2.6045704E-2],"split_indices":[18,7,7,17,14,8,11,10,19,14,11,15,0,12,13,4,15,13,8,19,5,8,17,15,17,0,17,0,0,0,0,5,5,11,1,14,17,5,8,0,0,5,14,0,9,4,9,5,17,4,9,0,0,0,0,0,0,0,0,0,0,0,0,0,0,0,0,0,0,0,0,0,0,0,0,0,0,0,0,0,0,0,0,0,0],"split_type":[0,0,0,0,0,0,0,0,0,0,0,0,0,0,0,0,0,0,0,0,0,0,0,0,0,0,0,0,0,0,0,0,0,0,0,0,0,0,0,0,0,0,0,0,0,0,0,0,0,0,0,0,0,0,0,0,0,0,0,0,0,0,0,0,0,0,0,0,0,0,0,0,0,0,0,0,0,0,0,0,0,0,0,0,0],"sum_hessian":[6.68E2,5.98E2,7E1,4.24E2,1.74E2,4.5E1,2.5E1,1.5E1,4.09E2,6.9E1,1.05E2,4.3E1,2E0,2E1,5E0,2E0,1.3E1,4.1E1,3.68E2,6.2E1,7E0,9.7E1,8E0,2.1E1,2.2E1,2E0,1.8E1,1E0,4E0,1E0,1E0,1E1,3E0,2.8E1,1.3E1,3.02E2,6.6E1,9E0,5.3E1,5E0,2E0,7.3E1,2.4E1,3E0,5E0,1.5E1,6E0,6E0,1.6E1,7E0,1.1E1,1E0,9E0,1E0,2E0,2E1,8E0,1.2E1,1E0,2.92E2,1E1,3.5E1,3.1E1,8E0,1E0,8E0,4.5E1,2.4E1,4.9E1,1.7E1,7E0,3E0,2E0,2E0,1.3E1,2E0,4E0,5E0,1E0,1.3E1,3E0,3E0,4E0,1E1,1E0],"tree_param":{"num_deleted":"0","num_feature":"20","num_nodes":"85","size_leaf_vector":"1"}},{"base_weights":[2.3162244E-2,1.3444066E0,-1.0067902E0,-9.676336E-1,2.4994986E0,-1.3470649E0,1.7704749E0,-1.2059567E0,1.983408E0,2.0995383E0,5.3950553E0,-1.2042562E0,-2.2818828E0,7.411887E-1,2.5544436E0,-2.0263596E-1,-1.1011584E0,1.2304465E-1,1.8365098E-2,1.7779577E0,3.1138282E0,3.4878292E0,6.130679E0,-1.9795716E0,-1.0134112E0,-2.7192812E0,-8.524305E-1,1.1169862E0,-1.0412474E0,2.834067E0,-3.4760857E-1,-2.1630254E-1,-1.3722926E0,2.279323E0,1.2511928E0,2.5088692E-1,3.3276215E0,5.209699E-2,1.8316615E-1,1.0846682E-1,3.2708162E-1,-1.3876145E0,-3.3604298E0,-4.1607887E-1,-1.2780063E0,-1.6309305E0,-4.3519297E0,-1.7768501E-1,4.3193437E-2,-3.909925E-2,1.4223145E0,-7.536452E-2,8.922053E-3,1.6379803E0,3.4005466E0,-3.678913E-2,1.0718489E-2,2.519962E-2,-1.1705685E-1,-1.3981816E-1,-4.535873E-2,1.3945578E-1,7.312026E-2,-8.044305E-2,7.016339E-2,2.8566265E-2,-1.7760707E-2,1.2596759E-1,2.1660252E-1,6.200085E-2,-7.730179E-2,4.505706E-2,-1.8415497E-1,-2.9504819E-2,5.7929195E-2,-8.8204645E-2,-3.0397234E-2,-1.3432537E-1,-3.4674615E-2,-9.338536E-2,-2.4552129E-1,-5.4553606E-2,3.4258734E-2,9.9481285E-2,1.1987178E-2,1.02876544E-1,-4.2960595E-2,1.8067701E-1,1.579075E-2],"categories":[],"categories_nodes":[],"categories_segments":[],"categories_sizes":[],"default_left":[0,0,0,0,0,0,0,0,0,0,0,0,0,0,0,0,0,0,0,0,0,0,0,0,0,0,0,0,0,0,0,0,0,0,0,0,0,0,0,0,0,0,0,0,0,0,0,0,0,0,0,0,0,0,0,0,0,0,0,0,0,0,0,0,0,0,0,0,0,0,0,0,0,0,0,0,0,0,0,0,0,0,0,0,0,0,0,0,0],"id":10,"left_children":[1,3,5,7,9,11,13,15,17,19,21,23,25,27,29,-1,31,-1,-1,33,35,37,39,41,43,45,47,49,51,53,55,57,59,61,63,65,67,-1,-1,-1,-1,69,71,73,75,77,79,-1,81,-1,83,-1,-1,85,87,-1,-1,-1,-1,-1,-1,-1,-1,-1,-1,-1,-1,-1,-1,-1,-1,-1,-1,-1,-1,-1,-1,-1,-1,-1,-1,-1,-1,-1,-1,-1,-1,-1,-1],"loss_changes":[9.4440094E2,8.142868E2,3.7094785E2,7.412865E1,2.2376892E2,4.3710144E1,3.2804596E1,2.3879227E1,5.269438E0,5.3175415E1,1.2289246E1,4.297525E1,2.5817825E1,1.4559755E1,2.0460678E1,0E0,2.2015228E1,0E0,0E0,3.3858246E1,2.4872375E1,4.6188354E-2,1.1855835E1,4.3564148E1,3.8348846E1,5.331668E1,2.918536E1,1.0968998E1,2.5426726E0,9.336288E0,8.1216574E-1,3.6381588E1,4.4490814E1,2.5073303E1,3.2703636E1,9.7981495E-1,2.0748169E1,0E0,0E0,0E0,0E0,1.9816849E1,2.6695328E1,2.1783127E1,5.429785E1,1.9906765E1,8.865341E0,0E0,8.029346E0,0E0,9.586283E0,0E0,0E0,1.119714E1,8.057175E0,0E0,0E0,0E0,0E0,0E0,0E0,0E0,0E0,0E0,0E0,0E0,0E0,0E0,0E0,0E0,0E0,0E0,0E0,0E0,0E0,0E0,0E0,0E0,0E0,0E0,0E0,0E0,0E0,0E0,0E0,0E0,0E0,0E0,0E0],"parents":[2147483647,0,0,1,1,2,2,3,3,4,4,5,5,6,6,7,7,8,8,9,9,10,10,11,11,12,12,13,13,14,14,16,16,19,19,20,20,21,21,22,22,23,23,24,24,25,25,26,26,27,27,28,28,29,29,30,30,31,31,32,32,33,33,34,34,35,35,36,36,41,41,42,42,43,43,44,44,45,45,46,46,48,48,50,50,53,53,54,54],"right_children":[2,4,6,8,10,12,14,16,18,20,22,24,26,28,30,-1,32,-1,-1,34,36,38,40,42,44,46,48,50,52,54,56,58,60,62,64,66,68,-1,-1,-1,-1,70,72,74,76,78,80,-1,82,-1,84,-1,-1,86,88,-1,-1,-1,-1,-1,-1,-1,-1,-1,-1,-1,-1,-1,-1,-1,-1,-1,-1,-1,-1,-1,-1,-1,-1,-1,-1,-1,-1,-1,-1,-1,-1,-1,-1],"split_conditions":[3E0,1E0,1E0,1E0,1E0,3.2E1,2.9E1,1.9E1,3.5E1,3.1787143E2,3.1397E2,3.1492215E2,3.4E1,3.204E2,1E0,-2.0263596E-1,7E0,1.2304465E-1,1.8365098E-2,3.1666E2,2.3E1,1E1,3E0,3.150186E2,1E1,3.2E1,3.1E1,3E0,3.1596E2,3.1547E2,3.2097E2,3.1988E2,1.3E1,3.1631714E2,2E1,1E0,1.6E1,5.209699E-2,1.8316615E-1,1.0846682E-1,3.2708162E-1,1.9E1,3.0708E2,3.4E1,5E0,9.9444425E-1,2.8E1,-1.7768501E-1,9.972732E-1,-3.909925E-2,6E0,-7.536452E-2,8.922053E-3,3.1526E2,3.3E1,-3.678913E-2,1.0718489E-2,2.519962E-2,-1.1705685E-1,-1.3981816E-1,-4.535873E-2,1.3945578E-1,7.312026E-2,-8.044305E-2,7.016339E-2,2.8566265E-2,-1.7760707E-2,1.2596759E-1,2.1660252E-1,6.200085E-2,-7.730179E-2,4.505706E-2,-1.8415497E-1,-2.9504819E-2,5.7929195E-2,-8.8204645E-2,-3.0397234E-2,-1.3432537E-1,-3.4674615E-2,-9.338536E-2,-2.4552129E-1,-5.4553606E-2,3.4258734E-2,9.9481285E-2,1.1987178E-2,1.02876544E-1,-4.2960595E-2,1.8067701E-1,1.579075E-2],"split_indices":[6,6,18,18,18,8,10,9,8,14,17,15,9,17,1,0,5,0,0,0,9,5,4,14,5,9,10,4,0,0,0,0,5,14,8,1,5,0,0,0,0,8,0,10,4,19,10,0,19,0,4,0,0,0,8,0,0,0,0,0,0,0,0,0,0,0,0,0,0,0,0,0,0,0,0,0,0,0,0,0,0,0,0,0,0,0,0,0,0],"split_type":[0,0,0,0,0,0,0,0,0,0,0,0,0,0,0,0,0,0,0,0,0,0,0,0,0,0,0,0,0,0,0,0,0,0,0,0,0,0,0,0,0,0,0,0,0,0,0,0,0,0,0,0,0,0,0,0,0,0,0,0,0,0,0,0,0,0,0,0,0,0,0,0,0,0,0,0,0,0,0,0,0,0,0,0,0,0,0,0,0],"sum_hessian":[6.92E2,3.03E2,3.89E2,1.01E2,2.02E2,3.47E2,4.2E1,9.4E1,7E0,1.79E2,2.3E1,3.03E2,4.4E1,1.9E1,2.3E1,2E0,9.2E1,5E0,2E0,1.38E2,4.1E1,8E0,1.5E1,5.8E1,2.45E2,3.3E1,1.1E1,1.6E1,3E0,2.1E1,2E0,2.2E1,7E1,6.9E1,6.9E1,3E0,3.8E1,1E0,7E0,2E0,1.3E1,4.2E1,1.6E1,7.6E1,1.69E2,2.1E1,1.2E1,2E0,9E0,2E0,1.4E1,2E0,1E0,8E0,1.3E1,1E0,1E0,1.7E1,5E0,1.6E1,5.4E1,4.1E1,2.8E1,3E0,6.6E1,2E0,1E0,2.3E1,1.5E1,2E0,4E1,1E0,1.5E1,6.9E1,7E0,9.7E1,7.2E1,9E0,1.2E1,3E0,9E0,3E0,6E0,9E0,5E0,7E0,1E0,1.2E1,1E0],"tree_param":{"num_deleted":"0","num_feature":"20","num_nodes":"89","size_leaf_vector":"1"}},{"base_weights":[6.45661E-2,1.180965E0,-8.5867023E-1,-1.0390406E0,2.3711183E0,-1.5406989E0,-3.9253557E-1,-1.3751706E0,2.763155E-1,2.1935675E0,4.3318152E0,-5.682822E-1,-1.9586993E0,8.0931276E-2,-8.9409596E-1,-1.0366243E0,-3.496872E0,-8.9974934E-1,2.075048E0,1.6991628E0,2.7449374E0,1.695741E-1,4.959116E0,-2.0280685E0,-3.6349297E-2,-2.2019174E0,-2.8999344E-1,4.1218936E-1,-8.6994296E-1,-4.2221868E-1,-2.1598265E0,-1.5297723E0,-1.8943016E-1,-3.814659E-1,-4.146799E0,1.0086684E-1,-1.7132533E-1,1.3372421E-2,2.6621878E0,1.4820058E0,3.9297833E0,6.193018E-1,2.932571E0,5.2357484E-2,-3.9639425E-2,-1.2132025E-2,5.412816E0,7.782068E-1,-3.049961E0,1.9743448E0,-4.5110157E-1,-2.8318272E0,-1.7113677E0,1.9577526E0,-1.3848671E0,1.8949801E0,1.0974282E-1,5.470732E-1,-1.5349538E0,-6.377335E-1,1.8240343E0,-1.665244E0,-2.0509286E-1,-9.7350135E-2,3.4772374E-2,-7.7251546E-2,3.893037E-2,-4.24983E-2,1.3888359E-2,-2.3283029E-1,-7.874925E-2,-8.854806E-2,3.5680104E-2,-8.746624E-3,9.749556E-3,1.7177694E-1,6.11645E-2,8.793047E-2,-1.4580785E-2,2.1827637E-1,2.198944E-2,9.971689E-2,-1.168602E-1,1.2090471E-1,2.1261004E-1,1.4605676E-1,3.1467572E-1,4.7163107E-2,7.076025E-3,-4.4395972E-2,-1.6046132E-1,1.5580316E-1,-1.0303053E-2,-7.719548E-2,1.0265948E-2,-2.1852878E-1,-1.1283177E-1,-4.707612E-2,-1.12226844E-1,1.1150606E-1,2.1706963E-2,-9.408241E-2,-8.46417E-3,1.1432075E-1,-7.984185E-2,-2.3755832E-2,7.03698E-2,8.244644E-2,-7.589712E-2,-1.0157867E-1,1.8060932E-2,-1.4976891E-2,-1.0617826E-1,1.8328E-2,1.1668561E-1,-3.6173485E-2,-1.1431318E-1],"categories":[],"categories_nodes":[],"categories_segments":[],"categories_sizes":[],"default_left":[0,0,0,0,0,0,0,0,0,0,0,0,0,0,0,0,0,0,0,0,0,0,0,0,0,0,0,0,0,0,0,0,0,0,0,0,0,0,0,0,0,0,0,0,0,0,0,0,0,0,0,0,0,0,0,0,0,0,0,0,0,0,0,0,0,0,0,0,0,0,0,0,0,0,0,0,0,0,0,0,0,0,0,0,0,0,0,0,0,0,0,0,0,0,0,0,0,0,0,0,0,0,0,0,0,0,0,0,0,0,0,0,0,0,0,0,0],"id":11,"left_children":[1,3,5,7,9,11,13,15,17,19,21,23,25,27,29,31,33,35,37,39,41,43,45,47,49,51,53,55,57,59,61,63,65,67,69,71,-1,73,75,77,79,81,83,-1,-1,-1,85,87,89,91,93,95,97,99,101,103,105,107,109,111,113,115,-1,-1,-1,-1,-1,-1,-1,-1,-1,-1,-1,-1,-1,-1,-1,-1,-1,-1,-1,-1,-1,-1,-1,-1,-1,-1,-1,-1,-1,-1,-1,-1,-1,-1,-1,-1,-1,-1,-1,-1,-1,-1,-1,-1,-1,-1,-1,-1,-1,-1,-1,-1,-1,-1,-1],"loss_changes":[6.740611E2,7.845392E2,1.13209564E2,4.6361557E1,5.768567E1,5.7825165E1,5.0891415E1,5.59935E1,4.84064E1,4.4131226E1,3.832376E1,3.486916E1,4.035321E1,3.532189E1,6.120411E1,3.0209038E1,2.0690796E1,3.574202E1,1.08588295E1,4.1162354E1,3.1287598E1,3.3638062E0,3.1993805E1,3.6786045E1,2.9244589E1,2.2345886E1,3.71652E1,3.7014626E1,2.8167334E1,3.843901E1,2.0063263E1,4.4061783E1,3.79466E1,1.1626451E0,4.4660645E0,1.3880045E1,0E0,1.3670935E-1,3.58675E0,4.4665924E1,1.0246033E1,3.7183586E1,4.1315613E1,0E0,0E0,0E0,7.948822E0,2.8686285E-1,2.4951172E-1,1.5578554E1,2.1119904E1,2.288501E1,1.923053E1,1.1067371E0,5.720257E0,2.2786503E1,5.379481E1,2.5256468E1,1.9567368E1,3.504155E1,4.34445E0,1.2382599E1,0E0,0E0,0E0,0E0,0E0,0E0,0E0,0E0,0E0,0E0,0E0,0E0,0E0,0E0,0E0,0E0,0E0,0E0,0E0,0E0,0E0,0E0,0E0,0E0,0E0,0E0,0E0,0E0,0E0,0E0,0E0,0E0,0E0,0E0,0E0,0E0,0E0,0E0,0E0,0E0,0E0,0E0,0E0,0E0,0E0,0E0,0E0,0E0,0E0,0E0,0E0,0E0,0E0,0E0,0E0],"parents":[2147483647,0,0,1,1,2,2,3,3,4,4,5,5,6,6,7,7,8,8,9,9,10,10,11,11,12,12,13,13,14,14,15,15,16,16,17,17,18,18,19,19,20,20,21,21,22,22,23,23,24,24,25,25,26,26,27,27,28,28,29,29,30,30,31,31,32,32,33,33,34,34,35,35,37,37,38,38,39,39,40,40,41,41,42,42,46,46,47,47,48,48,49,49,50,50,51,51,52,52,53,53,54,54,55,55,56,56,57,57,58,58,59,59,60,60,61,61],"right_children":[2,4,6,8,10,12,14,16,18,20,22,24,26,28,30,32,34,36,38,40,42,44,46,48,50,52,54,56,58,60,62,64,66,68,70,72,-1,74,76,78,80,82,84,-1,-1,-1,86,88,90,92,94,96,98,100,102,104,106,108,110,112,114,116,-1,-1,-1,-1,-1,-1,-1,-1,-1,-1,-1,-1,-1,-1,-1,-1,-1,-1,-1,-1,-1,-1,-1,-1,-1,-1,-1,-1,-1,-1,-1,-1,-1,-1,-1,-1,-1,-1,-1,-1,-1,-1,-1,-1,-1,-1,-1,-1,-1,-1,-1,-1,-1,-1,-1],"split_conditions":[3E0,1E0,3.157E2,1.0116855E0,3.2293E2,1E1,1.007103E0,1.0067008E0,2.7428572E1,1.8E1,3.158875E2,2.6E1,2.7535715E1,3.1875357E2,2.4E1,2.7392857E1,2.6107143E1,2.7E1,3.1581E2,2.9428572E1,2.5E1,3.2353E2,2.3E1,3E0,2.6357143E1,2.6E1,9.840841E-1,3.1604E2,1E1,3.2426E2,3.4E1,1.0033599E0,3.2E1,3.1422E2,2.8E1,2.9E1,-1.7132533E-1,3.138E2,3.3E1,2.8142857E1,1.3E1,2.7E1,1.0086608E0,5.2357484E-2,-3.9639425E-2,-1.2132025E-2,2.6E1,3.1823E2,2.1E1,2.7E1,3.1321E2,1.4E1,1.9E1,3.1965E2,2.8571428E1,3.2017E2,3.1829E2,3.1902E2,9.976672E-1,2.8E1,1.2E1,3.2017E2,-2.0509286E-1,-9.7350135E-2,3.4772374E-2,-7.7251546E-2,3.893037E-2,-4.24983E-2,1.3888359E-2,-2.3283029E-1,-7.874925E-2,-8.854806E-2,3.5680104E-2,-8.746624E-3,9.749556E-3,1.7177694E-1,6.11645E-2,8.793047E-2,-1.4580785E-2,2.1827637E-1,2.198944E-2,9.971689E-2,-1.168602E-1,1.2090471E-1,2.1261004E-1,1.4605676E-1,3.1467572E-1,4.7163107E-2,7.076025E-3,-4.4395972E-2,-1.6046132E-1,1.5580316E-1,-1.0303053E-2,-7.719548E-2,1.0265948E-2,-2.1852878E-1,-1.1283177E-1,-4.707612E-2,-1.12226844E-1,1.1150606E-1,2.1706963E-2,-9.408241E-2,-8.46417E-3,1.1432075E-1,-7.984185E-2,-2.3755832E-2,7.03698E-2,8.244644E-2,-7.589712E-2,-1.0157867E-1,1.8060932E-2,-1.4976891E-2,-1.0617826E-1,1.8328E-2,1.1668561E-1,-3.6173485E-2,-1.1431318E-1],"split_indices":[6,6,17,19,0,5,19,19,12,5,15,13,13,15,5,13,13,12,0,12,12,0,8,5,13,8,19,17,5,17,11,19,8,0,11,8,0,0,8,12,5,5,19,0,0,0,8,0,10,10,0,5,5,0,12,0,17,17,19,12,5,17,0,0,0,0,0,0,0,0,0,0,0,0,0,0,0,0,0,0,0,0,0,0,0,0,0,0,0,0,0,0,0,0,0,0,0,0,0,0,0,0,0,0,0,0,0,0,0,0,0,0,0,0,0,0,0],"split_type":[0,0,0,0,0,0,0,0,0,0,0,0,0,0,0,0,0,0,0,0,0,0,0,0,0,0,0,0,0,0,0,0,0,0,0,0,0,0,0,0,0,0,0,0,0,0,0,0,0,0,0,0,0,0,0,0,0,0,0,0,0,0,0,0,0,0,0,0,0,0,0,0,0,0,0,0,0,0,0,0,0,0,0,0,0,0,0,0,0,0,0,0,0,0,0,0,0,0,0,0,0,0,0,0,0,0,0,0,0,0,0,0,0,0,0,0,0],"sum_hessian":[6.52E2,2.95E2,3.57E2,1.03E2,1.92E2,1.44E2,2.13E2,8.2E1,2.1E1,1.78E2,1.4E1,4.4E1,1E2,1.1E2,1.03E2,7.2E1,1E1,1.3E1,8E0,9.6E1,8.2E1,2E0,1.2E1,1.1E1,3.3E1,8.7E1,1.3E1,8.2E1,2.8E1,7.6E1,2.7E1,4.5E1,2.7E1,2E0,8E0,1E1,3E0,2E0,6E0,8.9E1,7E0,7E0,7.5E1,1E0,1E0,1E0,1.1E1,3E0,8E0,5E0,2.8E1,3.6E1,5.1E1,4E0,9E0,1.3E1,6.9E1,9E0,1.9E1,7E1,6E0,2.3E1,4E0,3.8E1,7E0,1.1E1,1.6E1,1E0,1E0,6E0,2E0,2E0,8E0,1E0,1E0,3E0,3E0,7.7E1,1.2E1,6E0,1E0,5E0,2E0,5.6E1,1.9E1,4E0,7E0,2E0,1E0,1E0,7E0,3E0,2E0,1E1,1.8E1,8E0,2.8E1,2.2E1,2.9E1,3E0,1E0,6E0,3E0,1.2E1,1E0,4.8E1,2.1E1,6E0,3E0,1.5E1,4E0,5.8E1,1.2E1,2E0,4E0,1E1,1.3E1],"tree_param":{"num_deleted":"0","num_feature":"20","num_nodes":"117","size_leaf_vector":"1"}},{"base_weights":[-5.9980657E-2,1.1686062E0,-9.664188E-1,-8.929205E-1,2.274993E0,-1.3101791E0,2.1000204E0,-1.2155265E0,2.196607E0,1.9665797E0,4.648653E0,-1.8143541E0,-9.128927E-1,-5.6712294E-1,2.3316028E0,-1.4521556E0,1.4801779E0,2.640955E0,4.3492343E-2,1.5696505E0,2.5055273E0,4.4298362E-2,4.792489E0,-2.355743E0,-1.2637047E0,-3.1066144E-1,-1.392964E0,5.1817417E-2,-7.235315E-2,1.0863109E0,2.8858907E0,-1.6751907E0,2.2082815E-1,-2.6242194E-1,2.1047814E0,1.5483758E-1,5.00488E-2,2.0391276E0,2.8959778E-1,1.8188543E0,3.1035278E0,6.961732E-2,2.4490812E-1,-3.3386028E0,-1.6923774E0,1.1774887E0,-1.5943937E0,-1.628702E-2,-2.222738E0,-1.6868702E0,-1.9511107E-1,1.8131498E0,-4.3926126E-1,3.1348054E0,3.9769363E-2,-1.2069779E-1,-3.1970363E-2,4.7988225E-2,-1.0347952E-1,9.1138845E-3,-2.879553E-2,4.1123644E-2,1.2701587E-1,1.3058078E-1,6.120072E-2,4.2813387E-2,-1.24416865E-1,1.0390091E-1,-8.191173E-2,8.2900934E-2,1.7286578E-1,-3.1828746E-2,-1.8649079E-1,-6.3469104E-2,-1.9942906E-1,-2.2638957E-3,1.2046554E-1,-6.828314E-2,-1.9032894E-1,-4.0466476E-2,4.0892098E-2,-1.674672E-1,-4.6977084E-2,-3.7238266E-2,-1.0649041E-1,3.8149204E-2,-8.851287E-2,1.0681494E-1,-1.9301081E-2,4.483668E-3,-4.108877E-2,4.595652E-2,1.6552082E-1],"categories":[],"categories_nodes":[],"categories_segments":[],"categories_sizes":[],"default_left":[0,0,0,0,0,0,0,0,0,0,0,0,0,0,0,0,0,0,0,0,0,0,0,0,0,0,0,0,0,0,0,0,0,0,0,0,0,0,0,0,0,0,0,0,0,0,0,0,0,0,0,0,0,0,0,0,0,0,0,0,0,0,0,0,0,0,0,0,0,0,0,0,0,0,0,0,0,0,0,0,0,0,0,0,0,0,0,0,0,0,0,0,0],"id":12,"left_children":[1,3,5,7,9,11,13,15,17,19,21,23,25,27,29,31,33,35,-1,37,39,-1,41,43,45,47,49,-1,-1,51,53,55,57,59,61,-1,-1,63,65,67,69,-1,-1,71,73,75,77,79,81,83,85,87,89,91,-1,-1,-1,-1,-1,-1,-1,-1,-1,-1,-1,-1,-1,-1,-1,-1,-1,-1,-1,-1,-1,-1,-1,-1,-1,-1,-1,-1,-1,-1,-1,-1,-1,-1,-1,-1,-1,-1,-1],"loss_changes":[7.606305E2,6.634766E2,4.1702057E2,1.0433344E2,1.2921893E2,6.925055E1,2.6028854E1,6.1472504E1,3.5982056E0,3.2220398E1,7.119446E0,4.3230865E1,5.7390045E1,7.143494E0,2.2404282E1,3.2459473E1,9.259813E0,2.1327057E0,0E0,5.9505005E1,2.3099274E1,0E0,3.6611938E-1,4.4553497E1,6.565215E1,5.062178E1,3.8749146E1,0E0,0E0,1.5211432E1,1.0515533E1,5.6611755E1,2.0603527E1,5.232005E-1,1.2616081E0,0E0,0E0,3.0868256E1,4.6207504E1,3.4762634E1,1.2678223E1,0E0,0E0,2.9337769E1,4.1558563E1,1.5171399E1,3.0221146E1,5.292038E1,1.4201031E1,3.5552948E1,3.6060898E1,7.220604E0,1.0853162E0,5.517441E0,0E0,0E0,0E0,0E0,0E0,0E0,0E0,0E0,0E0,0E0,0E0,0E0,0E0,0E0,0E0,0E0,0E0,0E0,0E0,0E0,0E0,0E0,0E0,0E0,0E0,0E0,0E0,0E0,0E0,0E0,0E0,0E0,0E0,0E0,0E0,0E0,0E0,0E0,0E0],"parents":[2147483647,0,0,1,1,2,2,3,3,4,4,5,5,6,6,7,7,8,8,9,9,10,10,11,11,12,12,13,13,14,14,15,15,16,16,17,17,19,19,20,20,22,22,23,23,24,24,25,25,26,26,29,29,30,30,31,31,32,32,33,33,34,34,37,37,38,38,39,39,40,40,43,43,44,44,45,45,46,46,47,47,48,48,49,49,50,50,51,51,52,52,53,53],"right_children":[2,4,6,8,10,12,14,16,18,20,22,24,26,28,30,32,34,36,-1,38,40,-1,42,44,46,48,50,-1,-1,52,54,56,58,60,62,-1,-1,64,66,68,70,-1,-1,72,74,76,78,80,82,84,86,88,90,92,-1,-1,-1,-1,-1,-1,-1,-1,-1,-1,-1,-1,-1,-1,-1,-1,-1,-1,-1,-1,-1,-1,-1,-1,-1,-1,-1,-1,-1,-1,-1,-1,-1,-1,-1,-1,-1,-1,-1],"split_conditions":[3E0,1E0,1E0,1E0,1E0,3.1608786E2,2.4E1,3.6E1,5E0,3.1688858E2,2.6142857E1,9.994213E-1,3.1761856E2,3.1057E2,3.1595856E2,2.7E1,6E0,2.7964285E1,4.3492343E-2,3.1631714E2,1.5E1,4.4298362E-2,2E0,2.5E1,2.2E1,3.2E1,1E0,5.1817417E-2,-7.235315E-2,3.1803E2,3.1E1,3.1693463E2,2.8E1,3.156E2,3.1288E2,1.5483758E-1,5.00488E-2,3.1666E2,3E0,3E1,9.836999E-1,6.961732E-2,2.4490812E-1,3E0,3.1937E2,2.1E1,3E0,5E0,3.1522E2,1E1,3.1867142E2,2.7E1,2.625E1,3.112E2,3.9769363E-2,-1.2069779E-1,-3.1970363E-2,4.7988225E-2,-1.0347952E-1,9.1138845E-3,-2.879553E-2,4.1123644E-2,1.2701587E-1,1.3058078E-1,6.120072E-2,4.2813387E-2,-1.24416865E-1,1.0390091E-1,-8.191173E-2,8.2900934E-2,1.7286578E-1,-3.1828746E-2,-1.8649079E-1,-6.3469104E-2,-1.9942906E-1,-2.2638957E-3,1.2046554E-1,-6.828314E-2,-1.9032894E-1,-4.0466476E-2,4.0892098E-2,-1.674672E-1,-4.6977084E-2,-3.7238266E-2,-1.0649041E-1,3.8149204E-2,-8.851287E-2,1.0681494E-1,-1.9301081E-2,4.483668E-3,-4.108877E-2,4.595652E-2,1.6552082E-1],"split_indices":[6,6,18,18,18,15,8,8,4,14,13,19,14,0,15,5,4,13,0,14,5,0,4,8,10,8,1,0,0,0,8,15,10,0,0,0,0,0,3,8,19,0,0,5,0,10,3,4,0,5,15,5,13,0,0,0,0,0,0,0,0,0,0,0,0,0,0,0,0,0,0,0,0,0,0,0,0,0,0,0,0,0,0,0,0,0,0,0,0,0,0,0,0],"split_type":[0,0,0,0,0,0,0,0,0,0,0,0,0,0,0,0,0,0,0,0,0,0,0,0,0,0,0,0,0,0,0,0,0,0,0,0,0,0,0,0,0,0,0,0,0,0,0,0,0,0,0,0,0,0,0,0,0,0,0,0,0,0,0,0,0,0,0,0,0,0,0,0,0,0,0,0,0,0,0,0,0,0,0,0,0,0,0,0,0,0,0,0,0],"sum_hessian":[6.81E2,2.89E2,3.92E2,1.01E2,1.88E2,3.53E2,3.9E1,9.2E1,9E0,1.68E2,2E1,1.54E2,1.99E2,3E0,3.6E1,8.5E1,7E0,6E0,3E0,9.9E1,6.9E1,1E0,1.9E1,7.6E1,7.8E1,8.9E1,1.1E2,1E0,2E0,1.2E1,2.4E1,7.5E1,1E1,2E0,5E0,4E0,2E0,7.2E1,2.7E1,3.4E1,3.5E1,1E0,1.8E1,2.9E1,4.7E1,9E0,6.9E1,7.8E1,1.1E1,8.8E1,2.2E1,8E0,4E0,2.1E1,3E0,4.3E1,3.2E1,8E0,2E0,1E0,1E0,2E0,3E0,4.1E1,3.1E1,2.3E1,4E0,3.2E1,2E0,8E0,2.7E1,4E0,2.5E1,4.1E1,6E0,5E0,4E0,6.4E1,5E0,4E1,3.8E1,5E0,6E0,2.9E1,5.9E1,1.4E1,8E0,7E0,1E0,2E0,2E0,2E0,1.9E1],"tree_param":{"num_deleted":"0","num_feature":"20","num_nodes":"93","size_leaf_vector":"1"}},{"base_weights":[3.485459E-2,1.2515361E0,-8.809501E-1,-8.5290796E-1,2.319323E0,-1.1991236E0,2.014168E0,-1.0973331E0,1.6589525E0,1.9296154E0,4.9344015E0,-2.1309621E0,-1.0059566E0,1.1610609E0,2.806167E0,-1.9463591E-1,-9.199888E-1,2.1778517E0,2.3293281E-2,1.747453E0,4.1369247E0,5.1401696E0,8.903176E-2,-1.6149391E0,-3.9744728E0,-8.458058E-1,-1.942326E0,5.247949E-1,2.2677271E0,3.1613333E0,1.1794338E0,-1.7697968E0,-5.9513843E-1,1.18496895E-1,3.0435516E-2,1.8649684E0,1.8185377E-1,-2.3704529E-2,4.971421E0,5.2598586E0,6.566749E-2,-1.9336959E0,1.4493573E0,-3.1066036E-2,-4.222821E0,-8.9722556E-1,1.3605194E0,-2.7026284E0,-2.829835E-1,1.2460035E0,-1.4321433E-2,1.0049629E-2,2.578684E0,3.4074004E0,-7.0901397E-3,7.886153E-2,1.942463E-2,-1.119768E-1,1.054155E-1,-5.7241626E-2,9.009404E-3,9.7135454E-2,-3.5015546E-2,3.4665633E-2,-7.918136E-2,1.4269448E-2,-1.6047288E-2,1.2593813E-1,3.0933663E-1,7.57175E-2,2.6857084E-1,-1.10023916E-1,2.6697312E-2,5.4081916E-3,8.788073E-2,-2.246285E-1,-3.813329E-2,-4.1525897E-2,-1.3681354E-1,1.6226584E-1,-1.9660426E-2,-8.216944E-2,-1.9889994E-1,-6.493508E-2,6.438788E-2,9.2643976E-2,1.0750453E-3,5.4646682E-2,-2.434067E-2,3.0245496E-2,1.4262286E-1,4.4424664E-2,1.8765886E-1],"categories":[],"categories_nodes":[],"categories_segments":[],"categories_sizes":[],"default_left":[0,0,0,0,0,0,0,0,0,0,0,0,0,0,0,0,0,0,0,0,0,0,0,0,0,0,0,0,0,0,0,0,0,0,0,0,0,0,0,0,0,0,0,0,0,0,0,0,0,0,0,0,0,0,0,0,0,0,0,0,0,0,0,0,0,0,0,0,0,0,0,0,0,0,0,0,0,0,0,0,0,0,0,0,0,0,0,0,0,0,0,0,0],"id":13,"left_children":[1,3,5,7,9,11,13,15,17,19,21,23,25,27,29,-1,31,33,-1,35,37,39,-1,41,43,45,47,49,51,53,55,57,59,-1,-1,61,63,65,67,69,-1,71,73,-1,75,77,79,81,83,85,87,-1,89,91,-1,-1,-1,-1,-1,-1,-1,-1,-1,-1,-1,-1,-1,-1,-1,-1,-1,-1,-1,-1,-1,-1,-1,-1,-1,-1,-1,-1,-1,-1,-1,-1,-1,-1,-1,-1,-1,-1,-1],"loss_changes":[7.4207385E2,6.446482E2,3.524523E2,6.1374725E1,1.8411053E2,5.9596436E1,2.2416931E1,4.0540085E1,4.5572395E0,5.9919678E1,6.421875E0,4.875653E1,4.124582E1,1.2892591E1,7.248886E0,0E0,2.2411865E1,3.6585808E-1,0E0,2.836206E1,4.178218E1,3.1686401E0,0E0,4.871058E1,7.369278E0,2.9129059E1,5.0960876E1,5.46126E0,3.980362E0,1.2675079E1,9.6042585E-1,4.662072E1,2.7056404E1,0E0,0E0,3.0277313E1,1.19335985E1,3.672203E-1,1.4224579E1,6.404419E-1,0E0,2.948285E1,1.8770533E0,0E0,6.8407745E0,2.7292938E1,2.1108616E1,3.1288437E1,2.4008436E1,4.418888E0,5.240577E0,0E0,1.516716E0,8.859024E0,0E0,0E0,0E0,0E0,0E0,0E0,0E0,0E0,0E0,0E0,0E0,0E0,0E0,0E0,0E0,0E0,0E0,0E0,0E0,0E0,0E0,0E0,0E0,0E0,0E0,0E0,0E0,0E0,0E0,0E0,0E0,0E0,0E0,0E0,0E0,0E0,0E0,0E0,0E0],"parents":[2147483647,0,0,1,1,2,2,3,3,4,4,5,5,6,6,7,7,8,8,9,9,10,10,11,11,12,12,13,13,14,14,16,16,17,17,19,19,20,20,21,21,23,23,24,24,25,25,26,26,27,27,28,28,29,29,30,30,31,31,32,32,35,35,36,36,37,37,38,38,39,39,41,41,42,42,44,44,45,45,46,46,47,47,48,48,49,49,50,50,52,52,53,53],"right_children":[2,4,6,8,10,12,14,16,18,20,22,24,26,28,30,-1,32,34,-1,36,38,40,-1,42,44,46,48,50,52,54,56,58,60,-1,-1,62,64,66,68,70,-1,72,74,-1,76,78,80,82,84,86,88,-1,90,92,-1,-1,-1,-1,-1,-1,-1,-1,-1,-1,-1,-1,-1,-1,-1,-1,-1,-1,-1,-1,-1,-1,-1,-1,-1,-1,-1,-1,-1,-1,-1,-1,-1,-1,-1,-1,-1,-1,-1],"split_conditions":[3E0,1E0,1E0,1E0,1E0,3.1474393E2,2.9E1,2E1,2.6E1,3.200843E2,3E1,3.183E2,3.2E1,3.1713928E2,3.2075E2,-1.9463591E-1,3.1540714E2,2.6E1,2.3293281E-2,3.1E1,2.5E1,3.1959036E2,8.903176E-2,3.3E1,3E0,3.1E1,3.1922287E2,2.8E1,2.4E1,2.3E1,6E0,3E1,5E0,1.18496895E-1,3.0435516E-2,1.0192511E0,3.1867966E2,3.1098E2,9.9436945E-1,3.0669E2,6.566749E-2,3.1766E2,2.6E1,-3.1066036E-2,6E0,3.1998465E2,1.2E1,3.2E1,3.4E1,2.2E1,3.1057E2,1.0049629E-2,3.1562E2,3.112E2,-7.0901397E-3,7.886153E-2,1.942463E-2,-1.119768E-1,1.054155E-1,-5.7241626E-2,9.009404E-3,9.7135454E-2,-3.5015546E-2,3.4665633E-2,-7.918136E-2,1.4269448E-2,-1.6047288E-2,1.2593813E-1,3.0933663E-1,7.57175E-2,2.6857084E-1,-1.10023916E-1,2.6697312E-2,5.4081916E-3,8.788073E-2,-2.246285E-1,-3.813329E-2,-4.1525897E-2,-1.3681354E-1,1.6226584E-1,-1.9660426E-2,-8.216944E-2,-1.9889994E-1,-6.493508E-2,6.438788E-2,9.2643976E-2,1.0750453E-3,5.4646682E-2,-2.434067E-2,3.0245496E-2,1.4262286E-1,4.4424664E-2,1.8765886E-1],"split_indices":[6,6,18,18,18,15,10,9,11,14,5,0,8,15,0,0,15,5,0,8,9,15,0,9,5,8,14,9,8,5,6,9,4,0,0,19,15,0,19,0,0,0,10,0,6,15,5,9,9,5,0,0,0,0,0,0,0,0,0,0,0,0,0,0,0,0,0,0,0,0,0,0,0,0,0,0,0,0,0,0,0,0,0,0,0,0,0,0,0,0,0,0,0],"split_type":[0,0,0,0,0,0,0,0,0,0,0,0,0,0,0,0,0,0,0,0,0,0,0,0,0,0,0,0,0,0,0,0,0,0,0,0,0,0,0,0,0,0,0,0,0,0,0,0,0,0,0,0,0,0,0,0,0,0,0,0,0,0,0,0,0,0,0,0,0,0,0,0,0,0,0,0,0,0,0,0,0,0,0,0,0,0,0,0,0,0,0,0,0],"sum_hessian":[6.64E2,2.85E2,3.79E2,9.6E1,1.89E2,3.42E2,3.7E1,8.8E1,8E0,1.66E2,2.3E1,5.7E1,2.85E2,1.9E1,1.8E1,4E0,8.4E1,5E0,3E0,1.55E2,1.1E1,2.1E1,2E0,4.6E1,1.1E1,2.45E2,4E1,1.3E1,6E0,1.4E1,4E0,2.2E1,6.2E1,4E0,1E0,1.44E2,1.1E1,2E0,9E0,2E1,1E0,4.2E1,4E0,1E0,1E1,2.4E2,5E0,2.7E1,1.3E1,5E0,8E0,1E0,5E0,1.3E1,1E0,2E0,2E0,2E1,2E0,3.6E1,2.6E1,1.4E2,4E0,9E0,2E0,1E0,1E0,4E0,5E0,1E0,1.9E1,3.8E1,4E0,1E0,3E0,9E0,1E0,2.33E2,7E0,2E0,3E0,1.6E1,1.1E1,8E0,5E0,3E0,2E0,2E0,6E0,1E0,4E0,2E0,1.1E1],"tree_param":{"num_deleted":"0","num_feature":"20","num_nodes":"93","size_leaf_vector":"1"}},{"base_weights":[-3.9826654E-2,1.0605323E0,-8.51273E-1,-8.911044E-1,2.1105406E0,-1.5274364E0,-4.1997615E-1,-1.8685049E-1,-7.3193985E-1,1.3346555E0,2.6742013E0,-1.6286325E0,1.6924992E0,2.5457144E0,-5.4991806E-1,-1.5816333E0,-4.2244297E-1,-1.3631887E0,1.6158792E0,2.3388371E0,4.867638E0,-1.7166098E0,1.1604576E0,9.5519185E-2,2.0524025E-2,6.793814E-2,1.5552776E-1,-1.0843545E0,-9.7911E-2,-2.9266622E0,-3.1577763E-1,-1.2942217E-1,-1.3456018E0,6.2329628E-2,-1.9140993E0,1.8004217E0,-7.1415997E-1,5.1725364E-1,2.6551018E0,5.0461125E0,6.814857E-2,-2.9704673E0,-1.5191623E0,-5.6605214E-1,1.250074E-1,-7.1679497E-1,-2.2643714E0,2.2156882E0,-2.781239E-1,-2.0555978E-1,-2.2303848E-2,5.7292886E-2,-7.776182E-2,1.5798306E-2,-6.690943E-2,-1.1992633E-1,8.3056144E-2,-1.11652724E-1,-9.202958E-6,1.01696685E-1,-2.4583532E-2,2.8146902E-2,-7.467218E-2,8.375621E-2,-1.1459704E-2,1.0010015E-1,1.7303073E-1,7.03599E-2,2.624498E-1,-1.9402204E-1,-2.5189033E-2,-6.372133E-2,-1.3958466E-1,-5.1186897E-2,8.732987E-3,-2.816709E-2,-1.4529626E-1,-1.4467163E-1,-1.6165162E-2,2.2008633E-2,1.515042E-1,-2.1364035E-3,-7.326217E-2],"categories":[],"categories_nodes":[],"categories_segments":[],"categories_sizes":[],"default_left":[0,0,0,0,0,0,0,0,0,0,0,0,0,0,0,0,0,0,0,0,0,0,0,0,0,0,0,0,0,0,0,0,0,0,0,0,0,0,0,0,0,0,0,0,0,0,0,0,0,0,0,0,0,0,0,0,0,0,0,0,0,0,0,0,0,0,0,0,0,0,0,0,0,0,0,0,0,0,0,0,0,0,0],"id":14,"left_children":[1,3,5,7,9,11,13,-1,15,17,19,21,23,25,27,29,31,33,35,37,39,41,43,-1,-1,-1,-1,45,47,49,51,53,55,-1,57,59,61,63,65,67,-1,69,71,73,-1,75,77,79,81,-1,-1,-1,-1,-1,-1,-1,-1,-1,-1,-1,-1,-1,-1,-1,-1,-1,-1,-1,-1,-1,-1,-1,-1,-1,-1,-1,-1,-1,-1,-1,-1,-1,-1],"loss_changes":[5.91098E2,5.777156E2,1.10468475E2,4.2108498E1,7.646338E1,5.0981506E1,9.1575935E1,0E0,2.4314713E1,6.2139847E1,6.5853455E1,3.7326263E1,6.1248493E-1,2.4778748E0,5.4246857E1,4.164115E1,1.9031685E1,1.3888151E1,3.2245193E1,5.2204193E1,1.2537231E0,3.0147339E1,1.2980158E1,0E0,0E0,0E0,0E0,4.3050728E1,5.189991E1,3.342611E1,2.714499E1,3.0033197E1,5.780378E1,0E0,4.2727623E0,3.6860474E1,6.812045E0,1.3348276E1,3.463208E1,1.4729309E0,0E0,3.8448242E1,3.4748535E1,1.1958456E0,0E0,2.5237293E1,2.8369759E1,1.1679993E1,3.2073334E1,0E0,0E0,0E0,0E0,0E0,0E0,0E0,0E0,0E0,0E0,0E0,0E0,0E0,0E0,0E0,0E0,0E0,0E0,0E0,0E0,0E0,0E0,0E0,0E0,0E0,0E0,0E0,0E0,0E0,0E0,0E0,0E0,0E0,0E0],"parents":[2147483647,0,0,1,1,2,2,3,3,4,4,5,5,6,6,8,8,9,9,10,10,11,11,12,12,13,13,14,14,15,15,16,16,17,17,18,18,19,19,20,20,21,21,22,22,27,27,28,28,29,29,30,30,31,31,32,32,34,34,35,35,36,36,37,37,38,38,39,39,41,41,42,42,43,43,45,45,46,46,47,47,48,48],"right_children":[2,4,6,8,10,12,14,-1,16,18,20,22,24,26,28,30,32,34,36,38,40,42,44,-1,-1,-1,-1,46,48,50,52,54,56,-1,58,60,62,64,66,68,-1,70,72,74,-1,76,78,80,82,-1,-1,-1,-1,-1,-1,-1,-1,-1,-1,-1,-1,-1,-1,-1,-1,-1,-1,-1,-1,-1,-1,-1,-1,-1,-1,-1,-1,-1,-1,-1,-1,-1,-1],"split_conditions":[3E0,1E0,3.157E2,2E1,3.1545E2,3.1928894E2,3.1589E2,-1.8685049E-1,3.1431E2,3.138143E2,3.2189E2,3.5E1,3.1E1,2.6714285E1,3.1714E2,5E0,3.4E1,1.9E1,3.2233E2,2.3E1,3.2319E2,2.2E1,2.9E1,9.5519185E-2,2.0524025E-2,6.793814E-2,1.5552776E-1,3.1818857E2,2.3E1,2.7E1,3.1542E2,2.8E1,5E0,6.2329628E-2,2.6E1,3.1522E2,3.161443E2,1.9E1,1.0088478E0,3.1617E2,6.814857E-2,5E0,3.1993E2,3.1533E2,1.250074E-1,3.3E1,3.1992856E2,2.6035715E1,2.8321428E1,-2.0555978E-1,-2.2303848E-2,5.7292886E-2,-7.776182E-2,1.5798306E-2,-6.690943E-2,-1.1992633E-1,8.3056144E-2,-1.11652724E-1,-9.202958E-6,1.01696685E-1,-2.4583532E-2,2.8146902E-2,-7.467218E-2,8.375621E-2,-1.1459704E-2,1.0010015E-1,1.7303073E-1,7.03599E-2,2.624498E-1,-1.9402204E-1,-2.5189033E-2,-6.372133E-2,-1.3958466E-1,-5.1186897E-2,8.732987E-3,-2.816709E-2,-1.4529626E-1,-1.4467163E-1,-1.6165162E-2,2.2008633E-2,1.515042E-1,-2.1364035E-3,-7.326217E-2],"split_indices":[6,6,17,9,17,15,17,0,0,14,0,11,8,12,0,4,8,10,0,9,17,8,8,0,0,0,0,14,10,10,14,10,4,0,8,17,14,9,19,17,0,6,0,0,0,8,14,13,13,0,0,0,0,0,0,0,0,0,0,0,0,0,0,0,0,0,0,0,0,0,0,0,0,0,0,0,0,0,0,0,0,0,0],"split_type":[0,0,0,0,0,0,0,0,0,0,0,0,0,0,0,0,0,0,0,0,0,0,0,0,0,0,0,0,0,0,0,0,0,0,0,0,0,0,0,0,0,0,0,0,0,0,0,0,0,0,0,0,0,0,0,0,0,0,0,0,0,0,0,0,0,0,0,0,0,0,0,0,0,0,0,0,0,0,0,0,0,0,0],"sum_hessian":[6.6E2,2.8E2,3.8E2,9.8E1,1.82E2,1.47E2,2.33E2,4E0,9.4E1,7.8E1,1.04E2,1.43E2,4E0,9E0,2.24E2,2.4E1,7E1,7E0,7.1E1,9.2E1,1.2E1,1.39E2,4E0,3E0,1E0,4E0,5E0,1.02E2,1.22E2,1.1E1,1.3E1,5.4E1,1.6E1,1E0,6E0,6.6E1,5E0,1.4E1,7.8E1,1.1E1,1E0,1.7E1,1.22E2,2E0,2E0,7.9E1,2.3E1,8E0,1.14E2,7E0,4E0,6E0,7E0,4E1,1.4E1,1.2E1,4E0,5E0,1E0,6E1,6E0,2E0,3E0,5E0,9E0,4.5E1,3.3E1,1E0,1E1,1.2E1,5E0,1.04E2,1.8E1,1E0,1E0,7.5E1,4E0,1.7E1,6E0,3E0,5E0,9.6E1,1.8E1],"tree_param":{"num_deleted":"0","num_feature":"20","num_nodes":"83","size_leaf_vector":"1"}},{"base_weights":[6.444772E-2,-2.5999025E-1,2.6766176E0,6.8056285E-1,-9.605197E-1,3.9794676E0,1.589221E0,-1.026267E0,1.5250071E0,-2.8788705E0,-8.5753655E-1,1.774622E0,4.504825E0,-5.2803136E-2,1.7478867E0,1.2492645E-1,-1.2747359E0,9.9269813E-1,2.0774229E0,1.34712225E-2,-3.3166049E0,-7.265246E-1,-1.6594887E0,2.1022139E0,2.6394878E-2,2.289573E0,4.803527E0,-7.805462E-2,1.8727603E0,-8.5712403E-1,1.2284311E-1,8.164175E-1,-1.5966507E0,1.1021671E-1,1.59004E0,1.06013E0,2.362867E0,-5.3488445E-2,-3.5799818E0,-1.569343E0,-5.8073086E-1,-2.1390111E0,1.7127125E-2,1.1520227E-1,2.7326394E-2,4.4794083E-2,1.4600366E-1,1.4084305E-1,2.6110715E-1,9.6776867E-1,2.2880342E0,-8.112463E-2,5.3961825E-2,-5.8944013E-2,9.1997825E-2,-2.7779165E-1,-6.4803764E-2,7.257939E-2,-2.2017498E-2,4.5734923E-2,1.21557534E-1,1.4163911E-1,4.9040182E-3,1.2184687E-1,-5.7589103E-2,-3.4062672E-2,-1.8823858E-1,-1.3980989E-1,-5.4169167E-2,-2.5253167E-2,-1.1428558E-1,3.1443217E-3,-1.21257775E-1,-7.098387E-2,5.2048463E-2,-2.7938485E-2,7.174473E-2,3.1386185E-2,1.280688E-1],"categories":[],"categories_nodes":[],"categories_segments":[],"categories_sizes":[],"default_left":[0,0,0,0,0,0,0,0,0,0,0,0,0,0,0,0,0,0,0,0,0,0,0,0,0,0,0,0,0,0,0,0,0,0,0,0,0,0,0,0,0,0,0,0,0,0,0,0,0,0,0,0,0,0,0,0,0,0,0,0,0,0,0,0,0,0,0,0,0,0,0,0,0,0,0,0,0,0,0],"id":15,"left_children":[1,3,5,7,9,11,13,15,17,19,21,23,25,-1,27,29,31,33,35,-1,37,39,41,43,-1,45,47,-1,49,51,-1,53,55,57,59,61,63,-1,65,67,69,71,73,-1,-1,-1,-1,-1,-1,75,77,-1,-1,-1,-1,-1,-1,-1,-1,-1,-1,-1,-1,-1,-1,-1,-1,-1,-1,-1,-1,-1,-1,-1,-1,-1,-1,-1,-1],"loss_changes":[5.6766473E2,3.9334924E2,9.8512634E1,3.6910236E2,6.509598E1,3.0230652E1,1.9473953E1,2.447229E1,4.8221283E1,2.4321564E1,3.304564E1,2.1575794E0,6.2061157E0,0E0,1.9451714E1,3.874709E1,4.842565E1,4.674048E1,2.1596619E1,0E0,5.0467224E0,3.3740128E1,3.6215492E1,6.246948E-1,0E0,1.7775745E0,3.5863037E0,0E0,1.2442673E1,1.953541E1,0E0,2.259174E1,6.539125E1,2.7964231E1,2.7882187E1,3.382975E1,1.9468018E1,0E0,4.3987427E0,2.1414917E1,3.0066399E1,2.2204636E1,1.7659512E1,0E0,0E0,0E0,0E0,0E0,0E0,1.0784972E1,1.0191803E1,0E0,0E0,0E0,0E0,0E0,0E0,0E0,0E0,0E0,0E0,0E0,0E0,0E0,0E0,0E0,0E0,0E0,0E0,0E0,0E0,0E0,0E0,0E0,0E0,0E0,0E0,0E0,0E0],"parents":[2147483647,0,0,1,1,2,2,3,3,4,4,5,5,6,6,7,7,8,8,9,9,10,10,11,11,12,12,14,14,15,15,16,16,17,17,18,18,20,20,21,21,22,22,23,23,25,25,26,26,28,28,29,29,31,31,32,32,33,33,34,34,35,35,36,36,38,38,39,39,40,40,41,41,42,42,49,49,50,50],"right_children":[2,4,6,8,10,12,14,16,18,20,22,24,26,-1,28,30,32,34,36,-1,38,40,42,44,-1,46,48,-1,50,52,-1,54,56,58,60,62,64,-1,66,68,70,72,74,-1,-1,-1,-1,-1,-1,76,78,-1,-1,-1,-1,-1,-1,-1,-1,-1,-1,-1,-1,-1,-1,-1,-1,-1,-1,-1,-1,-1,-1,-1,-1,-1,-1,-1,-1],"split_conditions":[1E0,3E0,3E0,1E0,3.0871E2,1E0,2.4857143E1,9.8659265E-1,3.1672E2,2.4E1,3.2E1,3.1744678E2,2.2E1,-5.2803136E-2,2.3E1,9.852431E-1,3.1443787E2,1.4E1,2.3E1,1.34712225E-2,3.1015E2,3.147E2,1E0,2.8E1,2.6394878E-2,1.1E1,3.1361E2,-7.805462E-2,3.1523E2,2.8857143E1,1.2284311E-1,2.9E1,3.145957E2,5E0,2E0,3.1804E2,3.4E1,-5.3488445E-2,2.4142857E1,2.5964285E1,3.1998465E2,6E0,1.2E1,1.1520227E-1,2.7326394E-2,4.4794083E-2,1.4600366E-1,1.4084305E-1,2.6110715E-1,4E0,3E0,-8.112463E-2,5.3961825E-2,-5.8944013E-2,9.1997825E-2,-2.7779165E-1,-6.4803764E-2,7.257939E-2,-2.2017498E-2,4.5734923E-2,1.21557534E-1,1.4163911E-1,4.9040182E-3,1.2184687E-1,-5.7589103E-2,-3.4062672E-2,-1.8823858E-1,-1.3980989E-1,-5.4169167E-2,-2.5253167E-2,-1.1428558E-1,3.1443217E-3,-1.21257775E-1,-7.098387E-2,5.2048463E-2,-2.7938485E-2,7.174473E-2,3.1386185E-2,1.280688E-1],"split_indices":[18,6,6,6,17,6,12,19,17,10,8,15,10,0,8,19,15,5,9,0,0,15,1,9,0,5,17,0,0,12,0,8,15,5,6,17,9,0,12,13,15,5,5,0,0,0,0,0,0,4,5,0,0,0,0,0,0,0,0,0,0,0,0,0,0,0,0,0,0,0,0,0,0,0,0,0,0,0,0],"split_type":[0,0,0,0,0,0,0,0,0,0,0,0,0,0,0,0,0,0,0,0,0,0,0,0,0,0,0,0,0,0,0,0,0,0,0,0,0,0,0,0,0,0,0,0,0,0,0,0,0,0,0,0,0,0,0,0,0,0,0,0,0,0,0,0,0,0,0,0,0,0,0,0,0,0,0,0,0,0,0],"sum_hessian":[6.68E2,5.95E2,7.3E1,2.54E2,3.41E2,3.2E1,4.1E1,8.4E1,1.7E2,1.6E1,3.25E2,7E0,2.5E1,2E0,3.9E1,1.5E1,6.9E1,8.8E1,8.2E1,2E0,1.4E1,2.81E2,4.4E1,5E0,2E0,4E0,2.1E1,1E0,3.8E1,1.1E1,4E0,9E0,6E1,3.6E1,5.2E1,1.9E1,6.3E1,2E0,1.2E1,4E1,2.41E2,3.4E1,1E1,4E0,1E0,2E0,2E0,5E0,1.6E1,1.3E1,2.5E1,8E0,3E0,3E0,6E0,3E0,5.7E1,1E1,2.6E1,3E1,2.2E1,6E0,1.3E1,6.2E1,1E0,1E0,1.1E1,1E1,3E1,2.32E2,9E0,4E0,3E1,4E0,6E0,3E0,1E1,4E0,2.1E1],"tree_param":{"num_deleted":"0","num_feature":"20","num_nodes":"79","size_leaf_vector":"1"}},{"base_weights":[1.1183523E-1,1.2235137E0,-7.2000873E-1,-5.809426E-1,1.9919747E0,-1.0163265E0,1.7331399E0,-8.7171334E-1,1.6870098E0,1.5920421E0,4.3632784E0,-8.643193E-1,-1.9834774E0,-5.1043034E-2,1.9005467E0,-1.6274041E0,-1.5090656E-1,2.0259233E0,1.1045202E-2,1.4696311E0,3.6321478E0,1.1578309E-1,4.6080623E0,-1.3104837E0,-3.935625E-1,-2.3104978E0,1.2184743E-1,-7.610326E-2,2.0306697E0,-3.3968716E0,-1.1753501E0,1.2553679E0,-8.7449676E-1,2.332811E0,3.6842E-2,1.5293841E0,-1.2879E0,-2.3018075E-2,4.2012568E0,5.4374933E-2,4.7138476E0,-1.4899527E0,8.8397555E-2,-6.024814E-1,5.777803E-1,-2.6056411E0,-2.5293604E-1,6.209032E-2,-8.9268334E-2,2.179156E0,-4.2805734E-1,-1.867383E-1,-3.4237623E-2,-1.6942186E-2,-1.022517E-1,-5.6325246E-2,7.626215E-2,-1.3212293E-1,2.5306541E-2,1.5170012E-1,6.1185744E-2,5.031953E-2,9.476715E-2,-1.8592596E-2,-7.346494E-2,9.346924E-2,2.6132515E-1,5.94985E-2,2.4099672E-1,-6.8160266E-2,-1.6499902E-1,8.182297E-2,-1.6515605E-2,-1.5174463E-1,-2.5670568E-2,6.0338814E-2,-6.509455E-2,-1.3701116E-1,4.5889188E-2,3.500073E-2,-7.196125E-2,3.0130768E-2,1.1786961E-1,-5.491352E-3,-2.661295E-2],"categories":[],"categories_nodes":[],"categories_segments":[],"categories_sizes":[],"default_left":[0,0,0,0,0,0,0,0,0,0,0,0,0,0,0,0,0,0,0,0,0,0,0,0,0,0,0,0,0,0,0,0,0,0,0,0,0,0,0,0,0,0,0,0,0,0,0,0,0,0,0,0,0,0,0,0,0,0,0,0,0,0,0,0,0,0,0,0,0,0,0,0,0,0,0,0,0,0,0,0,0,0,0,0,0],"id":16,"left_children":[1,3,5,7,9,11,13,15,17,19,21,23,25,-1,27,29,31,33,-1,35,37,-1,39,41,43,45,47,-1,49,51,53,55,57,59,-1,61,63,-1,65,-1,67,69,71,73,75,77,79,-1,-1,81,83,-1,-1,-1,-1,-1,-1,-1,-1,-1,-1,-1,-1,-1,-1,-1,-1,-1,-1,-1,-1,-1,-1,-1,-1,-1,-1,-1,-1,-1,-1,-1,-1,-1,-1],"loss_changes":[6.093619E2,3.9219373E2,2.758071E2,5.75242E1,1.8082916E2,4.7829315E1,2.0842743E1,4.1152157E1,4.5212936E0,3.736615E1,3.3635254E0,6.102446E1,3.1263306E1,0E0,2.0459885E1,2.56036E1,4.180047E1,1.4459229E0,0E0,2.8827332E1,2.2895836E1,0E0,3.8118896E0,3.779007E1,2.9570293E1,2.3024704E1,1.716909E1,0E0,1.4806137E1,3.857483E0,2.1859432E1,1.071751E1,6.724165E1,9.533806E-1,0E0,2.8715607E1,1.18319035E-1,0E0,9.355591E0,0E0,2.8626404E0,2.6013824E1,1.2207933E1,2.4223797E1,3.231104E1,1.8637375E1,7.790327E0,0E0,0E0,8.695251E0,4.102391E-2,0E0,0E0,0E0,0E0,0E0,0E0,0E0,0E0,0E0,0E0,0E0,0E0,0E0,0E0,0E0,0E0,0E0,0E0,0E0,0E0,0E0,0E0,0E0,0E0,0E0,0E0,0E0,0E0,0E0,0E0,0E0,0E0,0E0,0E0],"parents":[2147483647,0,0,1,1,2,2,3,3,4,4,5,5,6,6,7,7,8,8,9,9,10,10,11,11,12,12,14,14,15,15,16,16,17,17,19,19,20,20,22,22,23,23,24,24,25,25,26,26,28,28,29,29,30,30,31,31,32,32,33,33,35,35,36,36,38,38,40,40,41,41,42,42,43,43,44,44,45,45,46,46,49,49,50,50],"right_children":[2,4,6,8,10,12,14,16,18,20,22,24,26,-1,28,30,32,34,-1,36,38,-1,40,42,44,46,48,-1,50,52,54,56,58,60,-1,62,64,-1,66,-1,68,70,72,74,76,78,80,-1,-1,82,84,-1,-1,-1,-1,-1,-1,-1,-1,-1,-1,-1,-1,-1,-1,-1,-1,-1,-1,-1,-1,-1,-1,-1,-1,-1,-1,-1,-1,-1,-1,-1,-1,-1,-1],"split_conditions":[3E0,1E0,1E0,1E0,1E0,3.2E1,2.4857143E1,3.2E1,3.5E1,3.2049857E2,9.872202E-1,2.6857143E1,3.1984286E2,-5.1043034E-2,2.3E1,3E0,3.1592E2,2.8071428E1,1.1045202E-2,3.1997E2,2.5E1,1.1578309E-1,2.2E1,3.1835394E2,1E0,3.209E2,3.1965E2,-7.610326E-2,7E0,2.7E1,5E0,3.0846E2,2.7178572E1,3E0,3.6842E-2,3.1545E2,2E0,-2.3018075E-2,3.1786E2,5.4374933E-2,2E0,3.1769858E2,3.1848642E2,3.0871E2,3.1866785E2,3.9E1,3.2396E2,6.209032E-2,-8.9268334E-2,3E0,7E0,-1.867383E-1,-3.4237623E-2,-1.6942186E-2,-1.022517E-1,-5.6325246E-2,7.626215E-2,-1.3212293E-1,2.5306541E-2,1.5170012E-1,6.1185744E-2,5.031953E-2,9.476715E-2,-1.8592596E-2,-7.346494E-2,9.346924E-2,2.6132515E-1,5.94985E-2,2.4099672E-1,-6.8160266E-2,-1.6499902E-1,8.182297E-2,-1.6515605E-2,-1.5174463E-1,-2.5670568E-2,6.0338814E-2,-6.509455E-2,-1.3701116E-1,4.5889188E-2,3.500073E-2,-7.196125E-2,3.0130768E-2,1.1786961E-1,-5.491352E-3,-2.661295E-2],"split_indices":[6,6,18,18,18,8,12,8,8,14,19,12,14,0,8,4,14,13,0,14,9,0,9,15,1,17,17,0,4,9,4,17,13,4,0,17,5,0,17,0,4,15,15,17,15,8,17,0,0,5,5,0,0,0,0,0,0,0,0,0,0,0,0,0,0,0,0,0,0,0,0,0,0,0,0,0,0,0,0,0,0,0,0,0,0],"split_type":[0,0,0,0,0,0,0,0,0,0,0,0,0,0,0,0,0,0,0,0,0,0,0,0,0,0,0,0,0,0,0,0,0,0,0,0,0,0,0,0,0,0,0,0,0,0,0,0,0,0,0,0,0,0,0,0,0,0,0,0,0,0,0,0,0,0,0,0,0,0,0,0,0,0,0,0,0,0,0,0,0,0,0,0,0],"sum_hessian":[6.57E2,2.81E2,3.76E2,8.4E1,1.97E2,3.36E2,4E1,7.5E1,9E0,1.7E2,2.7E1,2.92E2,4.4E1,2E0,3.8E1,3.6E1,3.9E1,7E0,2E0,1.62E2,8E0,4E0,2.3E1,1.49E2,1.43E2,3.8E1,6E0,1E0,3.7E1,6E0,3E1,1.3E1,2.6E1,5E0,2E0,1.59E2,3E0,1E0,7E0,1E0,2.2E1,1.32E2,1.7E1,1.18E2,2.5E1,3.3E1,5E0,4E0,2E0,3.5E1,2E0,5E0,1E0,1.6E1,1.4E1,1E0,1.2E1,1.1E1,1.5E1,2E0,3E0,6.7E1,9.2E1,1E0,2E0,3E0,4E0,1E0,2.1E1,1.25E2,7E0,3E0,1.4E1,3E0,1.15E2,1.9E1,6E0,3.2E1,1E0,3E0,2E0,4E0,3.1E1,1E0,1E0],"tree_param":{"num_deleted":"0","num_feature":"20","num_nodes":"85","size_leaf_vector":"1"}},{"base_weights":[-2.049599E-2,1.0403165E0,-8.588249E-1,-5.1711875E-1,1.8216724E0,-1.1480148E0,1.7905436E0,-7.685797E-1,1.7977417E0,1.5527201E0,3.7771516E0,-1.469609E0,-8.5773605E-1,-7.420068E-2,1.922726E0,-1.270215E0,-1.5690984E-2,2.4605942E0,6.427704E-1,1.2885039E0,2.3040748E0,5.9043694E-2,3.968184E0,-2.5608022E0,-1.2352769E0,-3.1219992E-1,-1.2665015E0,2.6279497E0,8.7694955E-1,-7.112339E-1,-2.978445E0,-7.979492E-1,9.5155096E-1,4.459413E-2,1.5109897E-1,1.067702E-2,4.2887177E-2,1.3833977E0,-9.190156E-1,1.5682527E0,3.7688184E0,9.1160275E-2,4.2243915E0,1.9028092E-2,-2.811334E0,-1.0241553E0,-2.4369926E0,-4.2791137E-1,2.149395E-1,-1.3971903E0,1.0573845E0,2.9147644E0,-6.452624E-2,-3.8021356E-1,1.3276883E0,-1.6609925E-1,-1.34323165E-2,-1.9007111E-2,-1.5816459E-1,4.5047473E-2,-9.563646E-2,-1.2825625E-2,8.16907E-2,3.7520335E-3,7.6023065E-2,-7.93638E-2,1.3916843E-2,5.9618194E-2,1.9037054E-1,1.9949505E-1,2.236867E-2,9.468718E-2,2.2821358E-1,-1.4808834E-1,1.997633E-2,-1.34593E-1,-4.4494778E-2,-3.481102E-3,-1.3557057E-1,-5.7236534E-2,-5.070035E-3,-2.7348349E-2,-8.671408E-2,9.599425E-2,-8.137794E-2,1.5597886E-1,-1.92966E-2,2.693448E-2,-3.177395E-2,-3.68529E-2,5.168438E-3,7.713711E-2,-2.594762E-2],"categories":[],"categories_nodes":[],"categories_segments":[],"categories_sizes":[],"default_left":[0,0,0,0,0,0,0,0,0,0,0,0,0,0,0,0,0,0,0,0,0,0,0,0,0,0,0,0,0,0,0,0,0,0,0,0,0,0,0,0,0,0,0,0,0,0,0,0,0,0,0,0,0,0,0,0,0,0,0,0,0,0,0,0,0,0,0,0,0,0,0,0,0,0,0,0,0,0,0,0,0,0,0,0,0,0,0,0,0,0,0,0,0],"id":17,"left_children":[1,3,5,7,9,11,13,15,17,19,21,23,25,-1,27,29,31,33,35,37,39,-1,41,43,45,47,49,51,53,55,57,59,61,-1,-1,-1,-1,63,65,67,69,-1,71,-1,73,75,77,79,-1,81,83,85,87,89,91,-1,-1,-1,-1,-1,-1,-1,-1,-1,-1,-1,-1,-1,-1,-1,-1,-1,-1,-1,-1,-1,-1,-1,-1,-1,-1,-1,-1,-1,-1,-1,-1,-1,-1,-1,-1,-1,-1],"loss_changes":[5.9228436E2,3.5871396E2,2.8707104E2,5.9009315E1,9.721747E1,3.0105743E1,1.8868393E1,3.3970867E1,6.0741615E0,3.15737E1,6.721466E0,3.723755E1,3.9520935E1,0E0,2.4245651E1,4.944451E1,2.8754707E1,2.5886574E0,2.7820206E-1,2.8713211E1,4.151233E1,0E0,3.8388062E0,2.0966293E1,3.0993622E1,4.345595E1,3.2455383E1,1.6405167E1,9.57124E0,4.7637966E1,5.041237E0,4.149513E1,1.4430784E1,0E0,0E0,0E0,0E0,2.2481247E1,5.242656E0,2.1552086E1,8.495407E0,0E0,5.61499E0,0E0,1.3258789E1,2.3129753E1,1.2154594E1,1.7905714E1,0E0,2.6851868E1,1.7019312E1,1.4048386E1,1.3755492E0,9.3900704E-1,5.5661373E0,0E0,0E0,0E0,0E0,0E0,0E0,0E0,0E0,0E0,0E0,0E0,0E0,0E0,0E0,0E0,0E0,0E0,0E0,0E0,0E0,0E0,0E0,0E0,0E0,0E0,0E0,0E0,0E0,0E0,0E0,0E0,0E0,0E0,0E0,0E0,0E0,0E0,0E0],"parents":[2147483647,0,0,1,1,2,2,3,3,4,4,5,5,6,6,7,7,8,8,9,9,10,10,11,11,12,12,14,14,15,15,16,16,17,17,18,18,19,19,20,20,22,22,23,23,24,24,25,25,26,26,27,27,28,28,29,29,30,30,31,31,32,32,37,37,38,38,39,39,40,40,42,42,44,44,45,45,46,46,47,47,49,49,50,50,51,51,52,52,53,53,54,54],"right_children":[2,4,6,8,10,12,14,16,18,20,22,24,26,-1,28,30,32,34,36,38,40,-1,42,44,46,48,50,52,54,56,58,60,62,-1,-1,-1,-1,64,66,68,70,-1,72,-1,74,76,78,80,-1,82,84,86,88,90,92,-1,-1,-1,-1,-1,-1,-1,-1,-1,-1,-1,-1,-1,-1,-1,-1,-1,-1,-1,-1,-1,-1,-1,-1,-1,-1,-1,-1,-1,-1,-1,-1,-1,-1,-1,-1,-1,-1],"split_conditions":[3E0,1E0,1E0,1E0,1E0,9.9863213E-1,2.3E1,5E0,2.6E1,1.0091841E0,2.6142857E1,2.5E1,1.007103E0,-7.420068E-2,2.7142857E1,3.4E1,2.7285715E1,3.1445E2,3E0,3.2E1,2.2E1,5.9043694E-2,2.3E1,3.0873E2,3.2E1,3.228E2,3.2426E2,3.3E1,2E0,3.1335E2,3.1299E2,2.675E1,3.2E1,4.459413E-2,1.5109897E-1,1.067702E-2,4.2887177E-2,2.1E1,2.8428572E1,2.9E1,3E1,9.1160275E-2,3E0,1.9028092E-2,2.8535715E1,3.0976E2,2.8E1,2.6464285E1,2.149395E-1,2.625E1,3E0,3E1,3.0924E2,3E0,3E0,-1.6609925E-1,-1.34323165E-2,-1.9007111E-2,-1.5816459E-1,4.5047473E-2,-9.563646E-2,-1.2825625E-2,8.16907E-2,3.7520335E-3,7.6023065E-2,-7.93638E-2,1.3916843E-2,5.9618194E-2,1.9037054E-1,1.9949505E-1,2.236867E-2,9.468718E-2,2.2821358E-1,-1.4808834E-1,1.997633E-2,-1.34593E-1,-4.4494778E-2,-3.481102E-3,-1.3557057E-1,-5.7236534E-2,-5.070035E-3,-2.7348349E-2,-8.671408E-2,9.599425E-2,-8.137794E-2,1.5597886E-1,-1.92966E-2,2.693448E-2,-3.177395E-2,-3.68529E-2,5.168438E-3,7.713711E-2,-2.594762E-2],"split_indices":[6,6,18,18,18,19,8,4,11,19,13,9,19,0,12,8,13,0,3,9,5,0,9,0,8,0,0,8,3,0,0,13,8,0,0,0,0,8,12,12,8,0,4,0,13,0,11,13,0,13,3,5,0,4,3,0,0,0,0,0,0,0,0,0,0,0,0,0,0,0,0,0,0,0,0,0,0,0,0,0,0,0,0,0,0,0,0,0,0,0,0,0,0],"split_type":[0,0,0,0,0,0,0,0,0,0,0,0,0,0,0,0,0,0,0,0,0,0,0,0,0,0,0,0,0,0,0,0,0,0,0,0,0,0,0,0,0,0,0,0,0,0,0,0,0,0,0,0,0,0,0,0,0,0,0,0,0,0,0,0,0,0,0,0,0,0,0,0,0,0,0,0,0,0,0,0,0,0,0,0,0,0,0,0,0,0,0,0,0],"sum_hessian":[6.64E2,2.93E2,3.71E2,9.8E1,1.95E2,3.35E2,3.6E1,8.9E1,9E0,1.73E2,2.2E1,1.57E2,1.78E2,1E0,3.5E1,5.3E1,3.6E1,5E0,4E0,1.3E2,4.3E1,2E0,2E1,2.6E1,1.31E2,7.7E1,1.01E2,2E1,1.5E1,4.1E1,1.2E1,2E1,1.6E1,2E0,3E0,2E0,2E0,1.25E2,5E0,3E1,1.3E1,3E0,1.7E1,2E0,2.4E1,1.13E2,1.8E1,7.6E1,1E0,9.6E1,5E0,1.8E1,2E0,4E0,1.1E1,5E0,3.6E1,1E0,1.1E1,8E0,1.2E1,6E0,1E1,1.2E1,1.13E2,3E0,2E0,2.7E1,3E0,1.2E1,1E0,3E0,1.4E1,2.3E1,1E0,7E0,1.06E2,2E0,1.6E1,2.3E1,5.3E1,2.8E1,6.8E1,4E0,1E0,1.7E1,1E0,1E0,1E0,2E0,2E0,1E1,1E0],"tree_param":{"num_deleted":"0","num_feature":"20","num_nodes":"93","size_leaf_vector":"1"}},{"base_weights":[4.6530362E-2,-2.490301E-1,2.394846E0,6.66513E-1,-9.3364465E-1,3.3402076E0,1.5500245E0,-8.970886E-1,1.4764197E0,-2.32128E0,-8.4591883E-1,1.5766214E0,3.8043582E0,5.412879E-1,2.2840233E0,-1.1442298E0,1.16975E0,1.5872223E0,-4.66226E-1,-3.3608668E0,-6.772442E-1,-1.0737835E0,-4.491096E-1,2.2165737E0,6.2134475E-1,1.9243854E0,4.1441526E0,-9.748769E-2,1.4805341E-1,2.5214124E0,-2.1817143E-1,-2.1745011E-1,-1.6390833E0,-6.377258E-2,1.583156E0,-9.66818E-2,1.6753258E0,5.196708E-2,-9.725356E-1,9.823084E-3,-3.7021205E0,3.2754954E-2,-1.8741386E0,8.1085535E-3,-1.2024848E0,9.350829E-2,-1.510157E0,4.310767E-2,1.4160681E-1,1.0321109E-2,4.145762E-2,2.3497153E-2,1.0606426E-1,6.858479E-2,4.3528137E0,-5.8910924E-1,6.1875564E-1,2.814839E0,9.6079445E-1,-1.861987E-2,2.2570135E-3,-9.499125E-2,2.5696123E-2,4.4931E-3,-9.3327574E-2,3.7547033E-2,1.217845E-1,3.9996322E-2,-1.0782703E-1,-9.367981E-2,8.553835E-2,-7.093894E-2,-8.579898E-3,-2.1664575E-1,-1.03929214E-1,-1.2017622E-1,-3.6002003E-2,-6.838233E-2,2.8705953E-2,-5.233689E-2,-1.1018368E-1,-3.97019E-2,3.4466762E-2,-1.904536E-2,-9.82149E-2,5.0736573E-2,2.2375476E-1,2.8387165E-2,-3.903655E-2,-8.5071325E-3,6.264825E-2,2.2353554E-2,1.4639106E-1,1.3556226E-2,6.6509984E-2],"categories":[],"categories_nodes":[],"categories_segments":[],"categories_sizes":[],"default_left":[0,0,0,0,0,0,0,0,0,0,0,0,0,0,0,0,0,0,0,0,0,0,0,0,0,0,0,0,0,0,0,0,0,0,0,0,0,0,0,0,0,0,0,0,0,0,0,0,0,0,0,0,0,0,0,0,0,0,0,0,0,0,0,0,0,0,0,0,0,0,0,0,0,0,0,0,0,0,0,0,0,0,0,0,0,0,0,0,0,0,0,0,0,0,0],"id":18,"left_children":[1,3,5,7,9,11,13,15,17,19,21,23,25,27,29,31,33,35,37,39,41,43,45,47,49,51,53,55,-1,57,59,61,63,-1,65,67,69,-1,71,-1,73,-1,75,77,79,81,83,-1,-1,-1,-1,-1,-1,-1,85,87,89,91,93,-1,-1,-1,-1,-1,-1,-1,-1,-1,-1,-1,-1,-1,-1,-1,-1,-1,-1,-1,-1,-1,-1,-1,-1,-1,-1,-1,-1,-1,-1,-1,-1,-1,-1,-1,-1],"loss_changes":[4.718694E2,3.79206E2,5.5520874E1,3.2931467E2,4.0155487E1,2.2651886E1,2.9860977E1,4.679976E1,3.754782E1,3.1906242E1,2.9084702E1,4.1247272E0,9.272766E0,2.96569E1,1.4805954E1,3.633319E1,1.2127846E1,2.4195892E1,8.63363E0,1.5294739E1,1.5579815E1,2.8832626E1,6.980615E1,1.7269154E0,2.5996494E-1,7.213955E-1,6.7563477E0,5.9984446E0,0E0,7.3698883E0,1.3863866E-1,3.665921E1,2.0618301E1,0E0,4.556368E0,1.8347052E1,2.2575134E1,0E0,2.6158433E0,0E0,2.258957E0,0E0,1.3241844E0,1.8695103E1,2.6540771E1,4.33821E1,2.0278168E1,0E0,0E0,0E0,0E0,0E0,0E0,0E0,3.6227112E0,2.660036E0,3.7154696E0,3.5063477E0,9.1318846E-1,0E0,0E0,0E0,0E0,0E0,0E0,0E0,0E0,0E0,0E0,0E0,0E0,0E0,0E0,0E0,0E0,0E0,0E0,0E0,0E0,0E0,0E0,0E0,0E0,0E0,0E0,0E0,0E0,0E0,0E0,0E0,0E0,0E0,0E0,0E0,0E0],"parents":[2147483647,0,0,1,1,2,2,3,3,4,4,5,5,6,6,7,7,8,8,9,9,10,10,11,11,12,12,13,13,14,14,15,15,16,16,17,17,18,18,19,19,20,20,21,21,22,22,23,23,24,24,25,25,26,26,27,27,29,29,30,30,31,31,32,32,34,34,35,35,36,36,38,38,40,40,42,42,43,43,44,44,45,45,46,46,54,54,55,55,56,56,57,57,58,58],"right_children":[2,4,6,8,10,12,14,16,18,20,22,24,26,28,30,32,34,36,38,40,42,44,46,48,50,52,54,56,-1,58,60,62,64,-1,66,68,70,-1,72,-1,74,-1,76,78,80,82,84,-1,-1,-1,-1,-1,-1,-1,86,88,90,92,94,-1,-1,-1,-1,-1,-1,-1,-1,-1,-1,-1,-1,-1,-1,-1,-1,-1,-1,-1,-1,-1,-1,-1,-1,-1,-1,-1,-1,-1,-1,-1,-1,-1,-1,-1,-1],"split_conditions":[1E0,3E0,3E0,1E0,9.781478E-1,1E0,3.165511E2,1.017471E0,3.1E1,2.6E1,3.1729108E2,2.6E1,9.872202E-1,3.3E1,2.9428572E1,9.9229115E-1,2.7E1,2E1,2.3E1,3E0,1.6E1,2.3E1,3.1875357E2,3E1,3E0,1E1,2.2E1,3.1E1,1.4805341E-1,3.1E1,1E0,3.1540714E2,2.8E1,-6.377258E-2,2.9E1,1E0,9.684646E-1,5.196708E-2,2.6E1,9.823084E-3,2.9E1,3.2754954E-2,3E0,2.5E1,3.2E1,2.8E1,2.7285715E1,4.310767E-2,1.4160681E-1,1.0321109E-2,4.145762E-2,2.3497153E-2,1.0606426E-1,6.858479E-2,2.2E1,2.3E1,8E0,2.1E1,9.8789155E-1,-1.861987E-2,2.2570135E-3,-9.499125E-2,2.5696123E-2,4.4931E-3,-9.3327574E-2,3.7547033E-2,1.217845E-1,3.9996322E-2,-1.0782703E-1,-9.367981E-2,8.553835E-2,-7.093894E-2,-8.579898E-3,-2.1664575E-1,-1.03929214E-1,-1.2017622E-1,-3.6002003E-2,-6.838233E-2,2.8705953E-2,-5.233689E-2,-1.1018368E-1,-3.97019E-2,3.4466762E-2,-1.904536E-2,-9.82149E-2,5.0736573E-2,2.2375476E-1,2.8387165E-2,-3.903655E-2,-8.5071325E-3,6.264825E-2,2.2353554E-2,1.4639106E-1,1.3556226E-2,6.6509984E-2],"split_indices":[18,6,6,6,19,6,15,19,8,8,15,11,19,11,12,19,8,8,10,4,5,9,15,8,3,5,11,9,0,8,1,15,8,0,9,1,19,0,11,0,10,0,4,8,8,9,12,0,0,0,0,0,0,0,9,10,5,9,19,0,0,0,0,0,0,0,0,0,0,0,0,0,0,0,0,0,0,0,0,0,0,0,0,0,0,0,0,0,0,0,0,0,0,0,0],"split_type":[0,0,0,0,0,0,0,0,0,0,0,0,0,0,0,0,0,0,0,0,0,0,0,0,0,0,0,0,0,0,0,0,0,0,0,0,0,0,0,0,0,0,0,0,0,0,0,0,0,0,0,0,0,0,0,0,0,0,0,0,0,0,0,0,0,0,0,0,0,0,0,0,0,0,0,0,0,0,0,0,0,0,0,0,0,0,0,0,0,0,0,0,0,0,0],"sum_hessian":[6.78E2,6.03E2,7.5E1,2.58E2,3.45E2,3.4E1,4.1E1,8.8E1,1.7E2,1.9E1,3.26E2,8E0,2.6E1,1.8E1,2.3E1,7.9E1,9E0,1.61E2,9E0,1.1E1,8E0,2.06E2,1.2E2,4E0,4E0,5E0,2.1E1,1.5E1,3E0,2.1E1,2E0,2.8E1,5.1E1,1E0,8E0,8E0,1.53E2,2E0,7E0,1E0,1E1,4E0,4E0,2.2E1,1.84E2,8E1,4E1,2E0,2E0,2E0,2E0,1E0,4E0,2E0,1.9E1,9E0,6E0,1.7E1,4E0,1E0,1E0,8E0,2E1,6E0,4.5E1,5E0,3E0,6E0,2E0,1E0,1.52E2,4E0,3E0,6E0,4E0,2E0,2E0,6E0,1.6E1,1.61E2,2.3E1,3.2E1,4.8E1,1.2E1,2.8E1,1E0,1.8E1,1E0,8E0,3E0,3E0,1E0,1.6E1,2E0,2E0],"tree_param":{"num_deleted":"0","num_feature":"20","num_nodes":"95","size_leaf_vector":"1"}},{"base_weights":[1.5373754E-3,-3.142167E-1,2.3117187E0,5.1143754E-1,-9.362582E-1,3.2953973E0,1.4115367E0,-1.0164104E0,1.3095075E0,-1.3114293E0,-6.0851973E-1,3.530133E0,4.7629452E-1,-1.1184802E0,1.6292499E0,-1.5473378E0,-7.211596E-2,9.486889E-1,1.8878108E0,-1.0827495E0,-3.0771768E0,9.643683E-3,-1.0383824E0,2.1525989E0,3.9399414E0,9.977086E-3,3.2663822E-2,-7.1994714E-2,-3.8559437E-3,1.3210903E0,1.5776531E-1,-3.7658107E-1,-2.0179923E0,-7.721648E-1,8.8310146E-1,1.075931E0,-1.23476766E-1,1.9987476E0,-9.601943E-1,-1.676654E0,-6.514494E-1,-1.8454613E-1,-1.3368229E0,-1.239494E0,2.9617292E-1,-5.726249E-1,-2.082997E0,2.2909736E-2,2.2899554E0,5.7699997E-2,4.1320233E0,7.32252E-1,2.0573912E0,-9.513218E-2,2.0891596E-2,5.6341864E-2,-1.15568124E-1,-6.072846E-2,3.5474073E-2,1.4683383E-2,1.4732347E-1,-5.2921097E-3,6.683177E-2,-4.3269765E-2,1.0562159E-1,7.287264E-3,-7.9301834E-2,-9.5748626E-2,3.3410773E-2,-2.0303864E-2,-1.0142497E-1,-1.04046345E-1,5.046177E-3,5.7295512E-2,-7.555667E-2,-1.305059E-1,1.9405654E-2,-6.557926E-2,2.1912364E-2,4.3071296E-2,-1.20864846E-1,2.5506163E-2,1.2243345E-1,4.090252E-2,2.1227372E-1,-3.3118192E-2,5.4967977E-2,3.0702291E-2,1.3588297E-1],"categories":[],"categories_nodes":[],"categories_segments":[],"categories_sizes":[],"default_left":[0,0,0,0,0,0,0,0,0,0,0,0,0,0,0,0,0,0,0,0,0,0,0,0,0,0,0,0,0,0,0,0,0,0,0,0,0,0,0,0,0,0,0,0,0,0,0,0,0,0,0,0,0,0,0,0,0,0,0,0,0,0,0,0,0,0,0,0,0,0,0,0,0,0,0,0,0,0,0,0,0,0,0,0,0,0,0,0,0],"id":19,"left_children":[1,3,5,7,9,11,13,15,17,19,21,23,25,27,29,31,33,35,37,39,41,43,45,47,49,-1,-1,-1,-1,51,-1,53,55,57,59,61,-1,63,65,67,69,-1,71,73,75,77,79,-1,81,-1,83,85,87,-1,-1,-1,-1,-1,-1,-1,-1,-1,-1,-1,-1,-1,-1,-1,-1,-1,-1,-1,-1,-1,-1,-1,-1,-1,-1,-1,-1,-1,-1,-1,-1,-1,-1,-1,-1],"loss_changes":[4.7924506E2,2.9733456E2,6.5302124E1,3.0494403E2,3.9778107E1,2.2803162E1,2.5507454E1,4.3004677E1,3.242975E1,5.844815E1,4.730912E1,1.0712769E1,6.556505E-2,1.2277899E0,1.4642319E1,2.954628E1,2.2080263E1,4.7456085E1,2.1507965E1,3.4000458E1,1.3224182E1,2.6852774E1,4.989363E1,1.2781258E0,8.609833E0,0E0,0E0,0E0,0E0,1.3668144E1,0E0,2.140449E1,3.858589E1,1.3315964E1,1.6161781E1,3.0950806E1,0E0,